#ifndef CONV2_PARAMS_H
#define CONV2_PARAMS_H

#include "constants.h"

// input 26x26x5, kernel_num = 10

const float conv2_filter_weight[CONV2_K_NUM * NUM_05CH * FILTER_SIZE * FILTER_SIZE] ={
// Kernel00
	0.018796101212501526, -0.09494151175022125, 0.12786738574504852, 
	-0.039718203246593475, -0.09965593367815018, 0.020004557445645332, 
	0.08665446192026138, 0.11621010303497314, -0.1211092472076416, 

	0.039212122559547424, -0.006574175786226988, -0.043497297912836075, 
	-0.13569284975528717, 0.11958296597003937, -0.027410337701439857, 
	0.09353356808423996, -0.011221510358154774, 0.10940755158662796, 

	-0.10973266512155533, -0.08286488801240921, 0.07877659052610397, 
	0.13237141072750092, -0.07243774831295013, -0.12932239472866058, 
	0.13012713193893433, 0.01804978772997856, -0.11289527267217636, 

	0.04233625903725624, 0.08812111616134644, 0.016483763232827187, 
	0.06261902302503586, 0.03536964952945709, 0.12577317655086517, 
	0.12455734610557556, -0.029638193547725677, -0.11455149948596954, 

	-0.03364880755543709, -0.12207631766796112, -0.11015504598617554, 
	-0.10066624730825424, 0.08664676547050476, -0.08097906410694122, 
	0.018734648823738098, -0.13893532752990723, -0.00135007593780756, 
// Kernel01
	-0.06884484738111496, -0.09931602329015732, -0.012098835781216621, 
	0.15682552754878998, 0.0545322559773922, -0.01483432948589325, 
	0.05377848073840141, 0.020370371639728546, 0.030933590605854988, 

	-0.14344049990177155, -0.1443643569946289, -0.06739197671413422, 
	-0.08808524161577225, -0.12207159399986267, 0.0029335522558540106, 
	0.1129952222108841, 0.17832478880882263, 0.13294373452663422, 

	-0.1184697076678276, -0.018281392753124237, 0.10291366279125214, 
	-0.007977327331900597, 0.24429796636104584, 0.13444943726062775, 
	0.1616692692041397, 0.23050644993782043, 0.2062406688928604, 

	0.09144456684589386, 0.04802371561527252, 0.029302475973963737, 
	-0.05092907324433327, 0.13844391703605652, 0.12694008648395538, 
	0.16320548951625824, -0.02933686412870884, -0.009750355035066605, 

	0.13428281247615814, -0.027704618871212006, -0.022031955420970917, 
	-0.13916708528995514, 0.0577986016869545, 0.03175962716341019, 
	-0.13536418974399567, 0.08718845993280411, 0.013476768508553505, 
// Kernel02
	0.10466952621936798, 0.1129084900021553, 0.17553406953811646, 
	0.0923350378870964, -0.03233201429247856, 0.020503677427768707, 
	0.20285409688949585, 0.0475931353867054, 0.23145434260368347, 

	-0.0755901113152504, 0.01824997551739216, -0.04305649176239967, 
	0.006453180219978094, 0.06376414000988007, 0.01675744168460369, 
	0.027827640995383263, -0.056714288890361786, 0.022979460656642914, 

	0.06523464620113373, -0.05974363908171654, 0.21703684329986572, 0.07006846368312836, 0.17915862798690796, 0.17306719720363617, 0.08247019350528717, 0.057962000370025635, 0.18263903260231018, -0.010840477421879768, 0.1510026901960373, 0.1248624175786972, 0.0755067765712738, 0.15911632776260376, -0.02735120803117752, 0.057463355362415314, 0.13848181068897247, 0.12627016007900238, 0.017178650945425034, 0.15163947641849518, -0.07571239769458771, 0.06673068553209305, -0.0427548885345459, -0.1386108696460724, 0.045248035341501236, 0.007733151316642761, -0.06304933875799179, -0.046661488711833954, 0.19011066854000092, -0.01022791862487793, -0.03826407343149185, -0.09734565764665604, -0.11402813345193863, 0.07931921631097794, 0.09597838670015335, -0.04246422275900841, -0.06477001309394836, -0.08658009767532349, 0.14678555727005005, -0.004916026256978512, -0.06405873596668243, 0.04403198882937431, -0.1413797289133072, 0.060726940631866455, 0.036312419921159744, -0.06780213862657547, 0.13890226185321808, 0.009390146471560001, -0.1325315237045288, -0.11560405790805817, 0.18496181070804596, -0.03199128806591034, 0.03633026033639908, 0.07136714458465576, 0.06567948311567307, 0.17030614614486694, 0.15380889177322388, -0.013254376128315926, 0.15554460883140564, 0.12706603109836578, -0.015265066176652908, 0.00932430662214756, 0.07240522652864456, -0.008725808933377266, 0.08860016614198685, -0.163529634475708, -0.07747848331928253, 0.10476388037204742, 0.0846823900938034, 0.04207349568605423, 0.0265965536236763, -0.18048040568828583, 0.018172312527894974, -0.08837903290987015, -0.06359799206256866, -0.08192376047372818, -0.09128773957490921, -0.13663843274116516, 0.13803523778915405, 0.04823390766978264, -0.12047971040010452, 0.03267861530184746, -0.025151140987873077, -0.09692979604005814, -0.10816112160682678, -0.015351817943155766, 0.1009971871972084, -0.07038851082324982, 0.12362396717071533, -0.03372497111558914, 0.020035358145833015, -0.08633730560541153, -0.036350756883621216, -0.0037201724480837584, -0.1318875402212143, -0.08596325665712357, -0.07547936588525772, -0.08003978431224823, 0.10687857121229172, -0.08863388746976852, -0.11093747615814209, 0.10836338251829147, -0.04738308861851692, -0.12588384747505188, -0.12692099809646606, -0.08903596550226212, -0.07467888295650482, -0.07003431767225266, -0.03280486911535263, -0.13619443774223328, 0.04370970278978348, 0.1265559196472168, -0.07515932619571686, -0.09668965637683868, 0.1336173713207245, 0.10822474211454391, -0.13773944973945618, -0.11337430775165558, 0.07795076072216034, 0.10523612797260284, 0.11073102802038193, -0.12127973139286041, 0.08268105983734131, 0.03172386810183525, -0.11926215887069702, -0.05638209730386734, -0.06870739907026291, 0.09074418246746063, -0.05212702602148056, -0.015716923400759697, -0.023415464907884598, -0.00908014364540577, -0.13083942234516144, 0.08520377427339554, -0.00021449598716571927, 0.09311135858297348, -0.07307243347167969, -0.051706358790397644, 0.05994963273406029, -0.1231081634759903, -0.05899312347173691, 0.061832502484321594, 0.04939863458275795, -0.12441667914390564, -0.10001478344202042, 0.07212015241384506, 0.011580546386539936, 0.1390175223350525, 0.11181528121232986, 0.08006738126277924, -0.13603895902633667, 0.010737443342804909, 0.01940106973052025, -0.03836372122168541, -0.06782156229019165, -0.06371168792247772, -0.10855676978826523, 0.11766088008880615, 0.10475819557905197, -0.03768794611096382, 0.12113219499588013, 0.13827092945575714, -0.1397983878850937, 0.008302222937345505, -0.01766984909772873, 0.0632283166050911, -0.13724833726882935, 0.025608526542782784, -0.09572641551494598, -0.03555326536297798, -0.011932019144296646, -0.13552290201187134, -0.032143235206604004, 0.06385835260152817, -0.0482422411441803, 0.08175045251846313, -0.0375857874751091, 0.07258034497499466, 0.08548274636268616, -0.05247222259640694, -0.03413710743188858, -0.04916147142648697, 0.1636076122522354, -0.14503233134746552, -0.10466927289962769, -0.117572121322155, -0.01349852979183197, 0.07225164026021957, -0.035386037081480026, 0.05121465027332306, 0.133854940533638, 0.12016209959983826, -0.023739738389849663, -0.02364281564950943, 0.007000696379691362, -0.09670460969209671, 0.04657784476876259, -0.00013281844439916313, 0.10640527307987213, 0.025269143283367157, -0.1551932990550995, 0.04740738496184349, 0.029358064755797386, -0.12481177598237991, 0.13593558967113495, -0.11177346110343933, -0.13384570181369781, 0.005434300750494003, 0.027136661112308502, 0.18960683047771454, -0.05414118617773056, 0.001382304704748094, -0.0009357910021208227, 0.15337572991847992, 0.21314111351966858, 0.028604887425899506, 0.09472353011369705, -0.058795180171728134, 0.030851520597934723, 0.11065220087766647, 0.08244577050209045, 0.04600131884217262, -0.028462594375014305, 0.058012619614601135, -0.07022120803594589, -0.11445940285921097, 0.02701568603515625, 0.05753094702959061, 0.071440190076828, 0.1683283895254135, 0.23145203292369843, 0.1198107972741127, 0.02077895775437355, 0.19101572036743164, 0.16677261888980865, 0.224659726023674, 0.13355770707130432, 0.13620580732822418, 0.23095226287841797, 0.09056664258241653, -0.003606820246204734, 0.17030683159828186, 0.13745026290416718, -0.03541911393404007, 0.13284005224704742, 0.00797867402434349, 0.04150860756635666, -0.06213172525167465, -0.006326924078166485, 0.06311941891908646, -0.1145169585943222, -0.13954150676727295, 0.1017109751701355, 0.24817167222499847, 0.1813049018383026, 0.1854376345872879, 0.4388246536254883, 0.4331739544868469, 0.4021432101726532, 0.5323739051818848, 0.4674171507358551, 0.26290151476860046, 0.20642730593681335, 0.08648066222667694, 0.1755841225385666, 0.3745375871658325, 0.24714337289333344, 0.007005729246884584, 0.2786298990249634, 0.44174742698669434, 0.09513894468545914, 0.2854521870613098, 0.3999621272087097, 0.11753080785274506, 0.5605719685554504, 0.5981003046035767, 0.13183633983135223, 0.3499039113521576, 0.41891196370124817, 0.19898094236850739, -0.017232028767466545, 0.1356305032968521, 0.39472442865371704, 0.21529808640480042, -0.022753698751330376, 0.2235654592514038, 0.05877465754747391, 0.04926536977291107, 0.07735342532396317, 0.18912582099437714, 0.05438147857785225, 0.00766215194016695, -0.16832642257213593, 0.1237565129995346, -0.1933499574661255, -0.21855831146240234, -0.058463770896196365, 0.0600232370197773, -0.020487366244196892, -0.008413142524659634, 0.08191148936748505, -0.06254065036773682, -0.06922031939029694, 0.07350412756204605, 0.09716422855854034, -0.12777245044708252, 0.15424712002277374, 0.19241361320018768, 0.14502622187137604, 0.0601765438914299, 0.23214179277420044, -0.008511648513376713, 0.14902831614017487, 0.004835385363548994, -0.0007854665745981038, 0.06734058260917664, 0.25017035007476807, 0.053424056619405746, -0.045142848044633865, 0.11768733710050583, 0.1256902813911438, 0.015467467717826366, 0.046653229743242264, 0.021657967939972878, -0.06391793489456177, -0.04012788087129593, -0.06195763126015663, 0.16204871237277985, -0.007731512654572725, -0.02301001362502575, 0.08871480077505112, 0.057192474603652954, -0.11666161566972733, -0.13332796096801758, -0.022845864295959473, 0.09179554134607315, -0.15925061702728271, -0.03757616877555847, -0.03479967266321182, 0.11018503457307816, 0.13699862360954285, 0.09869559109210968
};

const float conv2_filter_bias[CONV2_K_NUM] = {
	-0.05871925130486488, 
	-0.0005392517196014524, 
	0.04551752284169197, 
	0.06976193189620972, 
	0.00246786093339324, 
	0.0840107724070549, 
	0.16382074356079102, 
	0.0693521648645401, 
	0.2683166563510895, 
	-0.07078415155410767};

#endif // CONV2_PARAMS_H