#ifndef CONV4_PARAMS_H
#define CONV4_PARAMS_H

#include "constants.h"

// input 10x10x12, ch_num = 15

const float conv4_filter_weight[CONV4_K_NUM * NUM_12CH *  FILTER_SIZE * FILTER_SIZE] ={
	0.03594076260924339, -0.11404574662446976, -0.0021081953309476376,
	-0.11187644302845001, -0.12424151599407196, 0.15219758450984955,
	-0.046345364302396774, -0.0649028792977333, 0.07063089311122894,
	-0.01478943508118391, 0.03907492011785507, 0.018180426210165024,
	0.07429701089859009, -0.13616134226322174, -0.1555348038673401,
	-0.0728149339556694, -0.01402141060680151, 0.09399127215147018,
	-0.02377443201839924, 0.020849574357271194, -0.036076705902814865,
	0.026762666180729866, 0.0869411900639534, -0.022685257717967033,
	-0.023178581148386, 0.05430389940738678, 0.08932720124721527,
	-0.292916476726532, -0.007999460212886333, 0.18680575489997864,
	-0.09679947048425674, 0.181318998336792, 0.08187445253133774,
	0.15795329213142395, 0.17405779659748077, 0.06172225996851921,
	-0.15458646416664124, -0.21420525014400482, 0.08067414909601212,
	-0.2143404483795166, -0.15276400744915009, 0.08690603077411652,
	-0.023664144799113274, 0.12389853596687317, -0.05432027950882912,
	-0.18900132179260254, 0.0017383636441081762, 0.023750627413392067,
	-0.09260579198598862, 0.10337448865175247, 0.07987271994352341,
	0.02263208106160164, 0.12584391236305237, 0.03480362147092819,
	0.03185315057635307, -0.09552700817584991, -0.0006060612504370511,
	-0.0957036167383194, -0.10953478515148163, 0.09648940712213516,
	-0.056183941662311554, 0.05479685589671135, 0.08207409828901291,
	0.06607143580913544, 0.0003897561109624803, -0.12141904979944229,
	0.024964386597275734, -0.028301799669861794, 0.03744694963097572,
	-0.005460050422698259, 0.06079085171222687, 0.005386434495449066,
	-0.06657473742961884, -0.0454113595187664, -0.08456561714410782,
	0.05933701992034912, -0.010619520209729671, -0.07151972502470016,
	0.07458483427762985, 0.019420413300395012, -0.0706939846277237,
	-0.035816386342048645, 0.015984516590833664, 0.06847398728132248,
	0.028045617043972015, 0.13940171897411346, 0.04939142242074013,
	0.12802740931510925, 0.04752334952354431, -0.08502303063869476,
	0.014626357704401016, 0.14265240728855133, 0.04236677289009094,
	0.08724252879619598, 0.004955585580319166, -0.10500647872686386,
	0.04128187149763107, 0.017964454367756844, 0.0320909358561039,
	0.022096993401646614, 0.07026747614145279, -0.04857446998357773,
	-0.0699499100446701, -0.0038197410758584738, -0.04472023621201515,
	0.07848905771970749, -0.030292876064777374, -0.002322068205103278,
	-0.04990224912762642, 0.028754467144608498, 0.06543304771184921,
	-0.009329630993306637, 0.031218087300658226, -0.0033323371317237616,
	-0.09554177522659302, 0.04793107509613037, 0.08288028091192245,
	-0.07664831727743149, -0.05442515015602112, -0.060233164578676224,
	-0.07617657631635666, 0.09100927412509918, -0.07662301510572433,
	0.07140766084194183, 0.017118724063038826, 0.00029783070203848183,
	0.05569877848029137, -0.08923380076885223, 0.013902832753956318,
	-0.07992919534444809, -0.010589173063635826, -0.09248199313879013,
	-0.043005816638469696, 0.06740858405828476, 0.018571961671113968,
	-0.0023045630659908056, 0.09125883877277374, -0.02070130780339241,
	-0.08808939158916473, -0.012540293857455254, -0.04959511011838913,
	-0.02674492821097374, -0.0026206187903881073, -0.11220042407512665,
	0.09507353603839874, 0.08740963786840439, 0.1118461936712265,
	-0.018313568085432053, 0.0560804083943367, -0.0819573923945427,
	-0.10302026569843292, 0.05670018121600151, -0.007083897944539785,
	-0.03744469955563545, 0.016075018793344498, 0.12055688351392746,
	-0.03824946656823158, -0.025422625243663788, -0.08487902581691742,
	-0.08411551266908646, -0.0786675289273262, 0.025997834280133247,
	-0.03446224704384804, -0.06271644681692123, 0.057380374521017075,
	-0.0866287499666214, -0.01338023692369461, -0.043041158467531204,
	0.007523782551288605, -0.04362594336271286, -0.08211985975503922,
	-0.009235176257789135, 0.09581827372312546, 0.0916103944182396,
	-0.0415240116417408, 0.03129401057958603, 0.04818487539887428,
	0.08367352187633514, 0.010743772611021996, -0.005768786184489727,
	-0.056391388177871704, 6.931555253686383e-05, 0.004828048869967461,
	0.09377193450927734, -0.03816450014710426, -0.09108428657054901,
	-0.07712912559509277, -0.006723499856889248, -0.09114013612270355,
	-0.04882081598043442, 0.057909995317459106, -0.02189413458108902,
	-0.0038550144527107477, 0.037305980920791626, 0.06491420418024063,
	-0.10519503057003021, 0.02960505150258541, -0.07417982071638107,
	-0.04377809166908264, 0.054421089589595795, -0.013323217630386353,
	0.012186865322291851, -0.010696635581552982, -0.09540928900241852,
	0.08115878701210022, -0.04544295743107796, 0.023427249863743782,
	0.06317707896232605, -0.009084693156182766, -0.022456401959061623,
	-0.04323422908782959, -0.051240433007478714, -0.05558159574866295,
	0.09506890177726746, 0.0467970073223114, -0.022402305155992508,
	0.013270334340631962, -0.013319896534085274, 0.03947734087705612,
	0.1006677970290184, 0.04501064866781235, 0.02747945301234722,
	0.1180199384689331, 0.09896083921194077, -0.05786532536149025,
	-0.003634233493357897, 0.16172648966312408, 0.1650986224412918,
	0.02551325224339962, 0.04009750857949257, 0.02459995448589325,
	-0.1474788337945938, -0.12514139711856842, 0.004928538575768471,
	-0.01650959998369217, 0.04632886126637459, 0.06965910643339157,
	-0.06837427616119385, 0.05824516341090202, -0.0702446773648262,
	-0.04688547924160957, -0.08246231824159622, 0.04883795604109764,
	-0.02931816130876541, -0.09011315554380417, 0.027060043066740036,
	0.13923151791095734, 0.21308521926403046, 0.20710165798664093,
	0.03812432661652565, -0.1619652658700943, -0.1846146136522293,
	0.03465729206800461, -0.1743158996105194, -0.05945253372192383,
	0.19089435040950775, 0.10532890260219574, 0.15443485975265503,
	0.07723474502563477, -0.015260000713169575, -0.026887211948633194,
	-0.11382949352264404, -0.012156832031905651, 0.05823599547147751,
	0.08690505474805832, 0.1011672094464302, 0.14267122745513916,
	-0.0008236230351030827, 0.08265957981348038, 0.05191143602132797,
	-0.026631271466612816, -0.021368006244301796, 0.022315386682748795,
	0.05533243715763092, 0.07319863140583038, -0.03043524920940399,
	0.10282612591981888, -0.04169420897960663, 0.06153545156121254,
	-0.11325163394212723, -0.07741615176200867, -0.07169177383184433,
	-0.03740963339805603, 0.07328890264034271, 0.10734637081623077,
	0.04680250212550163, 0.0034152567386627197, 0.14374583959579468,
	-0.049232419580221176, 0.09430093318223953, 0.007780957035720348,
	0.047430455684661865, 0.04517786204814911, -0.036796391010284424,
	0.05156739056110382, 0.08550349622964859, -0.05424875020980835,
	0.03033985011279583, 0.040386542677879333, 0.07841262966394424,
	-0.038848958909511566, -0.04351361468434334, -0.07838130742311478,
	0.005281431134790182, 0.00921595562249422, -0.032608821988105774,
	-0.10426730662584305, -0.07323569804430008, 0.07617169618606567,
	0.048903822898864746, -0.04685394838452339, -0.04736710339784622,
	0.015290582552552223, -0.09103837609291077, -0.00821275170892477,
	0.055847760289907455, -0.020807480439543724, 0.0025912246201187372,
	-0.0849015861749649, 0.006227727979421616, 0.04768751189112663,
	0.05498363822698593, 0.019746648147702217, 0.06044650077819824,
	0.08788758516311646, -0.035579800605773926, -0.04458720609545708,
	0.10089882463216782, -0.04857545346021652, -0.1528887003660202,
	0.07085569947957993, -0.06799610704183578, -0.01809871383011341,
	0.10075817257165909, -0.05407236889004707, -0.059798162430524826,
	-0.08054593205451965, -0.0012227247934788465, 0.000297515100101009,
	-0.06910819560289383, 0.0018531158566474915, -0.018048275262117386,
	0.02560853771865368, 0.018347973003983498, 0.035685207694768906,
	-0.06802690029144287, -0.024623651057481766, 0.05358707159757614,
	-0.03701406344771385, -0.04799973964691162, 0.04439568519592285,
	0.03894689306616783, -0.16566991806030273, -0.018645266070961952,
	-0.011874319985508919, -0.05415135249495506, 0.060217950493097305,
	0.150247722864151, -0.026353321969509125, 0.054945532232522964,
	0.11108063906431198, -0.11196420341730118, -0.19488252699375153,
	0.17142988741397858, -0.07476960867643356, -0.12070370465517044,
	0.07303893566131592, 0.065806083381176, -0.004184258170425892,
	-0.048876408487558365, -0.12978805601596832, -0.1247064471244812,
	-0.014661329798400402, -0.10888796299695969, 0.04769069328904152,
	-0.0351870134472847, 0.06880958378314972, 0.09238723665475845,
	-0.08397765457630157, 0.07084139436483383, -0.07123682647943497,
	0.0061361477710306644, 0.047277599573135376, 0.014984621666371822,
	-0.04564616084098816, -0.06760983914136887, 0.054703496396541595,
	0.07604722678661346, -0.09142591804265976, -0.062341999262571335,
	-0.0009296706411987543, 0.02994460240006447, -0.09116080403327942,
	-0.0885797068476677, -0.08898179978132248, -0.10890551656484604,
	-0.02280779555439949, -0.04935085400938988, -0.07175036519765854,
	0.09420548379421234, -0.05870464816689491, -0.0633256733417511,
	0.004709120374172926, 0.044029053300619125, 0.06908755004405975,
	0.06557197868824005, -0.02751973830163479, 0.05732101947069168,
	-0.034000661224126816, -0.09655778110027313, 0.06311801820993423,
	0.010861418209969997, -0.06977272778749466, 0.05650835484266281,
	-0.016887202858924866, -0.002969117369502783, 0.061348043382167816,
	0.032044991850852966, 0.06552483141422272, 0.044600650668144226,
	-0.016898373141884804, -0.05369983986020088, 0.07055635750293732,
	0.06732849031686783, 0.053529929369688034, -0.0391421802341938,
	-0.061162929981946945, -0.05114509165287018, 0.017524229362607002,
	-0.007961452938616276, -0.08064356446266174, -0.011326245963573456,
	0.11765957623720169, 0.08832946419715881, 0.07470357418060303,
	0.1374536156654358, -0.022472018375992775, -0.06590637564659119,
	-0.18368284404277802, -0.01089775562286377, -0.06191724166274071,
	0.08034760504961014, -0.0680786743760109, -0.09006495028734207,
	-0.07274463027715683, -0.0024744579568505287, 0.016382182016968727,
	0.07406651228666306, 0.14429154992103577, 0.021417202427983284,
	0.042555149644613266, 0.05370079353451729, 0.01832563430070877,
	-0.049519557505846024, 0.025759674608707428, -0.06977296620607376,
	0.01146372314542532, -0.05498282611370087, 0.01778245158493519,
	0.2527540922164917, 0.31098613142967224, 0.19395668804645538,
	-0.10714128613471985, -0.2887813448905945, -0.0830765888094902,
	-0.2852838337421417, -0.10482800751924515, -0.01255729142576456,
	0.11217909306287766, 0.2502284049987793, 0.11830522119998932,
	0.02306026965379715, 0.05313483253121376, -0.0794307217001915,
	-0.20652446150779724, -0.22430811822414398, -0.027173597365617752,
	0.19729696214199066, 0.23352493345737457, 0.15137986838817596,
	-0.06333312392234802, 0.012677298858761787, -0.015247688628733158,
	-0.11915571242570877, -0.05787896364927292, 0.058687057346105576,
	0.04843899607658386, 0.0549541637301445, 0.11413762718439102,
	0.0746791809797287, -0.03770381212234497, -0.0422549732029438,
	-0.06836428493261337, 0.0023039120715111494, -0.028048129752278328,
	0.09711991995573044, -0.040942251682281494, -0.0034201715607196093,
	0.13879762589931488, 0.03746766224503517, 0.12593606114387512,
	0.015365791507065296, 0.053455982357263565, -0.07261825352907181,
	0.010026240721344948, -0.06901371479034424, 0.062078509479761124,
	0.002690318739041686, 0.033523961901664734, -3.4994393445231253e-06,
	-0.002447033766657114, 0.0025225861463695765, 0.07367692142724991,
	-0.0993867889046669, -0.1111021414399147, -0.03197833523154259,
	0.006124862469732761, -0.057266198098659515, 0.045003149658441544,
	0.0010469231056049466, 0.06180381774902344, -0.016511378809809685,
	0.09567172080278397, -0.0542912483215332, 0.03587530925869942,
	-0.05992783606052399, -0.10201321542263031, 0.0199010968208313,
	0.08918525278568268, 0.0830731987953186, 0.10659555345773697,
	-0.04682227969169617, -0.05162531137466431, -0.06470929086208344,
	0.07337409257888794, 0.032320212572813034, 0.07880979031324387,
	0.1000010147690773, 0.0005713821155950427, -0.036914579570293427,
	0.043608102947473526, 0.13348647952079773, 0.12793801724910736,
	0.027263808995485306, 0.13766680657863617, 0.03992583975195885,
	-0.08635212481021881, -0.05084751173853874, -0.002740784315392375,
	-0.10924796760082245, -0.07668805122375488, -0.014733221381902695,
	-0.08394379168748856, -0.13166557252407074, 0.046572279185056686,
	-0.0213075652718544, 0.09847944974899292, 0.03154937922954559,
	0.0800749808549881, 0.03310063108801842, 0.0028742796275764704,
	-0.02413230389356613, -0.06806136667728424, 0.06927892565727234,
	0.08384615182876587, -0.06287479400634766, -0.0668787732720375,
	0.1345854103565216, 0.300080269575119, 0.10278963297605515,
	0.22372764348983765, -0.11130529642105103, -0.3492315709590912,
	-0.02675512246787548, -0.23480616509914398, -0.21724587678909302,
	-0.05882029980421066, 0.19024339318275452, 0.22520726919174194,
	0.10695924609899521, 0.019782058894634247, -0.18825066089630127,
	0.014241257682442665, -0.08921313285827637, -0.254839688539505,
	-0.02910795249044895, 0.07746902853250504, 0.008683600462973118,
	0.025538897141814232, 0.07463507354259491, -0.08658257871866226,
	0.039251625537872314, -0.1870415061712265, -0.1522502899169922,
	0.01583702303469181, 0.09363345056772232, -0.008018777705729008,
	0.028245624154806137, 0.09578492492437363, -0.012097637169063091,
	0.09729265421628952, -0.06474810093641281, -0.07942645996809006,
	0.016991252079606056, 0.013091493397951126, 0.1278264969587326,
	0.05821209400892258, 0.028527377173304558, 0.05296822637319565,
	-0.0733475387096405, -0.04403376951813698, -0.11073180288076401,
	0.08104071766138077, 0.05236658826470375, 0.0034676496870815754,
	-0.025801820680499077, -0.031975336372852325, 0.019074084237217903,
	0.002316279336810112, -0.01048604492098093, 0.05895112082362175,
	0.14624744653701782, -0.04204915836453438, 0.052539389580488205,
	0.09857740253210068, 0.10300546884536743, 0.09261085093021393,
	0.0729176327586174, -0.032379068434238434, -0.00391132477670908,
	0.0045910910703241825, 0.1101892814040184, -0.06867194920778275,
	0.10524515062570572, 0.05101223662495613, 0.060530561953783035,
	-0.0388062484562397, 0.0935673862695694, -0.057828571647405624,
	-0.006645172368735075, -0.04121799021959305, 0.0728873685002327,
	-0.06862866878509521, -0.026912687346339226, 0.08704797178506851,
	0.08953750878572464, 0.002331217285245657, 0.0551578551530838,
	-0.1049237847328186, -0.08983641117811203, 0.14040467143058777,
	-0.11067716777324677, 0.08278023451566696, -0.07007120549678802,
	0.11937645822763443, 0.10255034267902374, 0.08805540204048157,
	-0.06768118590116501, -0.0880943089723587, -0.0775069072842598,
	-0.05947131663560867, -0.12453719973564148, 0.026341309770941734,
	-0.12788060307502747, -0.028627149760723114, 0.10070313513278961,
	0.08088504523038864, -0.03842821344733238, -0.013271189294755459,
	-0.08574608713388443, -0.0404520183801651, 0.040247365832328796,
	0.05545343458652496, 0.030904337763786316, 0.10912521183490753,
	-0.013670314103364944, 0.022515032440423965, -0.0028477946761995554,
	0.14123862981796265, 0.19090969860553741, -0.1281820833683014,
	0.33333033323287964, 0.17035743594169617, 0.06229125335812569,
	-0.02770351991057396, -0.024886272847652435, 0.14079813659191132,
	-0.01269171666353941, 0.06420907378196716, 0.02914811484515667,
	0.1609138697385788, 0.14814502000808716, 0.12566442787647247,
	-0.02978566661477089, 0.04763118922710419, 0.04560643061995506,
	0.0029779698234051466, 0.12910906970500946, 0.030828645452857018,
	0.09282403439283371, 0.16587094962596893, 0.0352056585252285,
	-0.08129175007343292, 0.033950649201869965, 0.00743084354326129,
	-0.04330826178193092, -0.07908261567354202, -0.06738179177045822,
	-0.06996800005435944, -0.03945760056376457, -0.05836944282054901,
	-0.04710216075181961, 0.006719787605106831, -0.06901387125253677,
	-0.0065896641463041306, 0.08048858493566513, 0.009743718430399895,
	-0.04158025234937668, 0.027505075559020042, -0.010615507140755653,
	0.04015342518687248, -0.04637259244918823, -0.019073644652962685,
	0.04144024848937988, -0.002937842858955264, -0.06968069821596146,
	-0.01579940691590309, 0.02309478260576725, -0.08440953493118286,
	-0.020144522190093994, 0.027829661965370178, -0.07833413779735565,
	0.12462461739778519, 0.08946365863084793, -0.10173521190881729,
	0.014397667720913887, 0.030015336349606514, -0.05332488566637039,
	-0.10160721838474274, 0.12056490778923035, 0.0019737740512937307,
	-0.03376753628253937, -0.025563005357980728, 0.0864466056227684,
	0.047923147678375244, 0.05377376824617386, -0.04497598484158516,
	0.10196944326162338, -0.08281398564577103, 0.09711524099111557,
	0.07624036818742752, 0.006913588847965002, -0.04208098724484444,
	0.036059312522411346, 0.0531766302883625, 0.018107889220118523,
	-0.03188994899392128, -0.022548705339431763, 0.0047226217575371265,
	0.10182791203260422, -0.058541473001241684, 0.10321352630853653,
	0.0578860267996788, -0.06405128538608551, 0.015240800566971302,
	-0.0030666363891214132, 0.07732953131198883, -0.057467442005872726,
	0.027547042816877365, 0.11418808251619339, -0.04187905788421631,
	0.09620155394077301, -0.08005231618881226, -0.009090499021112919,
	-0.016271093860268593, -0.03125501796603203, -0.06214285269379616,
	-0.08517055213451385, -0.020952323451638222, -0.08224528282880783,
	-0.00263360608369112, -0.012740743346512318, -0.008912775665521622,
	0.03412778303027153, -0.1418311595916748, -0.17097316682338715,
	0.014655445702373981, 0.0759197548031807, 0.032714344561100006,
	0.08885464817285538, 0.10296093672513962, 0.14137035608291626,
	-0.16052551567554474, -0.06152531877160072, -0.07765252143144608,
	-0.030294053256511688, 0.04603727161884308, -0.08454061299562454,
	0.08583542704582214, 0.0690966546535492, 0.19482289254665375,
	-0.0886806771159172, -0.0962810069322586, 0.012748196721076965,
	0.057140957564115524, -0.05225900188088417, 0.06120150536298752,
	-0.05483338236808777, -0.04338503256440163, -0.017708037048578262,
	0.002039227867498994, -0.04550676420331001, 0.05952613800764084,
	0.028624173253774643, 0.008681624196469784, -0.0274469293653965,
	-0.0797484889626503, 0.08740922063589096, -0.010332934558391571,
	-0.05338891223073006, -0.017736395820975304, -0.0382767990231514,
	-0.04553719982504845, 0.02140836976468563, -0.08849797397851944,
	0.10096181929111481, 0.05129467323422432, 0.00418530497699976,
	0.03590763732790947, -0.00995052233338356, 0.08426791429519653,
	-0.0010468699038028717, -0.00012194301234558225, 0.08672536909580231,
	0.024354465305805206, -0.04370924457907677, -0.008753757923841476,
	0.090775266289711, 0.01766951195895672, -0.011897075921297073,
	0.1140843853354454, 0.022731514647603035, 0.00291923014447093,
	-0.0019170945743098855, -0.02860015071928501, -0.022563012316823006,
	-0.018047338351607323, -0.03214799985289574, 0.02215934917330742,
	-0.032708462327718735, -0.026084933429956436, 0.05641626939177513,
	0.0002475172223057598, 0.004062174819409847, -0.054587189108133316,
	0.014664711430668831, -0.03579995036125183, 0.06488914042711258,
	-0.0937894657254219, 0.038555171340703964, 0.08251024782657623,
	0.08118210732936859, 0.0372043140232563, 0.07413315027952194,
	0.10064776986837387, -0.0163713488727808, 0.08813691884279251,
	0.049418482929468155, -0.01700614206492901, -0.07769676297903061,
	0.08259876072406769, -0.024315623566508293, 0.031111670657992363,
	0.028795138001441956, 0.010737416334450245, 0.04471413791179657,
	-0.05029362812638283, -0.018399138003587723, -0.05555049329996109,
	0.018269892781972885, 0.06802420318126678, -0.015124351717531681,
	-0.0013422889169305563, -0.028619587421417236, -0.04534781351685524,
	-0.05307328701019287, -0.03942561522126198, 0.0512256920337677,
	-0.09009198844432831, 0.03119259886443615, -0.08777069300413132,
	0.07643526047468185, 0.13167475163936615, 0.0903281718492508,
	0.05172133445739746, 0.0029084195848554373, -0.020625075325369835,
	0.07563513517379761, 0.005366093013435602, -0.039369966834783554,
	0.025346549227833748, 0.08165383338928223, 0.12492301315069199,
	0.20615124702453613, 0.002140382071956992, 0.11734770238399506,
	0.1829851120710373, 0.11641094088554382, 0.07201170176267624,
	0.019774578511714935, 0.02311147376894951, -0.06949236989021301,
	0.06799498200416565, 0.07705418765544891, -0.06595250219106674,
	0.016523707658052444, -0.05793445557355881, 0.10333197563886642,
	-0.05529611557722092, -0.029241623356938362, -0.05927598103880882,
	0.09054607152938843, -0.09195631742477417, 0.02870231866836548,
	0.07161509990692139, 0.08293226361274719, 0.03803394362330437,
	0.061836183071136475, 0.1151089146733284, 0.042251765727996826,
	-0.016440274193882942, 0.07735389471054077, 0.02071950025856495,
	-0.0635494738817215, 0.070916086435318, 0.07702665030956268,
	-0.08391637355089188, -0.07835297286510468, -0.06641560792922974,
	0.050328876823186874, -0.030772024765610695, 0.0016059759072959423,
	0.030349813401699066, -0.0015512434765696526, -0.07350887358188629,
	-0.09203527122735977, 0.056452102959156036, -0.0893695056438446,
	0.008632523007690907, -0.02464243397116661, -0.05482036992907524,
	-0.05428473651409149, -0.0021407126914709806, 0.02034306712448597,
	0.02207791619002819, 0.008779270574450493, 0.08304709196090698,
	0.016454223543405533, -0.08755891025066376, -0.0629221573472023,
	-0.0064794281497597694, -0.04189910739660263, -0.018773742020130157,
	-0.04148223623633385, -0.0679805800318718, 0.02503010258078575,
	-0.03737374395132065, -0.01381125207990408, -0.018119314685463905,
	0.01356587465852499, -0.0030064962338656187, -0.09284088015556335,
	-0.08356215804815292, 0.09463384002447128, -0.043040916323661804,
	0.05119692161679268, 0.09238670766353607, -0.04086707532405853,
	-0.08997760713100433, -0.040336865931749344, 0.06714881211519241,
	0.046051885932683945, 0.006451984401792288, 0.03188641369342804,
	0.020273299887776375, -0.05884629487991333, 0.0889919251203537,
	0.008494938723742962, -0.048622068017721176, 0.03206556290388107,
	-0.038906440138816833, -0.08125115931034088, -0.03971657529473305,
	0.04537056386470795, -0.03401138633489609, -0.026989877223968506,
	0.0744699239730835, -0.08148560672998428, -0.07156491279602051,
	0.013820008374750614, -0.05577314272522926, -0.01590430550277233,
	-0.07233741879463196, -0.0372263640165329, -0.0285042617470026,
	-0.0879557877779007, 0.07811549305915833, 0.08023059368133545,
	-0.04149267449975014, -0.0015033251838758588, -0.08980271965265274,
	-0.06594141572713852, -0.08306912332773209, -0.0746331661939621,
	-0.09424973279237747, -0.07459425181150436, 0.07851096987724304,
	0.0873817726969719, -0.09042496979236603, -0.018456393852829933,
	-0.09027647227048874, -0.07950477302074432, -0.0865427553653717,
	0.05601368099451065, -0.06737499684095383, 0.05181950703263283,
	0.07989240437746048, -0.09753905981779099, -0.05685396119952202,
	0.04356779530644417, -0.026191892102360725, -0.09095051884651184,
	-0.01911737024784088, 0.06709395349025726, 0.003124753711745143,
	0.057184115052223206, 0.03338038548827171, 0.012498453259468079,
	-0.011311902664601803, 0.08491192758083344, 0.03680495545268059,
	-0.03619534894824028, 0.045985691249370575, 0.004010149743407965,
	-0.0028607607819139957, 0.08967030793428421, 0.01085659023374319,
	0.08292678743600845, 0.04717252776026726, -0.09049345552921295,
	-0.08605791628360748, -0.07405675947666168, 0.05111733824014664,
	-0.06493265181779861, -0.0562208890914917, 0.057534512132406235,
	0.036728303879499435, 0.013053573668003082, -0.06034175306558609,
	-0.0361107662320137, -0.035822466015815735, 0.07547197490930557,
	-0.06545429676771164, -0.06628451496362686, 0.035201847553253174,
	-0.004122782964259386, 0.0034838314168155193, -0.0676971822977066,
	0.06490664929151535, -0.029666313901543617, -0.006004644557833672,
	-0.02737625129520893, 0.06899355351924896, 0.017475370317697525,
	-0.0008325178641825914, 0.0693051666021347, 0.03123435750603676,
	-0.09599883109331131, 0.017002837732434273, -0.029290949925780296,
	0.0866273045539856, -0.030222207307815552, -0.13640543818473816,
	0.06760386377573013, -0.10524448752403259, -0.09527043998241425,
	0.032310206443071365, 0.0403139553964138, 0.07414723187685013,
	0.009953525848686695, 0.022431103512644768, -0.030866822227835655,
	0.03193819895386696, 0.004513679072260857, 0.04979272186756134,
	0.002507153432816267, 0.10475536435842514, 0.0997501015663147,
	-0.01469821110367775, 0.09212885797023773, -0.023335274308919907,
	-0.07933294028043747, 0.048396628350019455, -0.009225351735949516,
	0.03212551772594452, 0.09363178163766861, 0.023430557921528816,
	0.05179419741034508, -0.03980003669857979, -0.0970708578824997,
	-0.046042315661907196, -0.06625643372535706, -0.038914717733860016,
	-0.031985167413949966, 0.037910256534814835, 0.07062555849552155,
	0.2903424799442291, -0.0557694211602211, -0.04097938910126686,
	0.10262380540370941, -0.10663576424121857, -0.14393740892410278,
	-0.010797610506415367, 0.056852035224437714, 0.04016327112913132,
	0.036521606147289276, -0.10026601701974869, -0.1576770544052124,
	-0.04812800884246826, -0.09383173286914825, 0.05747075378894806,
	-0.013400225900113583, 0.015977852046489716, 0.03710681572556496,
	0.018581191077828407, -0.03230804577469826, 0.03715500235557556,
	-0.00573938712477684, 0.0012539211893454194, -0.05499158054590225,
	0.08262640237808228, -0.035038575530052185, 0.04669637605547905,
	0.1004539281129837, -0.02413259632885456, -0.09633423388004303,
	-0.047914523631334305, 0.04195917770266533, -0.04245265573263168,
	-0.008205214515328407, 0.06304868310689926, -0.09646788239479065,
	0.016204124316573143, 0.026930812746286392, -0.01648034155368805,
	0.05674101784825325, -0.06627722084522247, -0.03569424897432327,
	-0.010418039746582508, 0.07981806248426437, -0.07615543901920319,
	-0.058096691966056824, -0.0444350503385067, 0.0257409755140543,
	-0.0937061756849289, 0.07669861614704132, 0.07148754596710205,
	-0.04994219169020653, 0.017767585813999176, 0.06369387358427048,
	-0.09209859371185303, -0.02604454755783081, 0.08735573291778564,
	-0.08865293115377426, -0.08720655739307404, -0.07947073131799698,
	-0.025607099756598473, 0.09379462152719498, -0.0532442070543766,
	0.10069941729307175, 0.056249793618917465, -0.050350483506917953,
	-0.03632325306534767, 0.07784198969602585, 0.05420271307229996,
	0.09595806151628494, -0.029640229418873787, -0.026690738275647163,
	-0.14341504871845245, 0.06582228094339371, 0.07106924057006836,
	-0.2005840688943863, -0.01653441973030567, 0.14226916432380676,
	-0.14867208898067474, 0.06814566999673843, 0.1057753935456276,
	0.020506244152784348, -0.07923053205013275, -0.11273369193077087,
	-0.060634419322013855, -0.07760613411664963, 0.07526902109384537,
	-0.03212185576558113, -0.12707658112049103, 0.01791166514158249,
	-0.0351383276283741, -0.023711776360869408, -0.01133162435144186,
	0.017083631828427315, -0.0088241221383214, 0.047310005873441696,
	0.026879535987973213, -0.023562846705317497, -0.06788240373134613,
	-0.058332476764917374, 0.2928689122200012, -0.08116099238395691,
	0.07793179154396057, 0.2705202102661133, -0.12742426991462708,
	0.11557471752166748, -0.02457527071237564, 0.013528050854802132,
	-0.343399316072464, 0.18153586983680725, 0.253444105386734,
	-0.20912125706672668, 0.14406637847423553, -0.09655385464429855,
	-0.19500887393951416, 0.04917457699775696, -0.1138581931591034,
	-0.08750603348016739, 0.08120417594909668, 0.05298897251486778,
	-0.006116705480962992, -0.043168798089027405, -0.09883974492549896,
	0.06597670167684555, -0.08214237540960312, -0.08018531650304794,
	-0.1146625429391861, 0.016377853229641914, 0.13486944139003754,
	-0.005723618436604738, 0.057445939630270004, 0.09288987517356873,
	-0.11275465041399002, -0.08721419423818588, 0.014774833805859089,
	-0.004321256652474403, -0.10334412008523941, 0.030441666021943092,
	-0.10669548064470291, -0.13255567848682404, 0.06209668517112732,
	-0.09176508337259293, -0.023475565016269684, -0.011145601980388165,
	-0.08120309561491013, 0.060936834663152695, -0.020702408626675606,
	0.059545475989580154, 0.06063061207532883, -0.07044432312250137,
	-0.05539567023515701, 0.06574999541044235, 0.01645064167678356,
	0.11490998417139053, 0.035090990364551544, -0.09815235435962677,
	0.12449618428945541, -0.02984456717967987, -0.09554249793291092,
	-0.06172717362642288, 0.07044009119272232, -0.05539611354470253,
	-0.013756749220192432, 0.11510840803384781, -0.05228891968727112,
	0.09470836073160172, -0.05401342362165451, -0.013676000759005547,
	0.020859360694885254, 0.08162133395671844, 0.04437823221087456,
	-0.06512153893709183, -0.057519566267728806, -0.07288660109043121,
	-0.055617962032556534, -0.021544158458709717, 0.032517340034246445,
	-0.0056455256417393684, -0.0034376587718725204, -0.08776400983333588,
	-0.10553949326276779, -0.0619489923119545, 0.15662260353565216,
	-0.0981336310505867, -0.04915102198719978, 0.007162587717175484,
	0.0035824249498546124, -0.11732783913612366, 0.09590543061494827,
	0.025839852169156075, -0.08765680342912674, 0.004529774188995361,
	-0.047233834862709045, -0.005886704195290804, -0.014511145651340485,
	0.019247794523835182, -0.08760645240545273, -0.046987179666757584,
	-0.07792285829782486, 0.07386825233697891, -0.052840836346149445,
	0.05779175087809563, 0.030683457851409912, 0.09542924910783768,
	-0.02704695798456669, -0.0668831616640091, -0.01757890358567238,
	-0.09154640883207321, 0.18105627596378326, 0.039899662137031555,
	-0.18153007328510284, 0.17436309158802032, 0.18830175697803497,
	-0.11106632649898529, 0.06867353618144989, 0.24459850788116455,
	-0.03696718439459801, -0.01638546586036682, 0.28041142225265503,
	-0.2049352526664734, -0.11867954581975937, 0.17653365433216095,
	-0.1076558381319046, -0.11962511390447617, 0.0673665851354599,
	0.020457718521356583, 0.151825949549675, 0.05040787160396576,
	-0.10742837935686111, 0.1188371330499649, -0.03900335729122162,
	-0.05307772383093834, 0.08825132250785828, 0.04954725131392479,
	0.028802454471588135, 0.06812012195587158, -0.028904182836413383,
	-0.10724438726902008, -0.021147890016436577, -0.08904504030942917,
	-0.06138328090310097, 0.04842293635010719, -0.0002819830260705203,
	0.03756343200802803, -7.063129942252999e-06, -0.05051806569099426,
	0.05114034563302994, 0.05472121015191078, 0.008332813158631325,
	-0.005539214238524437, 0.0287141315639019, 0.07970034331083298,
	-0.07874024659395218, 0.03799714520573616, 0.00015639662160538137,
	0.053504712879657745, 0.015253141522407532, -0.02673307992517948,
	-0.08630936592817307, 0.0841364935040474, -0.00864326860755682,
	-0.017412733286619186, 0.03186879679560661, -0.12515804171562195,
	-0.08582910150289536, 0.11674831807613373, -0.05565924942493439,
	-0.1059330552816391, 0.05059469863772392, 0.06155616417527199,
	-0.07416358590126038, -0.02460566908121109, -0.010355795733630657,
	-0.033341601490974426, -0.00020664090698119253, 0.08036516606807709,
	-0.032468557357788086, -0.08327387273311615, -0.08312194049358368,
	0.009033644571900368, -0.08340427279472351, 0.0959664061665535,
	0.07675518840551376, 0.08943871408700943, -0.06897314637899399,
	-0.10012659430503845, -0.020119670778512955, 0.0713670402765274,
	0.053587980568408966, 0.07012879848480225, -0.07653771340847015,
	0.01499546691775322, 0.14930249750614166, -0.052856504917144775,
	-0.009905681945383549, -0.0716850534081459, -0.054465606808662415,
	0.09426169842481613, -0.022453583776950836, -0.08542217314243317,
	0.09113049507141113, 0.023730313405394554, 0.011714129708707333,
	-0.11178266257047653, -0.05622565746307373, -0.028152817860245705,
	0.09293501079082489, -0.04426746815443039, 0.07672256976366043,
	0.001023220014758408, 0.01371928583830595, -0.06464218348264694,
	-0.07441286742687225, -0.02912307158112526, -0.05043979361653328,
	0.08508479595184326, -0.12232914566993713, -0.24824258685112,
	0.15641936659812927, -0.03538203984498978, -0.22788570821285248,
	0.06497806310653687, -0.181272491812706, -0.1620124876499176,
	0.09107428789138794, 0.02620851621031761, -0.06345974653959274,
	0.19505707919597626, 0.040058571845293045, -0.23884765803813934,
	0.1942274570465088, -0.059418946504592896, -0.2324897050857544,
	0.006045053713023663, 0.0651020035147667, -0.09853270649909973,
	0.040468163788318634, -0.02716142125427723, -0.12052306532859802,
	0.057694677263498306, -0.15197089314460754, -0.15289074182510376,
	0.023861030116677284, -0.03834131360054016, 0.017653772607445717,
	-0.05683453008532524, 0.09848031401634216, -0.08829178661108017,
	0.10433384031057358, 0.019234616309404373, -0.049616388976573944,
	0.10838042199611664, -0.01161198504269123, 0.011845973320305347,
	0.01986086554825306, 0.012063301168382168, -0.036387719213962555,
	0.12242650985717773, -0.08204308152198792, -0.05436944216489792,
	-0.04404732957482338, -0.04613607004284859, -0.04629683867096901,
	0.018824748694896698, -0.030283387750387192, 0.01867399923503399,
	0.01970556564629078, -0.03864770755171776, 0.022320738062262535,
	-0.06123640760779381, -0.10121215134859085, -0.05888138711452484,
	-0.01714686118066311, 0.014589020051062107, -0.02880260720849037,
	0.0687522292137146, 0.08766413480043411, -0.05743886157870293,
	0.034747716039419174, -0.024378176778554916, 0.018371228128671646,
	0.025566088035702705, -0.04647194221615791, -0.07852743566036224,
	0.036978188902139664, -0.03607478737831116, 0.07392360270023346,
	0.05138438567519188, 0.016685396432876587, -0.07640615850687027,
	-0.038229405879974365, -0.010681665502488613, -0.07826115190982819,
	-0.020558370277285576, 0.08843641728162766, -0.0667208805680275,
	-0.09155019372701645, -0.039535343647003174, -0.008602960035204887,
	0.04084872826933861, 0.022794833406805992, -0.02123427763581276,
	-0.03482186794281006, 0.041756536811590195, 0.046978384256362915,
	0.07407518476247787, -0.011892011389136314, -0.082491934299469,
	-0.06636720150709152, 0.02756834402680397, 0.12152847647666931,
	-0.06689175963401794, 0.013250586576759815, -0.01467131357640028,
	-0.0017558796098455787, 0.05070630833506584, 0.005915717221796513,
	0.04163052514195442, -0.01055660005658865, -0.03813705965876579,
	-0.07915091514587402, 0.018540631979703903, 0.08166641741991043,
	-0.12426488101482391, 0.014917152002453804, -0.16910868883132935,
	0.05023644119501114, 0.06406115740537643, -0.056082893162965775,
	0.033435653895139694, 0.10983429849147797, 0.13610705733299255,
	-0.06453867256641388, -0.07514327019453049, -0.1256726086139679,
	-0.02692285180091858, 0.03604717180132866, -0.06252145022153854,
	-0.0004193431232124567, 0.13514994084835052, 0.11629440635442734,
	-0.04513118788599968, 0.01832367666065693, -0.13587865233421326,
	-0.004422332625836134, -0.006762681994587183, 0.042776770889759064,
	0.1058008149266243, 0.037083838135004044, 0.01847016252577305,
	-0.0615178644657135, 0.0361485630273819, -0.042958833277225494,
	-0.07946164160966873, -0.019073814153671265, -0.0866011381149292,
	0.04721072316169739, 0.10370407998561859, 0.0317469947040081,
	0.05593743175268173, -0.10169479250907898, 0.06843163818120956,
	-0.051103375852108, -0.0951508954167366, -0.009467288851737976,
	0.030067462474107742, 0.03284091502428055, -0.08062762022018433,
	-0.05282497778534889, 0.05879632383584976, 0.008993388153612614,
	0.08592535555362701, -0.020531516522169113, 0.01614365167915821,
	-0.08851926028728485, 0.09023348242044449, -0.06663859635591507,
	-0.04967695102095604, 0.10401653498411179, -0.05509111285209656,
	0.011377857998013496, -0.07306962460279465, -0.035549603402614594,
	-0.013446037657558918, 0.07555586844682693, -0.07417595386505127,
	-0.05543815344572067, -0.004643660504370928, 0.07446379214525223,
	-0.01030553039163351, 0.034058913588523865, -0.053742483258247375,
	-0.011383360251784325, -0.0016015841392800212, -0.044479645788669586,
	0.0205384474247694, 0.00410168431699276, 0.03246913105249405,
	-0.07808474451303482, 0.05472145974636078, -0.03717510774731636,
	-0.042649075388908386, 0.05145986005663872, -0.08275993168354034,
};


const float conv4_filter_bias[CONV4_K_NUM] = {
	-0.0473521389067173, 0.1322055459022522, -0.029707519337534904,
	-0.07981421798467636, 0.11482065171003342, 0.00929213035851717,
	0.0019797789864242077, -0.08454468846321106, 0.030307715758681297,
	0.006196772214025259, 0.020502258092164993, -0.10855866968631744,
	-0.0476982481777668, -0.007100521586835384, 0.021627534180879593,
};

#endif // CONV4_PARAMS_H