#ifndef LIN2_PARAMS_h
#define LIN2_PARAMS_h

// Total params 410

const float lin2_weight[FC02NODENUM * OUTPUT_SIZE] = {
	0.016276776790618896, -0.035707853734493256, -0.0869121178984642,
	-0.2468618005514145, -0.13567541539669037, 0.05115370452404022,
	-0.19849893450737, 0.23888233304023743, -0.0099630793556571,
	0.0320604182779789, 0.0914190486073494, -0.13825014233589172,
	0.3593834638595581, -0.00615689205005765, 0.2399212270975113,
	0.2897080183029175, -0.14808718860149384, -0.13305439054965973,
	-0.08776503056287766, 0.1092338040471077, -0.2766839563846588,
	-0.14967937767505646, -0.14066623151302338, 0.042389653623104095,
	0.13326068222522736, -0.13990946114063263, -0.019560832530260086,
	-0.06578080356121063, 0.01957189105451107, 0.03891453146934509,
	0.07297411561012268, -0.1433737874031067, -0.054846785962581635,
	0.314059317111969, -0.19411824643611908, 0.02826077677309513,
	-0.020148221403360367, -0.08219075947999954, -0.12345297634601593,
	-0.08657369017601013, -0.15399137139320374, 0.0848548486828804,
	0.05343698337674141, -0.1613987684249878, 0.11079682409763336,
	0.23254640400409698, 0.34651684761047363, 0.07636545598506927,
	0.1731906533241272, -0.10349871218204498, -0.15470273792743683,
	-0.08539342880249023, -0.11420537531375885, 0.050633423030376434,
	0.1995113641023636, -0.04138105362653732, -0.04099290072917938,
	0.054960962384939194, 0.12086816877126694, -0.14523540437221527,
	0.1662445068359375, 0.10541187226772308, -0.03638714551925659,
	-0.06987931579351425, -0.1867464929819107, 0.16318026185035706,
	-0.2521882653236389, 0.18589134514331818, 0.05024857446551323,
	-0.0034936603624373674, 0.1600429266691208, 0.24371427297592163,
	-0.012937597930431366, -0.10720161348581314, -0.16424214839935303,
	-0.17415685951709747, 0.19094696640968323, 0.14071369171142578,
	-0.09744077175855637, -0.026176948100328445, 0.1877041608095169,
	-0.2251785844564438, 0.15499825775623322, -0.17256568372249603,
	0.27954745292663574, 0.04373539611697197, 0.1071975901722908,
	-0.20882548391819, -0.18981850147247314, 0.09544806182384491,
	0.2451566606760025, -0.17068612575531006, 0.1668333262205124,
	0.12690891325473785, 0.15422628819942474, -0.029991140589118004,
	0.009451785124838352, 0.16802462935447693, 0.14853434264659882,
	-0.23619535565376282, 0.14667002856731415, 0.12073612213134766,
	-0.0474138967692852, 0.12361419945955276, -0.2745906710624695,
	0.2522464096546173, 0.2410546988248825, -0.1745767444372177,
	-0.2594618797302246, -0.0919254869222641, -0.08795672655105591,
	0.27045467495918274, -0.025692583993077278, 0.10996901243925095,
	0.05051562190055847, 0.058510731905698776, -0.23736988008022308,
	-0.14110900461673737, -0.3331700563430786, 0.031504664570093155,
	0.20263390243053436, 0.22744296491146088, -0.05870000645518303,
	-0.07488923519849777, -0.3332160413265228, 0.019512001425027847,
	-0.048349395394325256, -0.10038535296916962, -0.20864495635032654,
	-0.13586491346359253, 0.08785951137542725, -0.014119785279035568,
	0.1737501174211502, -0.04221886768937111, -0.3560209572315216,
	-0.08402363955974579, 0.14912305772304535, -0.000921426631975919,
	-0.059268392622470856, 0.06322169303894043, 0.34627389907836914,
	-0.07890643179416656, -0.04159332439303398, -0.13484956324100494,
	0.03995724767446518, 0.1799854040145874, -0.04614473506808281,
	-0.00917126890271902, -0.16006192564964294, 0.13650190830230713,
	-0.17955754697322845, -0.10561751574277878, 0.060333143919706345,
	0.08527125418186188, 0.21555867791175842, -0.25624966621398926,
	-0.16674283146858215, -0.12386454641819, 0.06088891252875328,
	0.10376570373773575, -0.23201289772987366, -0.3384588360786438,
	-0.020837077870965004, 0.3286445736885071, 0.04584304243326187,
	-0.21923193335533142, 0.2509189248085022, -0.00991945993155241,
	0.058849021792411804, 0.14501239359378815, -0.025990895926952362,
	0.001324723707512021, -0.1243072897195816, -0.12295249104499817,
	0.10354522615671158, 0.16341601312160492, -0.023690689355134964,
	-0.08714547753334045, 0.020976504310965538, -0.1660759001970291,
	0.1608734279870987, -0.057983528822660446, -0.07806379348039627,
	-0.15405893325805664, 0.2581455111503601, -0.27869269251823425,
	-0.06711532175540924, -0.287626713514328, -0.04544572904706001,
	0.08805561065673828, 0.15316596627235413, -0.03720417246222496,
	-0.05500734969973564, 0.015935294330120087, 0.12370072305202484,
	-0.04802258312702179, 0.06019427254796028, 0.058359138667583466,
	0.13376419246196747, -0.15309128165245056, 0.2654262185096741,
	0.17708280682563782, -0.025110658258199692, 0.09802037477493286,
	-0.11234182864427567, 0.17612279951572418, -0.1061900407075882,
	0.1517437994480133, 0.22880572080612183, 0.15191614627838135,
	0.08144547790288925, 0.05673795938491821, -0.03808541223406792,
	0.06013570725917816, -0.11330273002386093, 0.03490868955850601,
	-0.02102181501686573, 0.22011463344097137, 0.08166923373937607,
	-0.014621547423303127, -0.32050621509552, 0.1299588978290558,
	-0.10993915051221848, -0.007230439223349094, -0.05340229347348213,
	-0.181646466255188, -0.0443279854953289, -0.019365863874554634,
	0.12953858077526093, 0.051474422216415405, 0.1437147706747055,
	-0.07156192511320114, 0.04661073163151741, -0.0576300323009491,
	0.06251134723424911, -0.23811201751232147, -0.17047430574893951,
	0.19525939226150513, 0.0417364165186882, 0.11990994215011597,
	-0.1991257220506668, 0.24922211468219757, 0.10738809406757355,
	0.2272646576166153, 0.11266545951366425, -0.15826989710330963,
	0.1893634796142578, 0.04965393245220184, -0.21258164942264557,
	-0.00923233013600111, -0.21277479827404022, -0.09126369655132294,
	-0.054951366037130356, -0.04778466001152992, 0.07530844956636429,
	0.05968263000249863, 0.06496083736419678, -0.14389395713806152,
	0.04724949598312378, 0.1260073482990265, -0.314848929643631,
	-0.06578915566205978, 0.14236348867416382, 0.07869056612253189,
	-0.25738346576690674, 0.00788467563688755, 0.17614644765853882,
	0.07074690610170364, 0.2401898354291916, 0.12565921247005463,
	0.14617511630058289, -0.013711178675293922, 0.062570720911026,
	0.19675591588020325, -0.22119073569774628, 0.17997333407402039,
	-0.02366298995912075, -0.3490872085094452, 0.06192193925380707,
	0.11220363527536392, 0.14225928485393524, -0.07431443780660629,
	0.006517073139548302, -0.2234199196100235, 0.18523167073726654,
	-0.2967735528945923, 0.0445806123316288, -0.26991042494773865,
	-0.0012254101457074285, -0.04722315073013306, 0.31338047981262207,
	0.1411353498697281, -0.2800779640674591, 0.028444383293390274,
	0.2164786159992218, -0.05472409725189209, -0.06519848853349686,
	0.08064411580562592, 0.1325763314962387, 0.31919360160827637,
	-0.029545720666646957, 0.07120241969823837, 0.13240136206150055,
	0.24209590256214142, 0.3302631974220276, 0.2574869692325592,
	0.05402577295899391, 0.07240812480449677, -0.11143805831670761,
	0.09544584900140762, 0.07059774547815323, -0.1511654108762741,
	-0.1309845745563507, -0.10398053377866745, 0.023340169340372086,
	0.0569007471203804, 0.10115372389554977, -0.04250581935048103,
	0.19132617115974426, -0.15569938719272614, -0.03404626250267029,
	-0.07456033676862717, 0.15225888788700104, 0.16832976043224335,
	0.1463824361562729, -0.1554865539073944, -0.19671781361103058,
	-0.07092981040477753, -0.15685799717903137, 0.19341513514518738,
	0.12437524646520615, -0.18530121445655823, -0.009195947088301182,
	-0.06692100316286087, -0.16234272718429565, -0.080597884953022,
	-0.047797173261642456, 0.21637234091758728, -0.1304979771375656,
	0.05364729464054108, 0.15735960006713867, -0.09191097319126129,
	-0.10125566273927689, -0.09647165983915329, -0.10915391892194748,
	0.1485861986875534, -0.1466844230890274, 0.20453651249408722,
	0.07971571385860443, 0.14117291569709778, 0.2776868939399719,
	-0.05939627066254616, 0.04458758980035782, 0.03055405803024769,
	-0.10220162570476532, 0.03699415922164917, 0.0562065951526165,
	-0.18953005969524384, -0.038827188313007355, -0.11923746019601822,
	-0.01072654128074646, -0.09797952324151993, 0.13645325601100922,
	0.06447132676839828, -0.07614637911319733, 0.19996941089630127,
	-0.2129329890012741, 0.18565495312213898, -0.18475571274757385,
	0.03856523334980011, 0.04870657995343208, 0.07655198127031326,
	0.09870298206806183, 0.09371521323919296, -0.14336341619491577,
	0.056281059980392456, 0.024699682369828224, -0.2515029311180115,
	-0.0015356555813923478, -0.057801440358161926, 0.07219941914081573,
	-0.0869918093085289, -0.015067444182932377, 0.11481457203626633,
	0.07265089452266693, -0.24514739215373993, -0.18114885687828064,
	0.3198240101337433, 0.16708992421627045, 0.050441205501556396,
	-0.26940298080444336, -0.05068507790565491, -0.1369665265083313,
	-0.21954086422920227, 0.03868121653795242, 0.29265373945236206,
	0.11138369143009186, 0.22715726494789124, 0.19342650473117828,
	-0.2572656571865082,
};


const float lin2_bias[OUTPUT_SIZE] = {
	0.037196915596723557, 0.2796066403388977, 0.07115482538938522,
	-0.08020371943712234, -0.010705151595175266, -0.003972213715314865,
	0.061231739819049835, 0.05916554108262062, -0.12491537630558014,
	-0.005694019608199596,
};


#endif // LIN2_PARAMS_h