	0.10162165015935898, 0.383788138628006, 0.34128573536872864,
	0.3802374303340912, 0.5400446057319641, 0.10853635519742966,
	0.1750611960887909, 0.40734994411468506, 0.20728574693202972,
	-0.10108871012926102, -0.1783776879310608, 0.1121985986828804,
	0.04261321201920509, -0.11869130283594131, 0.08174841105937958,
	-0.00897278543561697, -0.029013289138674736, 0.14228013157844543,
	0.10107731074094772, 0.4180653691291809, 0.2585316300392151,
	0.2799767255783081, 0.40507104992866516, 0.29665407538414,
	0.20101411640644073, 0.3069789707660675, 0.2327338606119156,
	0.030120911076664925, -0.009433467872440815, 0.2252274602651596,
	-0.12196526676416397, -0.030826730653643608, 0.08197806030511856,
	0.05841081589460373, 0.1269274801015854, 0.2664090394973755,
	0.18145613372325897, 0.17350706458091736, -0.16356727480888367,
	0.23974007368087769, 0.04919247329235077, -0.11546408385038376,
	0.07966984808444977, -0.13742905855178833, -0.23603126406669617,
	0.0237654410302639, -0.09807732701301575, -0.16613295674324036,
	0.1649811565876007, 0.1479141265153885, -0.0973496288061142,
	0.016980372369289398, -0.11110956221818924, -5.4219242883846164e-05,
	0.046432651579380035, 0.05526164919137955, -0.014913099817931652,
	-0.03148337081074715, -0.02910712920129299, -0.01214495301246643,
	-0.008341209962964058, 0.04388473927974701, 0.06552188843488693,
	0.022504618391394615, 0.13989518582820892, -0.09962920099496841,
	-0.09052539616823196, -0.11828604340553284, 0.019465617835521698,
	0.03158243000507355, -0.003675576765090227, -0.006306706927716732,
	0.1500505954027176, 0.14009667932987213, 0.16000591218471527,
	0.045760344713926315, -0.07030117511749268, -0.010994507931172848,
	0.11249415576457977, 0.01698317751288414, 0.07153937965631485,
	0.11450677365064621, -0.07483038306236267, 0.02959885448217392,
	0.1738976240158081, -0.12926819920539856, -0.12381309270858765,
	-0.07122683525085449, -0.14314422011375427, -0.04738771542906761,
	0.15340812504291534, -0.00921445619314909, -0.04918696731328964,
	0.16666573286056519, -0.042745184153318405, -0.02799253910779953,
	0.07622934132814407, -0.0537860244512558, -0.0878763273358345,
	0.104777030646801, 0.06313013285398483, 0.009789173491299152,
	-0.09536071866750717, 0.11961719393730164, -0.03214586153626442,
	-0.04926842823624611, 0.17974136769771576, 0.1151975765824318,
	0.11555477976799011, 0.1460331529378891, 0.14287923276424408,
	0.13347305357456207, 0.08821564167737961, -0.11860333383083344,
	0.19668851792812347, 0.1097269281744957, -0.10963704437017441,
	-0.13042941689491272, 0.14426054060459137, -0.002801150782033801,
	-0.033987756818532944, -0.00232959957793355, 0.019922999665141106,
	0.10960705578327179, -0.09276314079761505, 0.08318879455327988,
	0.10485686361789703, 0.1691930741071701, 0.07267052680253983,
	-0.10237182676792145, -0.09547203779220581, 0.08272907882928848,
	-0.02796311303973198, 0.03850797936320305, -0.13187889754772186,
	-0.0395103357732296, 0.11194540560245514, 0.12374144792556763,
	0.1306094229221344, 0.14735957980155945, 0.06577365845441818,
	0.006283028982579708, -0.0031054809223860502, -0.04849543422460556,
	0.1010286808013916, 0.1727844625711441, 0.13633158802986145,
	-0.04802357405424118, 0.14563241600990295, 0.006616764236241579,
	-0.03637460619211197, 0.04948638007044792, 0.2083704024553299,
	0.08314292877912521, -0.051565781235694885, -0.08786427974700928,
	0.12852343916893005, -0.07077518105506897, -0.060163456946611404,
	-0.03137561306357384, 0.1413266509771347, -0.14204072952270508,
	0.07435426115989685, 0.16192913055419922, -0.07475804537534714,
	0.1518186628818512, -0.0170585997402668, -0.047334395349025726,
	0.06986751407384872, 0.11498398333787918, -0.11555822938680649,
	0.05384649708867073, -0.13134834170341492, 0.16326650977134705,
	-0.07703281939029694, 0.013573608361184597, -0.083528071641922,
	-0.06859461218118668, -0.09810419380664825, 0.07990419864654541,
	0.24278675019741058, 0.24920876324176788, 0.027358274906873703,
	0.2935871183872223, 0.22942663729190826, 0.2468317449092865,
	0.16347627341747284, 0.22522014379501343, 0.19939613342285156,
	0.025725264102220535, -0.09751652926206589, 0.07081979513168335,
	0.15490467846393585, 0.1620868742465973, 0.1114845722913742,
	-0.05271444097161293, 0.14325854182243347, 0.21998333930969238,
	0.17146195471286774, 0.1586018204689026, 0.006554213352501392,
	0.2032129317522049, 0.2015036642551422, -0.06306011229753494,
	0.26018035411834717, 0.09226575493812561, -0.02503477968275547,
	0.15620991587638855, 0.0803525373339653, 0.061969876289367676,
	0.11548342555761337, 0.15050332248210907, 0.11744270473718643,
	0.15854236483573914, -0.0663103461265564, 0.03643667697906494,
	0.2353420853614807, 0.12032303959131241, 0.08481720834970474,
	0.03751291707158089, -0.12853047251701355, -0.21059885621070862,
	0.06338422000408173, -0.10723117738962173, -0.23088409006595612,
	0.13521720468997955, 0.14908476173877716, 0.16396857798099518,
	0.04550589621067047, -0.07327523827552795, -0.1329306811094284,
	0.07757118344306946, -0.11393968015909195, -0.025856662541627884,
	0.010580710135400295, -0.061089761555194855, -0.1099381223320961,
	0.14940015971660614, 0.036025699228048325, 0.07770096510648727,
	0.2066488116979599, 0.007634621579200029, -0.04509354382753372,
	-0.08414997160434723, 0.14840605854988098, -0.007086244411766529,
	0.039231304079294205, 0.1373157650232315, -0.023314066231250763,
	-0.13654033839702606, 0.009284884668886662, 0.06265521794557571,
	-0.04241739213466644, -0.09856466948986053, 0.07922324538230896,
	0.061430949717760086, 0.08110610395669937, -0.017280995845794678,
	0.14504681527614594, -0.034373167902231216, 0.07464641332626343,
	-0.014271644875407219, 0.07472112774848938, -0.04375714436173439,
	-0.154737651348114, 0.08082423359155655, 0.00306239677593112,
	-0.11959864944219589, 0.09482038766145706, 0.015519849956035614,
	-0.08042560517787933, -0.07935014367103577, 0.07604001462459564,
	0.03807670995593071, 0.07154541462659836, 0.1380200982093811,
	0.13887059688568115, -0.08983499556779861, 0.05637162923812866,
	0.13247543573379517, 0.1341703236103058, 0.1868063509464264,
	0.15337492525577545, 0.18221603333950043, 0.16260471940040588,
	0.07887420803308487, -0.028072679415345192, 0.16704261302947998,
	-0.015767868608236313, 0.15937112271785736, -0.1231701448559761,
	0.09550885856151581, -0.03967863321304321, 0.0775613859295845,
	-0.05319506302475929, 0.0950276255607605, -0.13038352131843567,
	0.08654612302780151, 0.06289736181497574, 0.14245392382144928,
	-0.05000802129507065, 0.013970333151519299, -0.026130521669983864,
	0.17014001309871674, -0.05619601532816887, -0.001091610873118043,
	-0.03972199931740761, 0.020776983350515366, -0.12200550734996796,
	-0.1325618028640747, -0.0984317809343338, 0.10449180752038956,
	-0.0626794695854187, 0.029154891148209572, 0.09887652099132538,
	-0.0805458202958107, -0.13216422498226166, 0.024275217205286026,
	-0.028807876631617546, -0.10555870085954666, -0.12557753920555115,
	-0.07823234796524048, -0.10059385746717453, -0.14739759266376495,
	0.03462522104382515, -0.028496628627181053, 0.0752975195646286,
	0.00964016281068325, -0.03154568001627922, -0.11839135736227036,
	-0.09505859017372131, 0.011656304821372032, 0.08901485055685043,
	0.020180802792310715, 0.02140227146446705, 0.09695450961589813,
	-0.07819371670484543, 0.033495936542749405, 0.008214270696043968,
	-0.03977729380130768, 0.08387477695941925, -0.0857965499162674,
	-0.08671890199184418, 0.12998631596565247, -0.07185912877321243,
	-0.1453058123588562, -0.041674282401800156, -0.1486709862947464,
	-0.04724503681063652, -0.030071372166275978, -0.05796599015593529,
	0.05327722802758217, -0.07824473083019257, -0.024228686466813087,
	-0.09791422635316849, -0.05694861337542534, -0.07560804486274719,
	0.06443491578102112, -0.09330723434686661, 0.06685160845518112,
	0.27053704857826233, 0.16831786930561066, 0.04726776108145714,
	0.24838601052761078, 0.22691528499126434, 0.24796070158481598,
	-0.017858238890767097, 0.025871414691209793, 0.2261311560869217,
	-0.02475632168352604, -0.12717199325561523, 0.13944199681282043,
	-0.1015753448009491, -0.037997838109731674, 0.01628500409424305,
	-0.0584813617169857, 0.1854204535484314, 0.1645081788301468,
	0.0694953054189682, 0.12847743928432465, 0.25870347023010254,
	0.09659738838672638, 0.022977925837039948, 0.14448294043540955,
	0.14914053678512573, 0.0740942507982254, 0.052841171622276306,
	0.016464048996567726, 0.08871246874332428, 0.01830371282994747,
	0.07091019302606583, 0.03589778393507004, 0.2081521451473236,
	-0.06878107041120529, 0.09790841490030289, 0.06526020914316177,
	0.08673754334449768, 0.08448266237974167, 0.045750271528959274,
	-0.09837580472230911, -0.08081811666488647, 0.03230660781264305,
	-0.10032264143228531, -0.16063204407691956, 0.10353423655033112,
	0.1683073490858078, 0.40199166536331177, 0.04552696645259857,
	0.5103582739830017, 0.3082345724105835, -0.028585880994796753,
	0.3838140070438385, 0.06227937713265419, 0.21070991456508636,
	0.05389535054564476, -0.024976059794425964, -0.03395194932818413,
	0.14373895525932312, -0.008064000867307186, -0.032600000500679016,
	0.17760439217090607, 0.06715242564678192, 0.2380230724811554,
	0.1817064881324768, 0.11284084618091583, 0.29798099398612976,
	0.35052740573883057, 0.39257127046585083, -0.008233043365180492,
	0.38381853699684143, 0.13539913296699524, 0.156130850315094,
	-0.0756152868270874, 0.10788548737764359, 0.1895129382610321,
	0.044923461973667145, -0.09206169843673706, 0.23545455932617188,
	-0.11202780902385712, -0.034065160900354385, 0.26695019006729126,
	0.2718271017074585, 0.08264105767011642, -0.141948401927948,
	0.2731723189353943, -0.1777358055114746, -0.23328465223312378,
	-0.0018729150760918856, -0.2254902869462967, -0.02086767926812172,
