	0.050214577466249466, 0.06981262564659119, 0.019470753148198128,
	0.2949037551879883, 0.23142015933990479, -0.033240579068660736,
	0.1559990793466568, 0.04076728597283363, -0.09184806048870087,
	0.0574529804289341, 0.07253024727106094, -0.0498693585395813,
	-0.04620879143476486, -0.04162074998021126, -0.059318456798791885,
	-0.01076385285705328, 0.08253183215856552, -0.03642131760716438,
	0.07496389746665955, 0.1309899389743805, -0.038347236812114716,
	0.08947523683309555, 0.13076208531856537, -0.061139173805713654,
	0.09228256344795227, -0.058808013796806335, 0.057628877460956573,
	-0.11660420894622803, 0.030125856399536133, 0.08871776610612869,
	0.03631533309817314, 0.06715492159128189, -0.029481718316674232,
	-0.05138438940048218, 0.08689947426319122, 0.08277968317270279,
	0.0909656435251236, 0.169881671667099, -0.03926333412528038,
	0.14254827797412872, 0.07683085650205612, -0.06031772121787071,
	0.1650327444076538, 0.003920684568583965, -0.05544742941856384,
	-0.08773397654294968, -0.08372902125120163, 0.07865353673696518,
	0.07980751991271973, 0.03418342024087906, 0.09106185287237167,
	-0.0521487258374691, -0.07236184179782867, 0.06724581867456436,
	-0.07632025331258774, -0.08964287489652634, 0.0732683539390564,
	0.037720367312431335, 0.12161993235349655, 0.07724390178918839,
	0.044753268361091614, 0.10876961797475815, -0.005249291658401489,
	0.03433087468147278, 0.08822854608297348, -0.01260552927851677,
	0.00732964975759387, 0.04507395625114441, -0.0755285769701004,
	0.03007396310567856, -0.08868187665939331, 0.02472381480038166,
	0.00563363591209054, 0.019440297037363052, -0.02835076116025448,
	0.19027471542358398, 0.0038951439782977104, 0.013081288896501064,
	0.08771459013223648, 0.07006466388702393, -0.06312890350818634,
	0.033875733613967896, 0.1539209634065628, 0.019887542352080345,
	0.1727553755044937, 0.26305443048477173, 0.021269619464874268,
	0.11098629236221313, 0.043400850147008896, -0.09310751408338547,
	0.08011161535978317, -0.1147499606013298, -0.06909161061048508,
	-0.023154741153120995, 0.01501888781785965, -0.02545764297246933,
	0.10516136884689331, 0.07842476665973663, 0.15211714804172516,
	0.08533181250095367, 0.017295675352215767, 0.04057062789797783,
	-0.07448752969503403, 0.0033330777660012245, 0.03850427269935608,
	0.017340224236249924, -0.05022795870900154, -0.05421075597405434,
	0.05172117426991463, -0.08115794509649277, -0.10611993074417114,
	0.10066875070333481, 0.0006613355944864452, -0.006462215445935726,
	0.0016922142822295427, 0.026639655232429504, -0.01044477615505457,
	0.12444155663251877, -0.08842611312866211, -0.11499012261629105,
	0.03043191507458687, -0.09692185372114182, -0.014045356772840023,
	-0.06882379949092865, 0.09996404498815536, 0.030819322913885117,
	0.12510603666305542, -0.11498471349477768, -0.04229002818465233,
	-0.004791050683706999, 0.09819212555885315, 0.07702424377202988,
	0.0965970829129219, 0.10110605508089066, 0.06401640176773071,
	0.08576551824808121, 0.011599087156355381, -0.02586100623011589,
	0.04951699078083038, -0.07221483439207077, -0.030917413532733917,
	-0.03791619837284088, 0.11631039530038834, 0.1079009398818016,
	-0.006721951067447662, -0.03259667754173279, 0.06959223002195358,
	-0.06315406411886215, 0.04573242366313934, -0.07828185707330704,
	0.09370014816522598, 0.047445010393857956, 0.095980204641819,
	0.0937655121088028, 0.073399119079113, -0.02442910708487034,
	-0.06756853312253952, -0.03052765689790249, -0.00867420807480812,
	0.0518958605825901, -0.09074506908655167, 0.005775497294962406,
	-0.01268408540636301, -0.06331268697977066, -0.10968378186225891,
	-0.06244504079222679, -0.08230526745319366, 0.11531615257263184,
	0.027932217344641685, 0.034335747361183167, 0.1563386768102646,
	0.1339738517999649, -0.06261437386274338, -0.1996542066335678,
	-0.0028022397309541702, -0.11786680668592453, -0.013694902881979942,
	0.14423996210098267, 0.22712565958499908, 0.050489962100982666,
	-0.07874328643083572, 0.04596449434757233, 0.0038479818031191826,
	0.08903953433036804, 0.07514366507530212, -0.06191885471343994,
	-0.07194704562425613, -0.017919037491083145, -0.0682225152850151,
	0.020387254655361176, 0.023220766335725784, -0.09945854544639587,
	-0.0890127643942833, -0.020784597843885422, -0.09456932544708252,
	0.020379383116960526, 0.06752051413059235, -0.08679510653018951,
	0.06946971267461777, 0.08825439214706421, -0.07970212399959564,
	-0.02376386523246765, 0.03390033543109894, 0.04773624613881111,
	0.01036950945854187, -0.09504476189613342, -0.08101455122232437,
	-0.04668935388326645, -0.035968244075775146, 0.09570493549108505,
	-0.07849211245775223, -0.06809242069721222, 0.05741242319345474,
	0.005289573688060045, 0.06711681932210922, -0.10648540407419205,
	-0.10371436178684235, -0.050836630165576935, 0.05700425058603287,
	-0.10235092788934708, -0.02422824688255787, -0.03705575689673424,
	0.10660704970359802, 0.022163530811667442, -0.0028740791603922844,
	-0.007756182923913002, 0.10215039551258087, 0.10403523594141006,
	0.04119230806827545, 0.07444406300783157, -0.049525633454322815,
	-0.020873716101050377, -0.09766152501106262, -0.009418413043022156,
	-0.09945273399353027, 0.06244255602359772, 0.051557689905166626,
	0.05948622524738312, 0.07144143432378769, 0.048672210425138474,
	-0.09518944472074509, 0.0790044292807579, 0.006392995826900005,
	-0.02908775582909584, 0.029802367091178894, -0.06454626470804214,
	-0.07000600546598434, 0.0901460126042366, 0.04422227665781975,
	0.10017205774784088, 0.028398465365171432, -0.0936904177069664,
	-0.06964567303657532, 0.0595039501786232, -0.013086020015180111,
	0.07754047214984894, -0.06425157934427261, 0.028208445757627487,
	-0.057127032428979874, 0.0710575133562088, -0.0948353186249733,
	0.05352342873811722, -0.033876657485961914, -0.11405345797538757,
	0.0746600553393364, -0.06989911943674088, 0.06217476725578308,
	-0.09358951449394226, 0.011321419849991798, -0.04409172013401985,
	-0.1578102558851242, 0.22466899454593658, 0.37488654255867004,
	0.31649601459503174, 0.5903481245040894, 0.39421728253364563,
	0.17825984954833984, 0.2377851903438568, -0.05008699372410774,
	0.03427610918879509, 0.03485424071550369, 0.13922463357448578,
	0.06345988065004349, 0.02299787476658821, 0.06085249036550522,
	0.10594777017831802, 0.027180392295122147, 0.017961440607905388,
	-0.017718477174639702, -0.1164286881685257, 0.055756665766239166,
	0.04329299554228783, 0.18430563807487488, 0.14625240862369537,
	0.025559090077877045, 0.06438151001930237, -0.08139225840568542,
	-0.12979476153850555, -0.05974492058157921, 0.13008947670459747,
	0.02203798107802868, 0.028525356203317642, 0.08852090686559677,
	-0.07944139838218689, 0.022844277322292328, 0.01763135753571987,
	-0.17165465652942657, 0.07384101301431656, 0.170126274228096,
	0.13061967492103577, 0.27424976229667664, 0.330573171377182,
	0.05104074627161026, 0.2464981973171234, 0.1198803037405014,
	0.01081299688667059, 0.011963846161961555, -0.10571727901697159,
	-0.08044873923063278, 0.02595941163599491, 0.041962869465351105,
	-0.04483336955308914, 0.11364830285310745, -0.025072820484638214,
	-0.015827786177396774, -0.13031402230262756, 0.0007573189795948565,
	-0.04096562787890434, -0.09986518323421478, -0.023422639816999435,
	0.11532182991504669, 0.10612902790307999, 0.0280822291970253,
	-0.0677570253610611, -0.05233648791909218, 0.05433749780058861,
	-0.00447003822773695, -0.015087991021573544, 0.041661813855171204,
	0.08890502899885178, 0.01791285164654255, -0.07095902413129807,
	0.02279173769056797, 0.09351173788309097, 0.10635733604431152,
	0.025094324722886086, 0.27714359760284424, 0.10299712419509888,
	0.1884339451789856, 0.20406097173690796, 0.03446809947490692,
	-0.16848230361938477, 0.014708493836224079, 0.27471408247947693,
	-0.006515390705317259, 0.5022161602973938, 0.36928439140319824,
	0.13544411957263947, 0.27045199275016785, 0.042201489210128784,
	0.06395755708217621, 0.4053860008716583, -0.043930795043706894,
	0.4355475902557373, 0.43109849095344543, -0.10688997805118561,
	0.2482137829065323, 0.07462923973798752, -0.11618568003177643,
	-0.06711134314537048, 0.1335241198539734, 0.1106451004743576,
	-0.03784487769007683, -0.0325075201690197, 0.11963255703449249,
	-0.038936395198106766, -0.005649921949952841, -0.020323505625128746,
	-0.01918099820613861, -0.006559757981449366, 0.03813014551997185,
	0.017749469727277756, 0.09078646451234818, -0.01989724300801754,
	0.01454285066574812, 0.014191298745572567, -0.09538458287715912,
	0.0055580441839993, -0.04036720097064972, 0.16121484339237213,
	0.10670576989650726, 0.17114438116550446, 0.19408443570137024,
	-0.006438545882701874, 0.07878376543521881, 0.15384019911289215,
	-0.07523152977228165, 0.260381281375885, 0.1837490051984787,
	0.11385679990053177, 0.32207515835762024, 0.04785706102848053,
	0.19968467950820923, 0.14911332726478577, -0.07404052466154099,
	-0.07150144129991531, 0.03759697452187538, 0.1434500366449356,
	0.003845995059236884, 0.13289129734039307, 0.10875149071216583,
	0.09290914237499237, 0.016233475878834724, -0.029074035584926605,
	0.006505249999463558, -0.06155803054571152, 0.053630854934453964,
	-0.08039220422506332, 0.07578901946544647, 0.1524808555841446,
	0.01020833570510149, 0.1227603480219841, 0.12178049236536026,
	0.06846898794174194, 0.035728033632040024, 0.009478799067437649,
	0.05482190102338791, 0.07836388796567917, 0.07434350252151489,
	0.09042974561452866, 0.09374693781137466, -0.05276743695139885,
	0.14070668816566467, 0.10538903623819351, 0.06968624144792557,
	0.16763998568058014, 0.27822259068489075, 0.11262129247188568,
	0.1533392369747162, 0.0022588183637708426, -0.011452993378043175,
	0.09133095294237137, 0.2776455283164978, 0.1699836105108261,
	0.2821473181247711, 0.5003700256347656, -0.05091095715761185,
	0.17286697030067444, 0.24146322906017303, -0.10817226022481918,
	-0.0989169329404831, 0.12809646129608154, 0.21306706964969635,
	0.07042873650789261, 0.17362454533576965, 0.19314318895339966,
	0.1270872950553894, 0.05187340825796127, -0.041773222386837006,
	0.04970144107937813, 0.012101416476070881, -0.0067743598483502865,
	-0.10999971628189087, -0.05935099348425865, 0.10511944442987442,
	-0.06330138444900513, -0.04601182043552399, 0.011908022686839104,
	-0.027591368183493614, -0.06863325089216232, 0.11072789132595062,
	-0.03183276578783989, 0.004937694873660803, 0.12399768084287643,
	0.04269101843237877, 0.0073383585549890995, -0.011675686575472355,
	0.05957134813070297, -0.058788660913705826, 0.07983092963695526,
	-0.08887167274951935, 0.011763433925807476, 0.09282810986042023,
	0.11015547066926956, 0.11550771445035934, 0.0021102000027894974,
	0.0039926087483763695, 0.02701105736196041, 0.18631841242313385,
	0.04173578694462776, 0.19697155058383942, 0.12887828052043915,
	0.08686208724975586, 0.07821398973464966, 0.10428915917873383,
	-0.07211367785930634, 0.004338914528489113, 0.05345709249377251,
	-0.09855730086565018, 0.02641855552792549, 0.14479315280914307,
	0.000983116333372891, 0.09232103079557419, 0.04804021865129471,
	-0.0020931630861014128, 0.08064965903759003, 0.05921052396297455,
	0.04682256281375885, 0.06738689541816711, 0.09037329256534576,
	0.05512021481990814, 0.10955467820167542, -0.03338586911559105,
	-0.08869005739688873, -0.045135192573070526, 0.06114255636930466,
	0.04154777526855469, 0.06959948688745499, -0.052538998425006866,
	0.08381234854459763, -0.02732122503221035, -0.025735225528478622,
	-0.05986495316028595, 0.07069920748472214, 0.1674843281507492,
	0.13035358488559723, 0.2004062533378601, -0.009867672808468342,
	-0.008921564556658268, 0.011021029204130173, 0.05826552212238312,
	-0.001976615749299526, 0.007456283550709486, 0.17414149641990662,
	0.05878071486949921, 0.25853726267814636, 0.086735300719738,
	0.1511964052915573, -0.06969999521970749, 0.01732100546360016,
	0.12526242434978485, 0.026846639811992645, 0.04606585204601288,
	0.019833870232105255, 0.07611843198537827, -0.09596657752990723,
	0.0723070576786995, -0.0366399921476841, 0.05610379949212074,
	-0.08133696764707565, 0.04113824665546417, 0.06264902651309967,
	0.004445886239409447, 0.09662486612796783, -0.08145985752344131,
	0.09884686022996902, -0.031224606558680534, -0.11489179730415344,
	0.059021610766649246, 0.08682195097208023, 0.0713479295372963,
	-0.05457703396677971, 0.07929271459579468, 0.052950505167245865,
	-0.07200728356838226, 0.0729716345667839, -0.07964202016592026,
	-0.03604262322187424, -0.04018941894173622, -0.027789268642663956,
	-0.029643945395946503, -0.000765762641094625, 0.04988424852490425,
	0.03938364237546921, 0.03500073403120041, -0.06391532719135284,
	0.08514528721570969, 0.12677639722824097, 0.1358271837234497,
	0.07604797929525375, 0.09972429275512695, 0.06632719188928604,
	-0.030450981110334396, -0.06925942003726959, -0.020425451919436455,
	-0.0678771510720253, 0.054372020065784454, -0.042135633528232574,
	0.033743251115083694, 0.08670041710138321, 0.008844070136547089,
	0.03239330276846886, 0.09784102439880371, -0.062311746180057526,
	0.034176915884017944, -0.007068519480526447, -0.017827119678258896,
	-0.0889134556055069, -0.0006918395520187914, 0.11556113511323929,
	-0.08461102843284607, 0.02254221774637699, -0.05274582654237747,
	-0.0015065186889842153, 0.07541719079017639, 0.04452430084347725,
	0.08619646728038788, -0.050580836832523346, 0.01883232779800892,
	-0.0004448721883818507, 0.019372159615159035, 0.09894676506519318,
	0.07921319454908371, -0.022351384162902832, 0.08219241350889206,
	0.13679149746894836, 0.08333437144756317, -0.0037334049120545387,
	0.09981627762317657, 0.013011986389756203, 0.025750134140253067,
	0.00019540249195415527, 0.06546572595834732, -0.03790437430143356,
	0.042043425142765045, 0.011693593114614487, 0.07564214617013931,
	0.05255463346838951, -0.04638749733567238, 0.004025955218821764,
	0.05603969469666481, 0.11123810708522797, 0.05874919891357422,
	0.0817367434501648, -0.0870894342660904, -0.03654192015528679,
	0.03263798728585243, -0.13866855204105377, 0.004015008453279734,
	0.08988836407661438, -0.0713374987244606, -0.0035747636575251818,
	-0.06941000372171402, -0.05933564156293869, 0.05690889060497284,
	0.015675144270062447, -0.10378103703260422, 0.0065946984104812145,
	0.009451199322938919, -0.04609547182917595, 0.030541064217686653,
	0.06445006281137466, 0.038922302424907684, 0.08949703723192215,
	-0.05347120016813278, 0.07859724760055542, -0.025912348181009293,
	-0.06770236045122147, -0.017409414052963257, 0.094187892973423,
	0.07873345166444778, 0.09057647734880447, 0.08663985133171082,
	0.11499164998531342, 0.085261270403862, 0.03790046647191048,
	0.17643944919109344, 0.0325748436152935, -0.04328880459070206,
	-0.021449312567710876, -0.014648478478193283, -0.052399616688489914,
	-0.055734194815158844, 0.08419111371040344, 0.09874799847602844,
	0.06947734951972961, -0.06370724737644196, -0.06049179285764694,
	0.08555436134338379, 0.10546073317527771, 0.010729090310633183,
	0.01145215705037117, 0.006399194244295359, -0.07279877364635468,
	0.02349109761416912, 0.09535418450832367, 0.05874847248196602,
	-0.024164190515875816, 0.12013798207044601, 0.0399927943944931,
	0.10486344993114471, 0.02571575529873371, 0.04132343456149101,
	0.002887669252231717, 0.030546873807907104, 0.05221708118915558,
	0.030246933922171593, -0.03398975357413292, -0.09368868917226791,
	0.012814902700483799, -0.09778641164302826, 0.08340713381767273,
	0.12414352595806122, 0.0023393877781927586, 0.10521236062049866,
	0.08782275021076202, -0.025258736684918404, 0.06353572756052017,
	0.015491208992898464, -0.03039981983602047, 0.07694670557975769,
	0.0630202442407608, 0.19853346049785614, 0.16007301211357117,
	0.009785305708646774, -0.03278709203004837, 0.03153983876109123,
	0.0978546068072319, -0.1323692798614502, 0.021005233749747276,
	-0.09081654995679855, -0.08981181681156158, -0.03452671691775322,
	0.008568649180233479, 0.07799971103668213, 0.015536858700215816,
	0.008128471672534943, -0.036624226719141006, -0.032620035111904144,
	0.03286793455481529, -0.08382923156023026, 0.050153713673353195,
	0.03700221702456474, 0.01913626119494438, 0.07831702381372452,
	-0.10250726342201233, -0.012497657909989357, -0.08708612620830536,
	-0.04428364336490631, -0.08972480148077011, 0.00964035652577877,
	-0.035759132355451584, 0.06526479125022888, -0.050348855555057526,
	0.030407695099711418, -0.04848131164908409, 0.012260125949978828,
	0.0028850960079580545, -0.09096633642911911, -0.05158819630742073,
	-0.018399354070425034, 0.04513206332921982, 0.09787113964557648,
	-0.027854079380631447, 0.08561716228723526, -0.06418110430240631,
	0.0422048419713974, -0.05481273680925369, -0.030707411468029022,
	-0.022813329473137856, 0.06146885082125664, 0.05940122529864311,
	0.0495709665119648, -0.024768836796283722, 0.0806533545255661,
	-0.018514642491936684, -0.043475497514009476, 0.03463618829846382,
	0.06441392004489899, 0.08280016481876373, -0.08108295500278473,
	0.015640966594219208, -0.014412550255656242, -0.07987843453884125,
	0.07663912326097488, -0.025933070108294487, 0.001638791523873806,
	0.06355028599500656, -0.09924880415201187, 0.08427715301513672,
	0.013681392185389996, -0.0781017616391182, 0.028364958241581917,
	-0.09705156087875366, 0.08978228271007538, 0.09574087709188461,
	0.06042119115591049, 0.0853961706161499, -0.10416862368583679,
	-0.0056142909452319145, -0.07031100988388062, -0.08143345266580582,
	-0.026732034981250763, -0.026376226916909218, -0.0875648632645607,
	0.060896310955286026, -0.03920953348278999, 0.004228890873491764,
	0.015482032671570778, 0.008663940243422985, -0.02482502907514572,
	-0.06014808639883995, 0.019690651446580887, -0.023096194490790367,
	-0.051045630127191544, -0.05728323012590408, -0.09716939181089401,
	-0.044079091399908066, -0.039312586188316345, 0.029307153075933456,
	-0.05762455612421036, 0.034109748899936676, 0.034381285309791565,
	-0.14587141573429108, -0.014841909520328045, 0.08017893880605698,
	0.08702854812145233, 0.1389187127351761, 0.1208638995885849,
	-0.006393324118107557, 0.030338352546095848, -0.028519444167613983,
	0.06745374947786331, -0.03757913410663605, 0.10426665097475052,
	-0.10278241336345673, 0.01123216561973095, 0.022773832082748413,
	0.029612988233566284, -0.07495863735675812, -0.010213548317551613,
	0.08526960015296936, 0.05302806571125984, 0.1250317543745041,
	-0.08892223984003067, -0.06381309777498245, 0.09266041219234467,
	0.07068410515785217, -0.10046108812093735, -0.02246575988829136,
	-0.0617414191365242, 0.04201249033212662, -0.08760275691747665,
	0.04519584774971008, 0.08319901674985886, 0.08750773966312408,
	-0.06686487048864365, -0.06671886891126633, 0.08233246207237244,
	-0.007683281786739826, -0.05670994520187378, 0.014400606974959373,
	-0.022573266178369522, 0.07702399045228958, 0.13357116281986237,
	-0.0031530901324003935, -0.05675065144896507, 0.05964460223913193,
	0.07271502166986465, 0.040823549032211304, -0.059785425662994385,
	-0.09589805454015732, -0.04355240985751152, -0.03536248207092285,
	-0.06908758729696274, -0.008474208414554596, -0.08698318153619766,
	-0.03624222055077553, 0.014162566512823105, -0.08889679610729218,
	0.086516372859478, -0.06258539110422134, -0.09926118701696396,
	0.0021835477091372013, 0.043633028864860535, 0.0544889010488987,
	0.09327293932437897, 0.07714506983757019, -0.03967732936143875,
	-0.06639054417610168, 0.011505644768476486, 0.04106300324201584,
	-0.12913180887699127, 0.09534142166376114, 0.006321497727185488,
	-0.00607549911364913, -0.03539320454001427, -0.04985923692584038,
	0.03657030686736107, 0.13458314538002014, 0.02348492667078972,
	-0.12483911216259003, -0.05779222398996353, 0.03674550727009773,
	-0.09632909297943115, -0.09506279230117798, 0.1939520239830017,
	0.090213842689991, 0.07878538221120834, 0.05198496952652931,
	-0.045653242617845535, 0.012908237986266613, 0.048748090863227844,
	-0.044854987412691116, 0.14254535734653473, 0.1449950635433197,
	-0.002146855229511857, 0.1218695268034935, -0.022021304816007614,
	-0.057960763573646545, 0.01992475427687168, -0.020968005061149597,
	-0.09756239503622055, -0.06908445060253143, 0.05226263031363487,
	-0.04907240718603134, 0.05748077481985092, 0.10322558879852295,
	0.047610945999622345, -0.06390649825334549, -0.06637673825025558,
	-0.007565411739051342, 0.010078314691781998, 0.005676204338669777,
	0.09887716174125671, 0.0845966637134552, 0.11254174262285233,
	0.007383340038359165, 0.005189280491322279, -0.017768578603863716,
	0.0020005248952656984, 0.020885154604911804, 0.11370540410280228,
	-0.0007870645495131612, -0.09068235009908676, 0.08983024209737778,
	0.08237321674823761, -0.12550532817840576, -0.028149107471108437,
	-0.0659957230091095, 0.039404600858688354, 0.0640057921409607,
	0.11246564984321594, -0.007786179892718792, 0.06596053391695023,
	0.03960186243057251, -0.017574774101376534, -0.055132027715444565,
	-0.07407039403915405, 0.03688468784093857, 0.04097466915845871,
	0.057781800627708435, -0.05110832676291466, -0.08458228409290314,
	-0.0826534703373909, -0.0882774293422699, 0.10437378287315369,
	-0.08439398556947708, -0.05735716223716736, -0.035624150186777115,
	0.043107692152261734, -0.05874503403902054, 0.011257792823016644,
	-0.03346282243728638, -0.031224971637129784, 0.08704873919487,
	0.026877213269472122, -0.010290062986314297, 0.04091357812285423,
	-0.02836473099887371, -0.007582191377878189, 0.0768202543258667,
	0.09114820510149002, -0.05393122881650925, -0.06573004275560379,
	0.05798996239900589, -0.09526633471250534, 0.08751538395881653,
	0.042748041450977325, -0.0236955713480711, 0.004630061332136393,
	0.09742271155118942, -0.1309853196144104, 0.0016390123637393117,
	-0.104181207716465, -0.059942375868558884, 0.0150369917973876,
	-0.07872647047042847, 0.14970901608467102, 0.009563950821757317,
	0.03715495392680168, -0.03794519603252411, -0.05833826959133148,
	-0.07889246195554733, 0.047610148787498474, -0.06791672110557556,
	-0.051070842891931534, 0.10880622267723083, -0.03512301668524742,
	0.005005775950849056, 0.05450919643044472, -0.06553611159324646,
	-0.09747931361198425, 0.09747187048196793, 0.08700323849916458,
	-0.07476707547903061, 0.08453481644392014, 0.008206010796129704,
	-0.03959232568740845, 0.013980917632579803, -0.0006894426187500358,
	0.03716728463768959, -0.029164450243115425, 0.02172091417014599,
	0.09178493171930313, -0.003245165105909109, 0.03934092074632645,
	-0.039239559322595596, -0.0659167543053627, -0.0011152724036946893,
	0.08821716159582138, 0.003188733709976077, -0.01993461698293686,
	0.0895894318819046, -0.10028144717216492, -0.09250982105731964,
	0.022074131295084953, 0.01285558845847845, -0.012892224825918674,
	-0.02099183015525341, -0.043145257979631424, 0.014042090624570847,
	-0.04466983303427696, 0.017201760783791542, -0.046713512390851974,
	0.10649847239255905, 0.10742456465959549, 0.058477550745010376,
	0.022409861907362938, 0.008446482010185719, 0.0963696762919426,
	-0.05497083440423012, -0.048310309648513794, 0.025347569957375526,
	-0.017252668738365173, 0.08524901419878006, -0.023707404732704163,
	0.029108593240380287, 0.0453965999186039, 0.043632879853248596,
	0.0032612152863293886, 0.09313178062438965, 0.02178708091378212,
	0.06047174334526062, 0.03211802616715431, 0.07933947443962097,
	0.1012619212269783, -0.04349017143249512, -0.04762164130806923,
	0.08888044208288193, -0.026095319539308548, -0.04814411699771881,
	0.11364278942346573, 0.04524599388241768, 0.06992850452661514,
	-0.09130863845348358, -0.052855946123600006, 0.06384848803281784,
	-0.023453934118151665, -0.04299357533454895, -0.002259370405226946,
	0.11828150600194931, 0.08492733538150787, 0.06661280989646912,
	0.012889680452644825, -0.0515935979783535, -0.09618943929672241,
	0.0887879878282547, 0.03024899773299694, -0.0005582239245995879,
