-0.07693398743867874, -0.04417198896408081, 0.04454931989312172, 0.10899972170591354, -0.04328213259577751, 0.062443479895591736, -0.04487206041812897, 0.0025223717093467712, 0.021363548934459686, -0.015260412357747555, 0.032520029693841934, -0.07515009492635727, -0.01838110387325287, -0.004591945558786392, -0.027706662192940712, -0.16943027079105377, -0.03399703651666641, -0.06382950395345688, 0.044106390327215195, -0.033674709498882294, 0.09981906414031982, 0.05617653205990791, -0.03032022714614868, 0.0006585633382201195, 0.035848937928676605, -0.01804024539887905, 0.04918266832828522, 0.044004786759614944, -0.05661933869123459, 0.007562600076198578, -0.0024584324564784765, -0.025566110387444496, -0.07774876803159714, 0.011491571553051472, 0.056727517396211624, 0.0870809257030487, -0.019688205793499947, 0.03258838132023811, 0.04968421533703804, -0.011941386386752129, -0.05600243806838989, 0.0008830159204080701, 0.028553999960422516, -0.07132042199373245, -0.09358596056699753, -0.02723867818713188, 0.0420282818377018, -0.010656855069100857, -0.05310285836458206, 0.03732817620038986, 0.004398656543344259, 0.016284922137856483, -0.02253902517259121, 0.004653290845453739, 0.043482668697834015, -0.053072135895490646, -0.05318509042263031, 0.029931748285889626, 0.012766527943313122, 0.015104370191693306, 0.023102309554815292, 0.017192712053656578, 0.02296018972992897, 0.023423954844474792, -0.008826041594147682, 0.007290377281606197, 0.005585677456110716, 0.04947161674499512, -0.05526040494441986, 0.015523158945143223, -0.015432816930115223, 0.06326903402805328, 0.015778476372361183, -0.03151370957493782, 0.07033448666334152, -0.08243448287248611, -0.04402894526720047, -0.044949643313884735, 0.01939077489078045, -0.08742690831422806, -0.08932244777679443, -0.00023843933013267815, 0.11990859359502792, 0.044950034469366074, 0.016116132959723473, 0.10098283737897873, 0.0753740444779396, -0.07325951755046844, 1.3655891052621882e-05, -0.06576772779226303, -0.03602837771177292, 0.033621784299612045, -0.03416575491428375, 0.1033683717250824, -0.05885165184736252, -0.12557406723499298, -0.027088558301329613, 0.0008363680681213737, 0.04437220096588135, -0.054753851145505905, -0.06022122874855995, -0.0021702772937715054, -0.0343293771147728, 0.02810082398355007, 0.024478083476424217, 0.048135146498680115, 0.024279285222291946, -0.04141797870397568, -0.022203858941793442, 0.02815437689423561, -0.006800618022680283, -0.022292759269475937, 0.026211274787783623, 0.03694659098982811, -0.015852397307753563, 0.05747038498520851, -0.06802777945995331, -0.04023703932762146, -0.039845772087574005, 0.001933943829499185, -0.04176650196313858, 0.008490179665386677, 0.025240037590265274, -0.011898240074515343, 0.0867810845375061, 0.055239126086235046, 0.003119330620393157, -0.06741988658905029, 0.05364983528852463, -0.0164673812687397, -0.018301507458090782, -0.03977175056934357, -0.03329459950327873, 0.09997387230396271, 0.0381813570857048, 0.008879686705768108, -0.024497607722878456, -0.05597876012325287, 0.02487941086292267, -0.04842608422040939, -0.009205164387822151, 0.09160744398832321, 0.0665680319070816, -0.13099879026412964, -0.030864566564559937, -0.0483492873609066, -0.04624740406870842, -0.07207506150007248, -0.0016799878794699907, 0.010622000321745872, -0.0032312229741364717, 0.02250441536307335, 0.04090270400047302, -0.02446584403514862, 0.024820741266012192, 0.026317618787288666, 0.05979927256703377, 0.09108097106218338, 0.003052931046113372, -0.03830459713935852, -0.05340026691555977, 0.019813209772109985, -0.010900544933974743, 0.03344003111124039, -0.0060831657610833645, 0.10068842768669128, 0.03323369100689888, -0.0699414387345314, -0.03389931097626686, -0.03459574654698372, 0.06230025365948677, 0.002048254245892167, 0.05137457326054573, -0.007851661182940006, 0.019934382289648056, -0.16955332458019257, -0.056172870099544525, 0.02789299003779888, -0.021222885698080063, 0.05070213973522186, 0.0005362486117519438, 0.038335759192705154, 0.0302417054772377, 0.019370127469301224, -0.04399685934185982, 0.04836133494973183, 0.02004304714500904, 0.012617310509085655, -0.08293431252241135, 0.014951317571103573, -0.03025403991341591, -0.01706024259328842, -0.011073939502239227, 0.045527148991823196, 0.020561499521136284, 0.01819724589586258, -0.042512957006692886, -0.012837442569434643, 0.015377498231828213, 0.02194562368094921, -0.11601321399211884, -0.049740877002477646, 0.03333611041307449, -0.004027113318443298, -0.0009238385246135294, 0.0409083254635334, 0.13758300244808197, -0.08913108706474304, -0.026339108124375343, 0.01990237832069397, 0.014595091342926025, 0.05612460523843765, 0.006358752492815256, -0.015877021476626396, -0.016843941062688828, 0.0328880175948143, -0.005044423509389162, 0.06745533645153046, -0.0637795552611351, 0.001298273797146976, 0.051382776349782944, 0.03822736442089081, 0.06184035539627075, 0.04903582111001015, -0.009270052425563335, 0.032796431332826614, -0.004124546889215708, -0.04084344208240509, -0.038163069635629654, 0.04821757227182388, -0.008905948139727116, 0.026811562478542328, 0.05028403177857399, 0.04192381352186203, -0.046235255897045135, -0.010548028163611889, 0.013092956505715847, 0.04117582365870476, -0.011415578424930573, 0.04334286227822304, 0.033917151391506195, -0.009409064427018166, 0.0017584346933290362, -0.04960530251264572, -0.01977718062698841, -0.0222649984061718, 0.0693785771727562, -0.05125711113214493, 0.0005241491599008441, -0.060364313423633575, 0.03602001070976257, -0.01973932608962059, -0.030741699039936066, 2.8805588954128325e-05, -0.059406742453575134, -0.021612754091620445, 0.03090032935142517, 0.029603993520140648, -0.030846403911709785, -0.030471567064523697, -0.03420094773173332, 0.020590074360370636, -0.008740387856960297, -0.012436643242835999, -0.01871989108622074, 0.011735044419765472, 0.05770218372344971, -0.001219425001181662, 0.04035395756363869, 0.02237478271126747, 0.05461501330137253, -0.022886009886860847, -0.000375704956240952, 0.009173836559057236, -0.06188121810555458, -0.008824246004223824, -0.06083700805902481, 0.032132990658283234, -0.024384979158639908, -0.046151358634233475, -0.02148965746164322, -0.07136381417512894, -0.011781211942434311, 0.043761108070611954, 0.05677979439496994, 0.05226685106754303, -0.01236729696393013, 0.057310041040182114, 0.059656549245119095, 0.034947458654642105, 0.00737348198890686, -0.02407933585345745, -0.01846003346145153, -0.02088066190481186, -0.03905133530497551, 0.02764258347451687, 0.01543370820581913, 0.04497126117348671, 0.046434417366981506, -0.05868634581565857, 0.022511951625347137, 0.0518936961889267, -0.029202602803707123, 0.04759591445326805, -0.02303929440677166, -0.04526162147521973, 0.05615679547190666, -0.03772873803973198, 0.00059284339658916, -0.039636045694351196, -0.021871555596590042, 0.04709360748529434, 0.04727695882320404, -0.06288479268550873, 0.003673048224300146, 0.042822543531656265, -0.027916952967643738, -0.04883841052651405, 0.016168396919965744, -0.01639585942029953, 0.016526957973837852, -0.06049977242946625, -0.03326696529984474, -0.039037976413965225, 0.03838421031832695, -0.04158778116106987, -0.042239513248205185, 0.061233073472976685, 0.049487512558698654, -0.044338636100292206, 0.011479049921035767, -0.024910643696784973, 0.03513169661164284, 0.032080426812171936, 0.021535184234380722, -0.03602001816034317, 0.024762671440839767, 0.024681441485881805, -0.05348731204867363, -0.012598032131791115, -0.06015714257955551, -0.021344304084777832, -0.006463891360908747, 0.06897076219320297, -0.0652051791548729, 0.015023616142570972, -0.01237682718783617, -0.01731748878955841, -0.04413896054029465, 0.06584998220205307, -0.05267520993947983, 0.0020737051963806152, -0.05515443906188011, -0.06448331475257874, -0.05452651530504227, -0.06511715054512024, -0.010020452551543713, 0.02764572761952877, 0.031563375145196915, 0.021329091861844063, 0.04547276347875595, 0.00834338553249836, 0.036222297698259354, -0.06045673042535782, -0.013705956749618053, 0.007543786428868771, 0.043815042823553085, -0.05115862190723419, -0.06794331222772598, 0.030727790668606758, -0.04762928560376167, 0.008022535592317581, 0.010264681652188301, 0.026084741577506065, 0.014961670152842999, 0.013314253650605679, 0.016623567789793015, 0.05992807447910309, 0.048225339502096176, -0.01923842541873455, 0.03291136398911476, -0.027874665334820747, -0.03717244416475296, -0.05448708310723305, -0.051340386271476746, -0.00918485689908266, 0.008130467496812344, 0.0021813081111758947, -0.005419171415269375, -0.02226073667407036, -0.02150716818869114, -0.06259845942258835, -0.06125993654131889, -0.018159644678235054, 0.0230637826025486, -0.05390561744570732, 0.025549842044711113, 0.008763938210904598, 0.024586094543337822, -0.004011263605207205, -0.0650148019194603, 0.004680552985519171, -0.00825460534542799, 0.03606530278921127, 0.05674915760755539, -0.054090723395347595, 0.0016112879384309053, 0.0030563855543732643, 0.004509898368269205, 0.0223421398550272, 0.04525933414697647, -0.0025297976098954678, 0.025980345904827118, -0.04712236672639847, -0.012266021221876144, -0.02724613808095455, -0.03983168303966522, 0.009778843261301517, 0.006783990655094385, 0.024762379005551338, 0.051826585084199905, 0.025371095165610313, 0.059351664036512375, 0.013260436244308949, 0.026021940633654594, 0.056857477873563766, -0.042417485266923904, 0.024994472041726112, -0.016687486320734024, 0.055035948753356934, 0.0449606254696846, 0.04108985513448715, 0.03717434033751488, -0.0068138339556753635, 0.03192955255508423, -0.04579206928610802, 0.003557768650352955, 0.03682946041226387, 0.04552580043673515, -0.0061479173600673676, -0.05528564378619194, 0.045296184718608856, 0.05420329049229622, 0.05606481060385704, -0.05571993812918663, 0.06266827881336212, 0.020343590527772903, 0.03979135677218437, 0.05990219861268997, -0.03858102113008499, 0.0381433330476284, -0.05871104821562767, -0.03497530147433281, -0.04355456307530403, 0.00035330987884663045, -0.057066015899181366, 0.05494241043925285, 0.06391145288944244, -0.054070550948381424, 0.008786571212112904, -0.0017104867147281766, 0.02077258564531803, 0.042708124965429306, 0.016265764832496643, -0.05777580663561821, -0.03406345471739769, -0.023190245032310486, 0.03166930004954338, 0.054575446993112564, 0.005799324717372656, -0.011406375095248222, -0.03921493887901306, -0.06852243840694427, -0.06486553698778152, -0.0060661835595965385, 0.06121083348989487, 0.017072180286049843, 0.028727887198328972, 0.06265399605035782, 0.0563364140689373, 0.02828524075448513, 0.09616164863109589, -0.016723811626434326, -0.08238767832517624, 0.0018506560008972883, 0.07467783987522125, 0.040337320417165756, -0.05491398647427559, 0.08760729432106018, 0.00855022668838501, -0.001724226982332766, -0.034580640494823456, -0.06711317598819733, -0.07916391640901566, -0.017006224021315575, -0.0338287390768528, 0.00045071388012729585, 0.007890927605330944, -0.05115896463394165, 0.042163342237472534, 0.042786017060279846, 0.02401372604072094, 0.0077792080119252205, 0.017217354848980904, 0.002803502604365349, -0.02719460055232048, -0.011855867691338062, -0.053657855838537216, 0.04911688342690468, -0.03545118868350983, -0.006520934868603945, 0.050796028226614, -0.01038292981684208, 0.005391398444771767, -0.10659968107938766, -0.08906211704015732, 0.08198558539152145, 0.06771162897348404, -0.0005793371237814426, -0.05958293750882149, -0.01706198789179325, 0.04809361323714256, -0.08453601598739624, 0.05674194172024727, 0.04420005530118942, 0.06722737848758698, -0.040149956941604614, -0.022474678233265877, -0.038922663778066635, -0.03560027480125427, 0.038454946130514145, 0.008633694611489773, 0.002986073726788163, -0.05121235549449921, -0.010173434391617775, -0.05428275093436241, -0.024610154330730438, -0.05054678022861481, -0.03828052058815956, 0.047221895307302475, -0.016002586111426353, -0.002274033846333623, 0.06092708930373192, -0.006296743173152208, 0.0021949545480310917, -0.06543800979852676, 0.014733564108610153, -0.021036066114902496, 0.002568422583863139, 0.08317124843597412, -0.0709541067481041, 0.033630967140197754, -0.02194375731050968, 0.05145427584648132, 0.010088138282299042, 0.051306501030921936, 0.04698793962597847, -0.04208114743232727, -0.033450543880462646, -0.04054586961865425, -0.02557876706123352, 0.025478769093751907, -0.023389127105474472, -0.013788792304694653, 0.031792204827070236, -0.054294485598802567, 0.01654357835650444, -0.09930596500635147, 0.07358410209417343, 0.04328550398349762, -0.020611092448234558, 0.0004931658040732145, -0.0655064806342125, -0.037811342626810074, -0.05984250456094742, 0.052637577056884766, -0.028460536152124405, 0.04628987982869148, 0.01394405122846365, -0.03475573658943176, -0.052226725965738297, -0.030429979786276817, -0.0026726312935352325, -0.034335844218730927, -0.0073176040314137936, -0.04901422560214996, -0.039563246071338654, -0.0307205468416214, -0.018342601135373116, -0.008506931364536285, 0.012156559154391289, 0.010320058092474937, -0.02069097012281418, 0.051887303590774536, 0.09480228275060654, 0.02115306630730629, -0.06742467731237411, 0.018610473722219467, -0.062316857278347015, -0.03829111531376839, -0.021972516551613808, 0.04083419218659401, -0.004233693704009056, 0.0576799176633358, 0.010087275877594948, 0.02164699137210846, -0.0010501510696485639, -0.011646989732980728, 0.10506075620651245, 0.025671347975730896, 0.03445367142558098, 0.02983364835381508, -0.035951487720012665, 0.031462084501981735, -0.018864212557673454, -0.03706742078065872, 0.015877172350883484, 0.002209956757724285, -0.056399211287498474, 0.005340664181858301, -0.07661303877830505, -0.0945805236697197, -0.08905879408121109, -0.062187884002923965, 0.01842200569808483, -0.0763571634888649, -0.015617729164659977, 0.0056056915782392025, -0.04791048541665077, 0.02082292176783085, -0.050737250596284866, 0.012910876423120499, 0.01637287624180317, -0.030918844044208527, 0.02925127185881138, -0.04359590262174606, -0.006010739132761955, 0.027380190789699554, 0.04677087068557739, -0.032450687140226364, 0.030257854610681534, -0.011510584503412247, -0.07351677119731903, -0.016716035082936287, 0.009469736367464066, 0.06103193387389183, -0.006263095885515213, 0.01458393782377243, 0.0891566351056099, -0.043347593396902084, -0.022037483751773834, -0.0521041601896286, -0.023414183408021927, -0.09325581043958664, -0.08945094794034958, 0.023685986176133156, -0.038347065448760986, -0.035389095544815063, -0.06333275884389877, 0.04988992586731911, -0.03938506916165352, 0.0253314096480608, 0.008918121457099915, 0.02579386718571186, -0.015300105325877666, -0.04990910738706589, -0.003166069509461522, 0.007371110841631889, -0.012323061004281044, 0.03247394040226936, 0.06071247532963753, 0.05681728571653366, 0.05179337039589882, 0.032751359045505524, -0.08910711854696274, -0.052322741597890854, 0.07382134348154068, -0.030375247821211815, 0.02544817514717579, 0.02315651997923851, -0.07099942117929459, 0.020230699330568314, -0.004396528471261263, -0.03226368501782417, -0.04232105612754822, 0.042385343462228775, -0.04594135284423828, 5.7003271649591625e-05, 0.046532899141311646, 0.02478162571787834, -0.020930076017975807, -0.03075815923511982, -0.01718241348862648, 0.032483216375112534, 0.0029297773726284504, -0.03355013579130173, 0.02588408626616001, -0.05959916487336159, 0.06054256483912468, -0.030263502150774002, 0.03950335457921028, 0.053623467683792114, 0.04094492271542549, -0.03987056761980057, -0.0064981491304934025, 0.059085290879011154, 0.02922595664858818, -0.008709271438419819, 0.06356484442949295, 0.05131832882761955, -0.04521233215928078, 0.006089368369430304, 0.04740356653928757, -0.018224509432911873, 0.03606197610497475, -0.04623823240399361, 0.05460011959075928, 0.11899720132350922, 0.05725223571062088, 0.06759733706712723, 0.021857749670743942, -0.009095445275306702, 0.04543277248740196, 0.016367919743061066, 0.06076381728053093, 0.02083689533174038, 0.0014238059520721436, -0.045736584812402725, 0.014826487749814987, -0.0722171738743782, -0.060509659349918365, 0.032595884054899216, -0.0040114461444318295, -0.013265414163470268, 0.0007107244455255568, 0.04529091343283653, -0.059878598898649216, -0.052389971911907196, 0.005563950166106224, -0.018116826191544533, 0.03322816640138626, -0.05270088464021683, -0.014009345322847366, -0.0583016462624073, -0.019526919350028038, 0.043391499668359756, 0.026843465864658356, 0.06669813394546509, -0.044390562921762466, -0.033592816442251205, 0.07082831859588623, 0.0021501414012163877, -0.017826838418841362, 0.0016494834562763572, 0.01646219752728939, -0.04187849164009094, 0.04694034904241562, 0.018807949498295784, 0.015665203332901, -0.06526504456996918, -0.004894695244729519, 0.003053321037441492, 0.04732424020767212, -0.004139907192438841, -0.060968879610300064, -0.01964132860302925, -0.04668555036187172, 0.03838950768113136, -0.0333639420568943, -0.013107488863170147, -0.0568714439868927, 0.05003393068909645, 0.03802108392119408, 0.05790611729025841, 0.027598481625318527, 0.043578796088695526, -0.053592003881931305, -0.0414268858730793, -0.06438711285591125, 0.021343547850847244, -0.059490300714969635, 0.03596426174044609, -0.008034552447497845, -0.0009751463076099753, -0.044948164373636246, 0.0038430423010140657, 0.0035646697506308556, -0.013925746083259583, 0.018903780728578568, -0.044325195252895355, -0.003855585353448987, -0.04519239440560341, 0.017157189548015594, 0.03472324088215828, 0.045102715492248535, -0.026090804487466812, -0.03547997772693634, -0.07348597049713135, 0.017430515959858894, 0.06234559044241905, -0.03463567793369293, -0.024069957435131073, 0.03836832940578461, -0.059781514108181, 0.003539342898875475, 0.028327785432338715, 0.04300801083445549, 0.011062621138989925, 0.012335888110101223, 0.02096179686486721, -0.010989019647240639, 0.026369616389274597, -0.06965294480323792, -0.048277027904987335, -0.05036432296037674, 0.033122602850198746, 0.017888326197862625, -0.013650322332978249, 0.02044294960796833, -0.049954261630773544, 0.03391021862626076, -0.006315751001238823, 0.04380720853805542, -0.044586386531591415, -0.04179975017905235, 0.06823195517063141, -0.05427909269928932, -0.03825688734650612, 0.03270180895924568, 0.007753382902592421, 0.017416037619113922, 0.05768321454524994, -0.03676658868789673, -0.03254949301481247, 0.05555196851491928, -0.05418642610311508, -0.002733751432970166, -0.008834680542349815, 0.013482327573001385, 0.004060359671711922, -0.0620482861995697, -0.02481466345489025, -0.034777671098709106, 0.005750797223299742, -0.020323198288679123, 0.007560870610177517, -0.0448024608194828, 0.009579567238688469, 0.05471150577068329, -0.028636185452342033, -0.041809242218732834, -0.04920710623264313, -0.01011022087186575, -0.05185774341225624, 0.058232586830854416, 0.043299928307533264, -0.07610683143138885, -0.03799724951386452, -0.035539574921131134, 0.03704878315329552, -0.03252967447042465, 0.00904865376651287, -0.02038061060011387, 0.0004321950546000153, 0.030963081866502762, -0.06977514922618866, 0.013612043112516403, -0.00882290955632925, -0.02817576564848423, 0.01567973755300045, -0.051665160804986954, 0.0020913351327180862, -0.06324267387390137, 0.006567636504769325, 0.043940626084804535, -0.011068751104176044, -0.05527977645397186, -0.048577092587947845, -0.006839546840637922, -0.027358360588550568, 0.06693930178880692, 0.03192858397960663, 0.022934136912226677, 0.03304055333137512, -0.03069329261779785, -0.055257588624954224, -0.021925020962953568, -0.033939581364393234, -0.019594978541135788, -0.029733989387750626, -0.03743536397814751, -0.00961883831769228, 0.0552876852452755, 0.021098440513014793, -0.03906743600964546, 0.0422959178686142, 0.06413380801677704, -0.0836353674530983, -0.03631897270679474, -0.011918732896447182, -0.008674664422869682, 0.02108960598707199, 0.004482374060899019, -0.01540469005703926, 0.059038709849119186, -0.05634285882115364, -0.03534259647130966, 0.05410616844892502, -0.02763025276362896, 0.0045234099961817265, -0.05918443575501442, 0.06488234549760818, 0.04631073400378227, 0.04859791323542595, 0.045964550226926804, -0.017945947125554085, -0.024507224559783936, 0.013590960763394833, 0.018048204481601715, -0.012281011790037155, -0.026894493028521538, 0.03974108770489693, -0.035432979464530945, -0.05129711329936981, 0.03902841731905937, -0.015239754691720009, -0.03310815989971161, -0.04238354042172432, -0.0529472678899765, -0.022817647084593773, 0.054863978177309036, -0.05427480489015579, -0.048022713512182236, -0.0032186636235564947, 0.048321545124053955, -0.0350763313472271, 0.04805225878953934, -0.007822811603546143, -0.020184889435768127, -0.03650951012969017, 0.06346388161182404, -0.04649191349744797, -0.01947653852403164, -0.022540882229804993, 0.04591071233153343, -0.03925246000289917, -0.06724477559328079, 0.002725068712607026, -0.02834131196141243, 0.011723842471837997, 0.01097281463444233, 0.043584875762462616, -0.003952772822231054, 0.05826054513454437, -0.013126120902597904, 0.05363716930150986, -0.0353473424911499, -0.06868167966604233, -0.007827349938452244, -0.05708226189017296, -0.08832690864801407, 0.03780046105384827, 0.005656340159475803, 0.061263926327228546, 0.0296439491212368, 0.02550145611166954, -0.02365117147564888, 0.03034154325723648, 0.05319508910179138, 0.0104250218719244, 0.04787382483482361, 0.10254926979541779, 0.015772828832268715, -0.07925620675086975, 0.029659094288945198, -0.03611632436513901, 0.05913897231221199, -0.023462165147066116, 0.01771930791437626, -0.0920332595705986, 0.00046262535033747554, 0.01543816551566124, -0.09225283563137054, 0.009096766822040081, 0.03840651363134384, 0.035664767026901245, -0.042475759983062744, -0.029128171503543854, -0.05967879295349121, -0.055004771798849106, -0.0618324913084507, -0.04369742423295975, -0.0564173124730587, 0.002196152461692691, 0.0003292236942797899, 0.06082562357187271, 0.028239209204912186, 0.014717827551066875, -0.04616560414433479, 0.0545838437974453, 0.054383184760808945, 0.021889997646212578, -0.014368271455168724, 0.07839285582304001, -0.0029295997228473425, -0.014625251293182373, -0.02729637548327446, -0.006424061022698879, -0.0031141056679189205, 0.03508872538805008, -0.04036376625299454, -0.04859299957752228, 0.030332542955875397, -0.034561336040496826, -0.025610672309994698, -0.02818373776972294, -0.042343929409980774, -0.0043779406696558, -0.035689763724803925, 0.03216632455587387, -0.05329973250627518, -0.060124799609184265, -0.06115078553557396, -0.0018418761901557446, -0.04912123829126358, -0.05742400139570236, 0.045196861028671265, -0.02880944311618805, -0.0087492186576128, -0.0007064633537083864, -0.10267556458711624, -0.02863919734954834, -0.028345150873064995, 0.08818849921226501, -0.024604566395282745, 0.07975771278142929, 0.055656976997852325, -0.05929466336965561, 0.0393209308385849, -0.043184198439121246, 0.003179417224600911, -0.032499153167009354, -0.05815720558166504, -0.02054360881447792, -0.07903310656547546, 0.05481494590640068, 0.006689155008643866, 0.037002015858888626, 0.0034006766509264708, -0.05166642367839813, -0.04273416846990585, -0.02475174516439438, 0.06693382561206818, -0.004911679308861494, 0.11037240922451019, 0.010890125297009945, 0.036996353417634964, -0.020311610773205757, 0.06852268427610397, 0.014974136836826801, -0.03571875020861626, 0.08063051104545593, 0.01720762625336647, -0.0013177049113437533, -0.057402629405260086, -0.05466294288635254, -0.054355934262275696, -0.0368121899664402, 0.026896467432379723, 0.030139410868287086, 0.026222171261906624, 0.028636716306209564, -0.05712026730179787, -0.05732697620987892, -0.00406626658514142, -0.006467856001108885, 0.04650581255555153, 0.002112903166562319, 0.07916876673698425, 0.06553516536951065, 0.06952649354934692, -0.003555705538019538, -0.005647882353514433, -0.0327494814991951, -0.008869337849318981, -0.011161256581544876, 0.05655236542224884, -0.05846156179904938, 0.05002255737781525, 0.010221479460597038, -0.06025056913495064, 0.0037192164454609156, 0.023113396018743515, 0.027360785752534866, 0.017863253131508827, -0.013175146654248238, -0.0839618667960167, -0.020275261253118515, -0.09064313769340515, -0.04216393828392029, 0.038533784449100494, 0.05261136591434479, 0.08726925402879715, 0.023038458079099655, 0.018389729782938957, 0.0065346406772732735, 0.02825123816728592, 0.031262706965208054, -0.02753683179616928, -0.03791685029864311, 0.03516281023621559, 0.026020970195531845, -0.043190449476242065, 0.0235810074955225, 0.05438395217061043, -0.00019974439055658877, -0.059683192521333694, -0.06210783123970032, 0.0044370004907250404, -0.019588271155953407, -0.006013252306729555, -0.04912722110748291, -0.008094613440334797, -0.04660870134830475, -0.03699301555752754, 0.03658951818943024, -0.04646749049425125, 0.005103659350425005, 0.05118449404835701, -0.02141047827899456, -0.03222034499049187, 0.05439450219273567, 0.0315159447491169, -0.006773147266358137, 0.07007350027561188, -0.003125876886770129, -0.014961562119424343, -0.02572435885667801, 0.016275903210043907, -0.010007834993302822, 0.00778611283749342, -0.033522382378578186, -0.021897373721003532, -0.023808501660823822, -0.04267915338277817, 0.020643724128603935, -0.038197338581085205, -0.011083774268627167, 0.08817455917596817, 0.05248291790485382, -0.004541194997727871, -0.014997412450611591, -0.043715763837099075, 0.03142068535089493, -0.016781724989414215, 0.03208695724606514, -0.05560080334544182, 0.039132945239543915, 0.022583169862627983, -0.04825520142912865, 0.0189509280025959, 0.026045864447951317, -0.06639792770147324, 0.011621598154306412, -0.022921329364180565, -0.07179897278547287, 0.06917104870080948, 0.04701372981071472, 0.046502020210027695, -0.010859349742531776, -0.02437182329595089, -0.010920174419879913, -0.037803784012794495, 0.040713053196668625, 0.03738212212920189, -0.045123666524887085, 0.05177787318825722, 0.0425979346036911, -0.052280183881521225, -1.978756336029619e-05, -0.06574653089046478, -0.03801317140460014, 0.051747579127550125, 0.02074718102812767, 0.02083715796470642, -0.009645678102970123, 0.07111916691064835, 0.09046967327594757, -0.0633232370018959, -0.07751131802797318, 0.003988228738307953, 0.05671912059187889, -0.05995515361428261, 0.07695681601762772, 0.07619190961122513, 0.032825861126184464, 0.0577394999563694, 0.04879072681069374, 0.0507887564599514, 0.08574600517749786, 0.0256792064756155, 0.05025755241513252, -0.029972560703754425, 0.0538916289806366, 0.05261661857366562, 0.0362190343439579, -0.03847930580377579, -0.09018811583518982, -0.05859777703881264, 0.027567867189645767, -0.01546378806233406, -0.0067997584119439125, -0.009009678848087788, 0.0481773242354393, 0.04404189810156822, -0.02520870231091976, 0.10026724636554718, 0.07383187115192413, 0.1292622685432434, 0.04778897762298584, 0.08078477531671524, 0.047103382647037506, -0.03386963903903961, -0.026084361597895622, -0.016808517277240753, 0.03712523356080055, 0.011491581797599792, -0.054655954241752625, -0.055896028876304626, -0.031336311250925064, 0.05270994082093239, 0.05732763186097145, -0.08392652124166489, 0.027891186997294426, -0.07467222213745117, -0.05908290669322014, -0.016142016276717186, -0.02975858934223652, 0.026612035930156708, 0.0005454222555272281, -0.02078111097216606, 0.03731973469257355, -0.03232727199792862, -0.04964849725365639, -0.028245246037840843, -0.01091699581593275, -0.07940877974033356, -0.030478261411190033, 0.04896627366542816, 0.04180799424648285, -0.019166098907589912, -0.03581586480140686, 0.017359966412186623, -0.005139065906405449, 0.02103913389146328, 0.060899753123521805, 0.026922335848212242, -0.04497846961021423, 0.04665479436516762, -0.0619388222694397, -0.05522989109158516, -0.05610787868499756, 0.01682526059448719, -0.05173160508275032, -0.06158275529742241, 0.03116183541715145, -0.0033268199767917395, -0.013816812075674534, 0.0503050796687603, 0.07159638404846191, -0.028482304885983467, -0.08363602310419083, -0.0020287807565182447, 0.08254643529653549, -0.01211524847894907, 0.005882084835320711, -0.02110695093870163, 0.0033108294010162354, -0.005042363423854113, -0.013759014196693897, 0.00811245571821928, -0.01492637861520052, 0.08402954787015915, 0.05594237893819809, 0.006565816700458527, -0.01642770878970623, 0.07880165427923203, 0.06682594120502472, -0.024756016209721565, -0.042435988783836365, -0.06933249533176422, -0.022027067840099335, 0.01439998671412468, -0.014090155251324177, -0.08179104328155518, 0.02060692384839058, -0.05679955706000328, -0.009003977291285992, -0.014641094952821732, 0.01432538591325283, 0.006759917363524437, 0.008091362193226814, 0.027486562728881836, -0.05403148755431175, 0.0030838248785585165, 0.018396450206637383, -0.000743442156817764, 0.029791561886668205, 0.08737294375896454, 0.01856420189142227, 0.06972600519657135, -0.07081710547208786, 0.025362836197018623, -0.01092022005468607, -0.021013949066400528, -0.010899542830884457, 0.018076594918966293, 0.022088943049311638, -0.06071872264146805, -0.018584193661808968, -0.0018929929938167334, 0.03730711340904236, 0.04179028421640396, 0.06282036751508713, 0.03520699217915535, 0.029701970517635345, -0.03068999946117401, 0.05309286341071129, 0.020680982619524002, -0.029815826565027237, 0.0572563000023365, 0.008975625038146973, -0.012021676637232304, 0.02597200684249401, 0.0019839657470583916, 0.04050733521580696, -0.11411780118942261, -0.09403733909130096, -0.07940962165594101, 0.025774739682674408, 0.0008977543329820037, 0.08265528082847595, 0.017075994983315468, 0.009004293009638786, 0.02935374714434147, 0.03544282540678978, 0.033693403005599976, 0.07363413274288177, 0.060150112956762314, 0.004658218007534742, 0.039205294102430344, -0.04019338637590408, -0.002570019569247961, -0.02224520966410637, -0.06073061376810074, 0.05637223273515701, 0.04877950996160507, 0.014173443429172039, 0.05686134845018387, 0.027600018307566643, -0.07530246675014496, -0.0006202758522704244, 0.10217840224504471, 0.026981038972735405, 0.04614066705107689, 0.008632708340883255, 0.06971119344234467, 0.0029065676499158144, -0.06296856701374054, 0.007814561016857624, -0.01123844739049673, -0.0156408678740263, -0.015745945274829865, 0.02839892916381359, 0.053807515650987625, 0.0553855337202549, -0.08556538820266724, 0.03286493569612503, -0.02443647012114525, -0.06375977396965027, 0.013800989836454391, 0.10483552515506744, -0.03844279795885086, -0.06706205755472183, 0.06399084627628326, 0.017479293048381805, -0.007218062411993742, -0.010808449238538742, -0.0709669217467308, 0.027083922177553177, -0.027133790776133537, 0.030756814405322075, 0.0332053080201149, 0.010408171452581882, 0.06876326352357864, 0.045187417417764664, -0.09700832515954971, -0.04242008551955223, 0.015371771529316902, 0.007519866805523634, 0.000892028387170285, -0.036199625581502914, -0.05931044742465019, 0.016772640869021416, -0.004822227172553539, 0.08300884813070297, -0.03810477629303932, 0.0026614824309945107, -0.046746719628572464, -0.04917091503739357, 0.014643506146967411, -0.04039746895432472, -0.06706211715936661, -0.06760255992412567, -0.05542231351137161, 0.0373455286026001, -0.024511262774467468, 0.01352543756365776, -0.061878520995378494, 0.03212502971291542, -0.024166816845536232, -0.0221810694783926, -0.026711728423833847, 0.05187078192830086, -0.05614715814590454, -0.13943366706371307, -0.05839470028877258, 0.018142547458410263, 0.014576470479369164, -0.01849370263516903, -0.06263656914234161, -0.05691986158490181, 0.005303259938955307, 0.039556343108415604, 0.0834440216422081, -0.008010424673557281, -0.0958658829331398, -0.001008233637548983, -0.016343815252184868, 0.03141230717301369, 0.0441364049911499, -0.017448212951421738, 0.050457924604415894, -0.003101050155237317, -0.02431293949484825, 0.04490514472126961, 0.005726011004298925, 0.01804560422897339, -0.033820051699876785, -0.042566847056150436, -0.001665597315877676, 0.029924625530838966, 0.035050831735134125, -0.0022055390290915966, 0.01516001671552658, 0.05777411535382271, -0.015607651323080063, 0.029234101995825768, -0.0357096903026104, 0.02351963147521019, -0.02761543169617653, 0.02196287177503109, 0.024059299379587173, 0.014329479075968266, 0.05111924558877945, -0.029101701453328133, -0.052899669855833054, 0.04175124317407608, 0.04777797311544418, 0.013231280259788036, -0.03066108003258705, 0.043796852231025696, -0.019336599856615067, 0.03447691351175308, 0.04990483820438385, -0.010832129046320915, -0.03183860704302788, -0.058331944048404694, 0.01519401278346777, 0.058923475444316864, 0.06201515719294548, 0.0521269254386425, -0.013094368390738964, 0.034153591841459274, 0.05805454030632973, -0.058303285390138626, 0.047751087695360184, 0.0012140166945755482, -0.05591944232583046, 0.06176461651921272, -0.05973179265856743, 0.039170511066913605, 0.012857510708272457, -0.04788557067513466, 0.019420115277171135, -0.010835276916623116, 0.039901647716760635, 0.016579721122980118, -0.0070448946207761765, -0.048565205186605453, 0.005320945754647255, 0.0623607411980629, 0.005987844429910183, -0.06428523361682892, -0.02886778861284256, -0.017134100198745728, 0.015956003218889236, -0.04122081398963928, 0.008645456284284592, -0.05907005816698074, -0.029781701043248177, -0.05160829424858093, 0.051062699407339096, 0.0445253849029541, -0.061382949352264404, -0.03673330321907997, -0.009964973665773869, -0.06015386804938316, -0.03367788344621658, -0.04543684422969818, -0.0578409843146801, -0.05627983435988426, -0.01866116002202034, 0.02186216041445732, 0.027794089168310165, -0.03606999292969704, -0.0001865092635853216, -0.050368618220090866, -0.05686590448021889, 0.02632567100226879, 0.057579319924116135, -0.008208096958696842, 0.04449646919965744, 0.04328401759266853, 0.02659536339342594, 0.050325021147727966, -0.02002624236047268, 0.020982174202799797, -0.039874203503131866, -0.003261771984398365, -0.0090976906940341, -0.060220424085855484, 0.03379467874765396, 0.03172459080815315, -0.023951377719640732, -0.049222808331251144, 0.034706417471170425, 0.059953536838293076, 0.046100784093141556, 0.03095516376197338, -0.04258739948272705, -0.0417708121240139, 0.0564158596098423, 0.04470596835017204, 0.04446711391210556, 0.0373457632958889, -0.062362998723983765, 0.04851990565657616, -0.03270494192838669, 0.017450759187340736, -0.00886728148907423, 0.06160696595907211, 0.00862239021807909, -0.051550667732954025, -0.05797189474105835, 0.030825957655906677, -0.04768501594662666, 0.04976489022374153, 0.019867002964019775, -0.008976037614047527, -0.013643213547766209, 0.042092837393283844, -0.02454601600766182, -0.053819671273231506, -0.010144568979740143, -0.03786097839474678, -0.017410654574632645, -0.02707175351679325, -0.03982450067996979, -0.0627036765217781, 0.038013823330402374, 0.010675866156816483, 0.03840138018131256, -0.06371928751468658, -0.022290809080004692, -0.059480126947164536, 0.025397077202796936, -0.015435058623552322, -0.03742137551307678, -0.056839991360902786, 0.06235065683722496, -0.06445468962192535, 0.03483796864748001, -0.01417180709540844, -0.014419296756386757, -0.023949768394231796, 0.020560456439852715, -0.014500105753540993, -0.03476478531956673, 0.03401187062263489, 0.038581483066082, -0.053119007498025894, -0.03288290277123451, -0.06507822126150131, -0.036364082247018814, 0.020932821556925774, -0.008112095296382904, -0.04820837080478668, 0.01283920370042324, -0.007363917771726847, -0.049077268689870834, -0.05875532329082489, -0.061781708151102066, -0.047682929784059525, 0.018221264705061913, 0.007407295983284712, 0.03785793483257294, 0.03526579216122627, 0.059961721301078796, -0.042686693370342255, -0.032922327518463135, -0.004851090256124735, -0.052845411002635956, 0.05772542580962181, 0.010235767811536789, 0.04895965754985809, -0.03748968243598938, -0.03766470029950142, -0.06482470780611038, -0.05272796377539635, 0.052070487290620804, -0.014176377095282078, 0.055227890610694885, -0.05959930270910263, -0.04824811965227127, -0.025456594303250313, 0.007245090324431658, 0.019328059628605843, -0.052253931760787964, 0.05194311589002609, 0.019941523671150208, 0.03162914887070656, 0.030647488310933113, 0.05134475231170654, 0.009615064598619938, -0.0593758299946785, 0.056874241679906845, -0.016055643558502197, -0.004214542917907238, 0.022795451804995537, 0.019726058468222618, 0.017088474705815315, -0.029364554211497307, -0.03309087082743645, -0.01671055145561695, -0.058570101857185364, 0.041830986738204956, -0.023855414241552353, 0.0059458720497787, 0.002904101274907589, 0.0077802338637411594, 0.03598376363515854, 0.009320804849267006, -0.05610060319304466, -0.030266592279076576, -0.0015038776909932494, -0.007463343907147646, -0.020990392193198204, 0.025746582075953484, -0.061483368277549744, -0.024120261892676353, -0.015646571293473244, -0.03711772337555885, 0.042982909828424454, 0.02028374932706356, -0.036190472543239594, -0.01635170727968216, 0.04929172620177269, 0.025573408231139183, -0.03095342218875885, -0.033039093017578125, 0.05846554413437843, -0.003461326938122511, -0.008141269907355309, 0.011455017141997814, -0.017749836668372154, 0.00926410872489214, 0.01778392679989338, 0.054063957184553146, 0.007210578769445419, -0.03704630583524704, -0.02490196004509926, 0.0035745026543736458, -0.06906162202358246, 0.025119982659816742, 0.031626082956790924, -0.0831986665725708, -0.030032476410269737, 0.02371598780155182, -0.01727384887635708, -0.005302112083882093, -0.008896850980818272, 0.022884665057063103, 0.07126700133085251, 0.0192419346421957, -0.1033673882484436, -0.006158181931823492, -0.05412489175796509, -0.013119778595864773, 0.006296336650848389, 0.001251985551789403, 0.0007126131094992161, -0.023281054571270943, 0.035912856459617615, 0.07470786571502686, -0.04906471073627472, -0.07239797711372375, -0.0143318772315979, -0.03544559329748154, -0.022421542555093765, -0.050160717219114304, -0.06934382021427155, -0.05050390586256981, -0.007883502170443535, 0.030797215178608894, 0.08546104282140732, 0.004513425752520561, 0.11201895773410797, 0.008478764444589615, 0.05593567341566086, 0.005110856145620346, -0.002380784833803773, -0.04282926768064499, 0.0035060604568570852, 0.04628618061542511, -0.06491930782794952, -0.05425821244716644, -0.06341584771871567, -0.04828907176852226, -0.05373021960258484, 0.02637341059744358, -0.018504729494452477, 0.04384289309382439, 0.04645634815096855, -0.05872012674808502, -0.04594099894165993, 0.013302555307745934, 0.03609126806259155, -0.021750621497631073, -0.014659476466476917, 0.03640422224998474, 0.09497639536857605, -0.018666481599211693, 0.014070038683712482, -0.016333632171154022, -0.03465265408158302, 0.0349164679646492, -0.0319642499089241, 0.014180906116962433, 0.02121959812939167, -0.037837717682123184, -0.03582241013646126, 0.07887765020132065, 0.01932653598487377, 0.048366013914346695, -0.12711989879608154, 0.010383299551904202, 0.022443613037467003, 0.027040475979447365, 0.0036009401082992554, 0.08403011411428452, 0.0677727609872818, 0.029898278415203094, 0.04997340962290764, -0.004885653033852577, 0.10489950329065323, 0.0933799296617508, 0.011474879458546638, 0.01968064159154892, -0.0282811988145113, 0.016757089644670486, -0.049711521714925766, 0.001653458341024816, 0.00454024039208889, -0.05689330771565437, -0.04709230735898018, 0.004807152319699526, 0.07386844605207443, 0.031303487718105316, -0.0318632610142231, 0.045935530215501785, 0.04374758526682854, 0.01807600073516369, 0.06782735884189606, -0.007036792580038309, 0.05337166413664818, -0.03409712389111519, 0.03600187227129936, 0.02564121037721634, -0.03875821456313133, -0.06301306188106537, -0.03525125980377197, -0.06256113946437836, 0.036042433232069016, 0.019158577546477318, 0.03894216567277908, -0.0025033606216311455, 0.05303646996617317, 0.021766047924757004, 0.024560775607824326, -0.002487841760739684, -0.047557611018419266, 0.022457147017121315, -0.009114809334278107, 0.010088100098073483, 0.08329253643751144, 0.048963844776153564, -0.04232579842209816, 0.034766655415296555, 0.1197146400809288, -0.029437899589538574, -0.11429368704557419, -0.011941821314394474, -0.0006457521230913699, 0.006162740755826235, 0.03634797781705856, -0.04365070164203644, -0.030370663851499557, 0.014480276964604855, 0.023098373785614967, 0.05444670841097832, 0.060784175992012024, -0.05869607254862785, 0.0410662516951561, 0.0156566072255373, 0.0012243923265486956, -0.05482473969459534, -0.03756801411509514, 0.03014199063181877, -0.028227634727954865, 0.005222454201430082, 0.04976088926196098, 0.03481075540184975, -0.03756845369935036, -0.004088532645255327, -0.12635283172130585, 0.06436034291982651, 0.028699634596705437, -0.03264109790325165, -0.0567997545003891, -0.017735904082655907, 0.05215004086494446, -0.007775420323014259, -0.06302406638860703, 0.043533921241760254, 0.06940292567014694, -0.08207225054502487, 0.06263934820890427, 0.07349293678998947, -0.00451878784224391, -0.06450792402029037, -0.09824121743440628, -0.0077179549261927605, 0.01753469556570053, 0.002091030590236187, 0.0006142926285974681, -0.04707324132323265, -0.07522022724151611, -0.012806867249310017, 0.07556311041116714, 0.07833559066057205, 0.06982027739286423, -0.08041132241487503, -0.041232358664274216, -0.007602988742291927, -0.08323290199041367, 0.023990219458937645, 0.007147876545786858, -0.06659724563360214, 0.05655473470687866, 0.08264179527759552, 0.051880527287721634, -0.018348298966884613, 0.06470105797052383, 0.03262925148010254, 0.02608145959675312, -0.030763918533921242, -0.03285816311836243, -0.05746689438819885, -0.02167641557753086, -0.06885427236557007, -0.06853493303060532, -0.05657898634672165, -0.01355188712477684, -0.027725471183657646, 0.03897613286972046, 0.004389097914099693, -0.04677984118461609, -0.05338539555668831, 0.004972907714545727, 0.020901327952742577, 0.03368662670254707, 0.014896033331751823, -0.01952708512544632, 0.03286181762814522, 0.047592706978321075, 0.09495412558317184, -0.002336906036362052, -0.04133373498916626, -0.0338483564555645, -0.07800883799791336, 0.019362185150384903, 0.0058599673211574554, -0.0400758795440197, -0.07081817090511322, 0.0454523041844368, 0.056301768869161606, -0.014698906801640987, 0.023159027099609375, 0.024069106206297874, -0.062103673815727234, 0.04888799414038658, -0.004382972605526447, -0.0068381717428565025, -0.09052179008722305, 0.09834007173776627, -0.04108656942844391, -0.03859560191631317, -0.06708744168281555, 0.04209769517183304, -0.027305660769343376, -0.08231455087661743, -0.0078048924915492535, 0.08007955551147461, -0.01839125156402588, 0.06674864143133163, -0.04133964702486992, 0.01080372929573059, 0.035320594906806946, 0.04972580820322037, -0.0464746467769146, -0.05026867985725403, -0.038557447493076324, -0.0662865862250328, 0.014116169884800911, -0.03362208977341652, -0.12754087150096893, -0.12277880311012268, 0.03470547869801521, -0.037065934389829636, -0.06474430114030838, -0.038368307054042816, 0.0319998525083065, 0.09937621653079987, -0.009864098392426968, 0.026247769594192505, -0.012960672378540039, 0.05832406133413315, -0.033908411860466, -0.026958202943205833, -0.06411817669868469, 0.059092774987220764, 0.040751371532678604, 0.02085789293050766, 0.02842750772833824, 0.07928016036748886, -0.057670675218105316, -0.02160312980413437, 0.03260166943073273, -0.04138687625527382, 0.047337606549263, -0.05788450315594673, 0.028491506353020668, -0.02166641689836979, -0.05865790694952011, -0.018849821761250496, -0.044974349439144135, 0.03741041198372841, -0.04217195510864258, 0.007905003614723682, 0.033975787460803986, 0.05470963194966316, 0.055385489016771317, -0.003577610943466425, -0.03247843310236931, 0.023023467510938644, 0.06316103786230087, 0.09153671562671661, -0.05892384052276611, 0.04627382755279541, 0.02235558070242405, 0.05191498249769211, -0.09448536485433578, 0.11631211638450623, -0.021810779348015785, -0.007853297516703606, -0.008357765153050423, -0.02296236716210842, -0.04174777492880821, -0.034035008400678635, 0.03726446256041527, -0.05658527836203575, 0.0646037608385086, 0.0153783168643713, -0.06416396796703339, 0.11563635617494583, 0.02278098277747631, 0.076630599796772, -0.024561595171689987, 0.022230446338653564, 0.030682990327477455, 0.03626638278365135, 0.05598175525665283, 0.01638498343527317, 0.0023959826212376356, 0.07623575627803802, -0.04384751617908478, -0.011659848503768444, -0.116431325674057, 0.00825529731810093, 0.000981390243396163, -0.06632252782583237, -0.05376918613910675, 0.058015644550323486, 0.05010738596320152, -0.03741353005170822, -0.01265131589025259, -0.0029585971496999264, 0.06865017116069794, 0.03327063098549843, -0.05103294923901558, -0.010015084408223629, 0.07262619584798813, -0.002960256999358535, 0.06180087476968765, -0.001209011534228921, 0.07904861867427826, 0.06949443370103836, 0.023993007838726044, -0.017303012311458588, -0.027062658220529556, 0.006497585214674473, -0.0015689802821725607, 0.012149413116276264, 0.04129256308078766, 0.025184014812111855, 0.06023424491286278, -0.0015453440137207508, 0.04224136844277382, -0.1310434639453888, -0.023840341717004776, -0.014906433410942554, -0.0944986641407013, 0.02594265528023243, 0.00570695661008358, -0.009994794614613056, 0.07618381828069687, 0.11126536875963211, 0.005634152330458164, -0.046563971787691116, 0.09157118201255798, 0.018295736983418465, -0.02458149939775467, 0.07617788016796112, -0.03523978590965271, 0.005164987873286009, -0.05761038139462471, -0.027266306802630424, -0.004457820672541857, -0.05611426755785942, 0.03619246184825897, -0.00528795225545764, 0.03684091940522194, -0.02793724834918976, -0.06339622288942337, -0.02176899090409279, -0.05745367333292961, -0.056720070540905, 0.03650568425655365, -0.05776617303490639, -0.05801462382078171, 0.031031697988510132, -0.0002109681227011606, 0.014711502939462662, -0.11529666185379028, 0.057596806436777115, -0.07587755471467972, 0.005300195887684822, -0.04633158817887306, 0.03905484825372696, -0.029488105326890945, -0.019881168380379677, -0.017472459003329277, 0.017064891755580902, 0.006806530989706516, 0.08712870627641678, 0.08476085215806961, -0.0015974716516211629, -0.03425728902220726, -0.04179990291595459, 0.061470627784729004, 0.04625825956463814, 0.052305854856967926, -0.026849212124943733, -0.026102237403392792, 0.07648628950119019, -0.018487365916371346, 0.03339489549398422, -0.050080422312021255, 0.02225388213992119, -0.060447514057159424, 0.08515610545873642, -0.06292174011468887, -0.0459013357758522, 0.04084905982017517, 0.03583357110619545, -0.0738365426659584, -0.013583564199507236, 0.05568678677082062, 0.05070015788078308, 0.03711950033903122, 0.07413943111896515, 0.001021151547320187, -0.04120234400033951, 0.021473761647939682, 0.04187799245119095, -0.10311924666166306, 0.0510876402258873, 0.017680317163467407, 0.042602766305208206, -0.0310744047164917, 0.009841599501669407, -0.012923983857035637, 0.03430991992354393, 0.06618073582649231, 0.02370777539908886, 0.011066699400544167, -0.03143923729658127, -0.012124666944146156, -0.028630120679736137, -0.040995001792907715, -0.027287524193525314, 0.023541806265711784, 0.018247930333018303, 0.08599316328763962, 0.11924823373556137, 0.012717453762888908, -0.07610877603292465, 0.1399078369140625, -0.011485506780445576, 0.053701214492321014, -0.006209783721715212, -0.03373304009437561, 0.03608931601047516, 0.03971504420042038, 0.11317579448223114, 0.02381080761551857, -0.04913712665438652, -0.04087075963616371, -0.016334105283021927, -0.029774878174066544, 0.0460481271147728, -0.05759664252400398, -0.04407554864883423, 0.0074846274219453335, 0.034241169691085815, 0.02205464616417885, 0.036611076444387436, -0.056168150156736374, -0.03134347125887871, 0.004452599212527275, -0.023446829989552498, 0.0011496426304802299, -0.0010163725819438696, -0.04082426056265831, -0.016817668452858925, 0.0017515135696157813, -0.003964420408010483, 0.0013211856130510569, -0.01022844947874546, 0.05315053462982178, 0.00478388974443078, -0.06812512129545212, -0.009664679877460003, 0.022058051079511642, 0.05011916905641556, -0.033631544560194016, 0.025131527334451675, 0.009134076535701752, 0.038198601454496384, -0.030320383608341217, -0.011075170710682869, -0.0277683325111866, 0.038102153688669205, 0.04141242802143097, -0.04626547172665596, 0.01730198971927166, 0.04533666744828224, 0.007308460772037506, -0.03817734122276306, -0.007730808109045029, -0.01173960417509079, -0.029567893594503403, -0.02601001225411892, -0.02355000749230385, -0.058392852544784546, -0.008272049017250538, 0.006278371904045343, 0.04535778984427452, -0.014504123479127884, 0.058811385184526443, -0.027334483340382576, -0.016735166311264038, -0.04408184438943863, 0.04322395101189613, -0.050585146993398666, -0.06215956062078476, -0.01918961852788925, 0.014358842745423317, -0.006004339549690485, -0.05366131290793419, 0.06333938241004944, 0.04919798672199249, -0.01528872735798359, 0.0535421296954155, 0.013349239714443684, -0.04113932326436043, 0.04445609077811241, -0.05807170271873474, 0.034382376819849014, -0.07799787819385529, -0.02575298771262169, -0.03153174743056297, -0.042134031653404236, -0.06555606424808502, 0.0032220298890024424, 0.037439119070768356, 0.05014008656144142, 0.006435811053961515, 0.0010353735415264964, 0.04224000498652458, -0.01699240319430828, -0.0012835620436817408, -0.06504347175359726, -0.01390440110117197, -0.04200389236211777, 0.0007428228273056448, -0.03634755685925484, 0.06567458808422089, -0.03145570680499077, -0.06272171437740326, 0.01362959761172533, -0.033990830183029175, -0.05774625018239021, -0.06159183382987976, 0.062224868685007095, -0.007196266669780016, 0.05617447942495346, -0.04032411053776741, 0.02653607167303562, 0.013850266113877296, -0.03355277702212334, 0.034387435764074326, 0.04265483096241951, -0.04333753511309624, -0.04534461721777916, 0.036943018436431885, -0.015472936443984509, -0.03913858160376549, 0.035625159740448, -0.021934164687991142, -0.05727742612361908, 0.048579905182123184, -0.034021783620119095, -0.0036010267212986946, -0.04373549297451973, -0.020547814667224884, 0.02236313931643963, 0.019339600577950478, -0.056639689952135086, -0.0506591722369194, -0.06306832283735275, 0.002890325151383877, 0.05300452560186386, -0.007080543786287308, 0.02024264819920063, 0.03910282254219055, 0.007259388919919729, 0.012374893762171268, 0.052571531385183334, 0.02951076067984104, -0.043908052146434784, 0.04193893447518349, 0.05030601844191551, 0.030714387074112892, 0.003357046050950885, -0.05690830945968628, 0.025164218619465828, -0.029406893998384476, -0.033836107701063156, -0.051329921931028366, 0.040960121899843216, -0.0252364594489336, 0.005380741320550442, -0.024782754480838776, 0.0061759352684021, -0.04781626537442207, -0.026226764544844627, 0.05292002484202385, -0.019112449139356613, 0.03997375816106796, -0.02650485932826996, 0.004348484333604574, -0.01266542263329029, -0.05424574762582779, -0.02126043476164341, 0.007142217829823494, -0.04545995220541954, 0.05383063107728958, 0.05706487596035004, 0.009443028829991817, 0.04807252809405327, 0.03689597547054291, -0.0296606607735157, 0.057528719305992126, 0.00843078177422285, -0.06709164381027222, 0.005372272338718176, -0.010471315123140812, 0.008542620576918125, 0.02857080288231373, 0.061797160655260086, 0.02036021463572979, 0.01758197508752346, -0.033661872148513794, 0.07292840629816055, -0.04606049880385399, 0.057811904698610306, 0.027337979525327682, 0.051235999912023544, 0.027747366577386856, -0.011321814730763435, 0.02958911471068859, 0.04761267453432083, -0.043255556374788284, -0.03854716941714287, -0.05822804942727089, 0.01518511213362217, -0.017013845965266228, 0.03267180174589157, -0.056852150708436966, 0.04572555050253868, 0.04060300439596176, 0.038187745958566666, 0.04855092242360115, 0.041616640985012054, 0.031885430216789246, -0.04364633932709694, -0.05787095054984093, 0.03695561736822128, 0.05459289997816086, 0.03752840310335159, -0.014941181987524033, -0.008378683589398861, 0.023129437118768692, -0.052231624722480774, -0.04495396465063095, -0.005006258841603994, -0.050700534135103226, 0.04839581623673439, 0.05497976019978523, -0.03180188313126564, -0.03565111756324768, 0.06258488446474075, 0.029693247750401497, -0.03842449560761452, -0.0422617644071579, -0.04325713962316513, -0.018231414258480072, -0.021361352875828743, 0.06039358302950859, 0.02176121063530445, 0.04879032075405121, -0.028280317783355713, 0.03132113441824913, 0.0523841492831707, -0.030403506010770798, -0.029522955417633057, -0.06452703475952148, -0.034252312034368515, -0.015937931835651398, -0.056326769292354584, 0.0489501953125, -0.039652466773986816, 0.04036517068743706, -0.0585426390171051, 0.004222546704113483, -0.024731473997235298, -0.0656435564160347, 0.0563848502933979, -0.03569386526942253, 0.057932402938604355, 0.04569043964147568, 0.004352052696049213, 0.08829060941934586, 0.026120640337467194, 0.04510024935007095, -0.027611689642071724, -0.049493297934532166, 0.02873057685792446, 0.10095389187335968, -0.03149867802858353, -0.047523871064186096, -0.1174425408244133, -0.10280630737543106, -0.02603773958981037, 0.03452696651220322, 0.009349753148853779, -0.015488864853978157, 0.015964366495609283, 0.06756477802991867, -0.06285184621810913, 0.003966278396546841, 0.04145142063498497, -0.033531878143548965, 0.019722644239664078, -0.009657884947955608, -0.010893741622567177, -0.0694226324558258, 0.06817527860403061, 0.05509720370173454, 0.08717174828052521, -0.062206197530031204, -0.008443559519946575, -0.07297024130821228, -0.06689514219760895, -0.030345499515533447, -0.01126687228679657, -0.01560890767723322, -0.09584677964448929, 0.11275769025087357, 0.15141595900058746, 0.08299189805984497, 0.07172165811061859, 0.02932300791144371, -0.058093052357435226, 0.003939094487577677, -0.05006154626607895, 0.0552939735352993, -0.04901176691055298, -0.016253827139735222, -0.020708374679088593, 0.002703576348721981, -0.02467242255806923, 0.017216073349118233, 0.004351229406893253, -0.04839406535029411, 0.02801930531859398, 0.037199702113866806, 0.01456362009048462, 0.01889132894575596, 0.050260089337825775, -0.015807639807462692, -0.012308924458920956, 0.017705274745821953, 0.04973830655217171, 0.031797535717487335, 0.011297715827822685, 0.05202532559633255, 0.01962420530617237, 0.049148738384246826, 0.06720234453678131, 0.030604545027017593, -0.030489493161439896, 0.06712313741445541, 0.06996867805719376, -0.0333329401910305, 0.010874856263399124, -0.09567700326442719, -0.010661957785487175, -0.08270230144262314, 0.0016794566763564944, 0.04577404633164406, -0.053536031395196915, -0.023094531148672104, 0.03385094553232193, 0.10164700448513031, -0.02596159465610981, -0.025093484669923782, 0.015275347977876663, 0.12463971227407455, -0.02806008793413639, -0.07478536665439606, 0.023973722010850906, -0.012564953416585922, -0.048674654215574265, -0.049969278275966644, 0.004599306266754866, -0.020178737118840218, -0.04747806116938591, 0.07542473822832108, -0.0859844982624054, 0.037088699638843536, -0.04427317529916763, 0.003750142641365528, -0.0410723052918911, 0.027002332732081413, 0.01494823768734932, 0.004390283487737179, 0.0786660760641098, 0.053757164627313614, 0.05123094096779823, -0.04619922116398811, -0.047272685915231705, 0.05213502049446106, -0.009720920585095882, -0.01300271786749363, -0.04258895292878151, -0.04542454332113266, 0.0567244291305542, 0.04126649349927902, 0.029106346890330315, -0.03902662172913551, -0.07010146230459213, 0.01620233803987503, 0.0558907687664032, -0.022949738427996635, -0.03226334601640701, -0.07885900139808655, -0.07483753561973572, -0.0060114068910479546, -0.0683739185333252, 0.014951598830521107, -0.09808101505041122, 0.00744375167414546, 0.008642800152301788, -0.06291881948709488, -0.0577128566801548, 0.009571503847837448, -0.018625304102897644, 0.019688207656145096, 0.03578675538301468, -0.007452683057636023, -0.0472140796482563, 0.056571878492832184, -0.05082259699702263, -0.0019003897905349731, 0.016239263117313385, -0.057045597583055496, -0.0076556215062737465, 0.003126168390735984, -0.04093319550156593, -0.06362561881542206, 0.05972953885793686, 0.07874145358800888, 0.01843280717730522, 0.04806636646389961, 0.06568486243486404, 0.018865982070565224, -0.03938952088356018, -0.06148578226566315, 0.011761128902435303, 0.011405350640416145, -0.04290856793522835, -0.03756721317768097, -0.03330153971910477, 0.12376794964075089, -0.0037782639265060425, -0.00284854625351727, -0.01682395115494728, 0.06657849252223969, -0.00864267349243164, -0.07973343878984451, 0.02378210239112377, -0.10835889726877213, -0.019714200869202614, -0.0173984132707119, -0.0773194208741188, -0.04716133698821068, 0.039024606347084045, 0.0011782207293435931, -0.02689330093562603, -0.007368765771389008, -0.03912440314888954, 0.09780613332986832, 0.015839723870158195, 0.041187793016433716, -0.05456352233886719, -0.04550371319055557, 0.029423363506793976, 0.05535762384533882, 0.00209666695445776, -0.04519043490290642, 0.026467328891158104, 0.044140905141830444, -0.036233700811862946, -0.009051607921719551, -0.05438893288373947, 0.02595558762550354, 0.02404973842203617, -0.02330905944108963, -0.03239505738019943, 0.018720358610153198, 0.017406851053237915, 0.009455656632781029, -0.04582343250513077, 0.03164609149098396, -0.03062131069600582, 0.05821433663368225, 0.0010503663215786219, -0.025453083217144012, 0.008956718258559704, 0.07529456168413162, -0.04853019118309021, -0.02194712497293949, 0.019298966974020004, 0.05472086742520332, -0.042095717042684555, -0.014187278226017952, 0.005487757734954357, -0.0005201961612328887, 0.026776539161801338, -0.0063432492315769196, 0.03980235382914543, -0.0039791567251086235, -0.050352465361356735, -0.07146432995796204, -0.03002564236521721, -0.049070343375205994, -0.02402239851653576, -0.05523930862545967, -0.051600124686956406, 0.1250675916671753, 0.03594036400318146, 0.06038110703229904, 0.061800286173820496, 0.027559615671634674, -0.007865332067012787, 0.05507292598485947, 0.06375569105148315, -0.059066291898489, -0.014459097757935524, -0.017779281362891197, -0.01214510016143322, -0.039968617260456085, -0.1204441636800766, 0.07014816254377365, 0.04217907413840294, -0.09549444913864136, 0.024341795593500137, 0.033802349120378494, -0.002888272050768137, 0.04857783392071724, -0.05355340614914894, -0.025179212912917137, 0.00909491628408432, 0.013963785022497177, -0.036617882549762726, -0.0046938140876591206, -0.045011989772319794, -0.05784979835152626, 0.0035898128990083933, 0.05226266384124756, -0.06239128112792969, 0.05132310837507248, 0.015057512558996677, -0.005293079651892185, -0.003218519501388073, 0.0031301877461373806, 0.10873354971408844, -0.032038431614637375, -0.03681383654475212, -0.01639704778790474, 0.050341445952653885, -0.023372264578938484, 0.04188387468457222, 0.03355414420366287, -0.027345934882760048, -0.022070014849305153, -0.05870731547474861, 0.01372943352907896, -0.017632782459259033, -0.037437714636325836, 0.001880932366475463, -0.006307258736342192, -0.04845781624317169, 0.09133949130773544, -0.03693687170743942, -0.06163928285241127, 0.04292094334959984, -0.06034064665436745, -0.028860384598374367, -0.004922064486891031, -0.04068155214190483, -0.039637159556150436, 0.052443381398916245, 0.03737303242087364, 0.03817305713891983, -0.06431413441896439, -0.05380582809448242, 0.004385300446301699, -0.0036939193960279226, -0.025067726150155067, -0.012516041286289692, -0.04360005632042885, -0.06110086292028427, -0.011491145938634872, -0.02036133036017418, -0.007999518886208534, -0.09574667364358902, 0.03970460221171379, 0.05191323906183243, -0.007604906801134348, -0.05696701630949974, 0.06301494687795639, 0.06652749329805374, -0.0013563816901296377, -0.021732470020651817, 0.04364604502916336, -0.03389566391706467, -0.03229214623570442, -0.020632626488804817, -0.06978175789117813, 0.0020244368351995945, 0.03992168977856636, -0.058749690651893616, -0.019751397892832756, 0.017135949805378914, -0.02679891511797905, -0.027512390166521072, 0.10535216331481934, 0.03320726379752159, -0.041515499353408813, 0.03275947645306587, 0.06303229928016663, 0.00017114548245444894, -0.04116924852132797, -0.019252730533480644, 0.019310275092720985, 0.05488413944840431, 0.05992848798632622, 0.014512215740978718, 0.0806235522031784, -0.041144970804452896, 0.07614736258983612, -0.0013698439579457045, 0.00726958317682147, 0.04166542738676071, 0.02766359969973564, -0.04623008146882057, -0.012800538912415504, -0.03239153325557709, -0.020430387929081917, -0.005396685097366571, 0.06545772403478622, -0.005918862298130989, 0.04426874592900276, -0.03392050042748451, -0.015160897746682167, 0.032118577510118484, -0.002152119530364871, 0.0014781528152525425, -0.006614346988499165, -0.02021924965083599, -0.0012012328952550888, -0.04154526814818382, -0.0440853014588356, 0.03998350724577904, 0.02607242576777935, 0.04952126741409302, 0.05037853121757507, -0.033192671835422516, 0.03881826624274254, -0.03403644263744354, 0.10839869827032089, 0.015758296474814415, 0.04970703646540642, -0.033095963299274445, 0.11339260637760162, 0.04200521111488342, 0.0338573232293129, 0.011483309790492058, -0.047831691801548004, -0.0004590210155583918, 0.029821962118148804, -0.053934868425130844, 0.012677355669438839, 0.007236835081130266, -0.002887339796870947, -0.03614203631877899, 0.01330496184527874, -0.054095812141895294, 0.03674182668328285, 0.03772328421473503, -0.016664331778883934, -0.05351487919688225, 0.024830007925629616, 0.053187452256679535, 0.044163960963487625, -0.0771842747926712, 0.016143174842000008, -0.043225936591625214, -0.002041942672803998, -0.059829942882061005, 0.022399267181754112, -0.05980413407087326, 0.03818276524543762, 0.052719730883836746, 0.0329589918255806, 0.05644578859210014, 0.11539359390735626, -0.001527416636236012, -0.06231718137860298, -0.0008842926472425461, -0.05095026269555092, -0.08113142848014832, 0.08036815375089645, 0.026592575013637543, -0.0583452433347702, -0.032946791499853134, -0.009631900116801262, 0.008108645677566528, -0.048928312957286835, -0.021606508642435074, 0.02775285765528679, -0.016417641192674637, 0.06940314918756485, 0.06605754047632217, -0.031074177473783493, -0.019668519496917725, 0.06488566100597382, 0.01411729771643877, -0.05020391196012497, 0.02361687272787094, -0.05308343842625618, -0.09346478432416916, -0.07309171557426453, -0.035867732018232346, 0.006595863029360771, -0.0596860870718956, 0.05580401048064232, 0.0009708701982162893, -0.013115718960762024, -0.007862082682549953, -0.07326244562864304, 0.0481116883456707, 0.006184665020555258, -0.08930865675210953, 0.038712240755558014, 0.06087975576519966, -0.03453124687075615, 0.02812688797712326, -0.017389383167028427, -0.048635803163051605, -0.02497173473238945, 0.02699897065758705, 0.026437334716320038, -0.0445384681224823, -0.016687238588929176, -0.037217143923044205, -0.05473845452070236, 0.006131244357675314, 0.04220683127641678, -0.035310402512550354, 0.07464078813791275, 0.01988697424530983, 0.0030042489524930716, 0.06797783821821213, 0.02446780353784561, -0.055621396750211716, -0.003487061010673642, -0.01352582685649395, -0.07368512451648712, 0.019553503021597862, -0.04426971822977066, 0.06745793670415878, -0.0008993081282824278, 0.008304371498525143, 0.07242831587791443, 0.006826781667768955, -0.02578282356262207, -0.05232913792133331, -0.06234946474432945, -0.06494412571191788, -0.029448779299855232, 0.03175967186689377, 0.02849198691546917, 0.035315971821546555, 0.010476269759237766, -0.02661866322159767, 0.020857611671090126, -0.010914011858403683, -0.0069746761582791805, -0.006416248623281717, 0.006733505520969629, -0.03718434274196625, 0.01605193316936493, 0.001773481722921133, 0.04950898140668869, -0.015434680506587029, 0.04654525965452194, -0.0028780847787857056, -0.018909422680735588, -0.011786983348429203, 0.060209065675735474, -0.03161481395363808, -0.05370422080159187, 0.0024614904541522264, -0.04361182823777199, 0.04891420155763626, -0.03955991193652153, -0.033638015389442444, -0.05785192549228668, -0.025448797270655632, 0.005581303499639034, 0.017690513283014297, 0.014388510026037693, -0.04499557241797447, -0.016036875545978546, 0.020112555474042892, -0.033634722232818604, -0.015536753460764885, 0.05835074931383133, -0.04780273884534836, 0.04372837767004967, -0.03557607904076576, -0.027129480615258217, 0.03854482248425484, -0.03429776430130005, 0.041232042014598846, 0.05802397057414055, 0.03525661677122116, -0.037401437759399414, -0.06071513518691063, 0.06178244948387146, 0.025302302092313766, 0.0033687585964798927, 0.058113984763622284, 0.012065044604241848, -0.04904656112194061, 0.003898588242009282, -0.0394953191280365, -0.03288545459508896, 0.025569526478648186, 0.0544646717607975, -0.04582136124372482, -0.014962484128773212, 0.04482589662075043, -0.042998306453228, 0.03478007763624191, -0.00766438152641058, -0.03508014976978302, -0.05899855121970177, 0.03150177747011185, -0.042867619544267654, -0.03060677833855152, -0.015918053686618805, 0.04553757980465889, 0.02705507166683674, 0.05929262563586235, -0.008430041372776031, 0.024547677487134933, -0.02462373487651348, -0.043111756443977356, -0.0015832815552130342, 0.023683223873376846, -0.02085735835134983, 0.05088441073894501, 0.022805677726864815, -0.015340253710746765, 0.03228111192584038, -0.006962619721889496, 0.05528624355792999, 0.041253119707107544, -0.023034900426864624, 0.03658747673034668, 0.05430452153086662, -0.009424579329788685, 0.014170849695801735, 0.015722285956144333, 0.03439496085047722, -0.04635229706764221, 0.0633280947804451, 0.04362483322620392, 0.03354192152619362, -0.03590953350067139, -0.050977520644664764, -0.058596737682819366, -0.016337178647518158, 0.06065250188112259, -0.004744344390928745, 0.053665995597839355, 0.036084841936826706, -0.04148055985569954, 0.03593771904706955, 0.04448147863149643, -0.038524728268384933, 0.042695797979831696, -0.054950110614299774, 0.05418311804533005, -0.057220250368118286, -0.05524478107690811, -0.003671662649139762, 0.03026255965232849, 0.01715773530304432, -0.04703494906425476, -0.02833489142358303, -0.06294745951890945, -0.021332308650016785, -0.009390702471137047, -0.019727816805243492, -0.04228456690907478, -0.017875440418720245, -0.06021331250667572, -0.05624639615416527, -0.06274715065956116, -0.05562753230333328, 0.02360636182129383, -0.013239995576441288, 0.007611107546836138, -0.018702929839491844, -0.024360889568924904, 0.043702155351638794, 0.01768423058092594, -0.05370289087295532, -0.04497135803103447, -0.0635659471154213, 0.022327670827507973, -0.0005741724744439125, -0.06386017054319382, 0.011879377998411655, 0.05604817345738411, 0.04083153232932091, 0.04781235381960869, -0.028979012742638588, 0.03156072646379471, -0.021860113367438316, -0.06162652000784874, 0.061753079295158386, -0.048959001898765564, -0.026198307052254677, -0.0493953637778759, 0.029952993616461754, -0.05038752034306526, -0.051397986710071564, 0.0033526187762618065, -0.025476889684796333, -0.009940877556800842, -0.05503290519118309, -0.051012035459280014, 0.03418411314487457, 0.00056005286751315, -0.01737786829471588, -0.00709428871050477, 0.008505560457706451, -0.006792128551751375, 0.020473789423704147, -0.027185270562767982, -0.02377069741487503, 0.027742702513933182, 0.016950028017163277, 0.044322431087493896, 0.04771972447633743, 0.005564517341554165, 0.04107101634144783, 0.03891557827591896, 0.007517341524362564, 0.042025499045848846, 0.00679400097578764, -0.045352984219789505, 0.06006062403321266, 0.01687989942729473, -0.01981082744896412, 0.027660507708787918, 0.05780329182744026, -0.05459597334265709, 0.060055408626794815, -0.024599753320217133, 0.02836957387626171, -0.016932304948568344, -0.062074046581983566, 0.004411360248923302, 0.05322522297501564, 0.024987302720546722, 0.009916105307638645, 0.050343167036771774, -0.019532106816768646, -0.01460539735853672, 0.025972696021199226, -0.06283335387706757, -0.010693931020796299, -0.027267588302493095, -0.018206285312771797, -0.025694772601127625, -0.05642770603299141, -0.04445267841219902, 0.018105776980519295, 0.017533166334033012, -0.019447939470410347, 0.027168797329068184, -0.02591984160244465, -0.034253500401973724, -0.045480240136384964, -0.0590779185295105, 0.03876202553510666, 0.02120540291070938, -0.02780264802277088, -0.013440759852528572, -0.05145592615008354, 0.012121094390749931, -0.054918378591537476, 0.03597365692257881, -0.019379638135433197, -0.047249533236026764, 0.02223859913647175, -0.03627879172563553, 0.02889207936823368, -0.04800255224108696, 0.03698544576764107, 0.01329226978123188, -0.06197146326303482, 0.024234717711806297, -0.05182453617453575, 0.0224955752491951, 0.015360369347035885, 0.05569744110107422, -0.03135637938976288, 0.07291065156459808, 0.04865285009145737, 0.006768622435629368, 0.007288869004696608, -0.027221987023949623, 0.024950915947556496, -0.032217837870121, 0.07014406472444534, -0.05517730116844177, 0.06916860491037369, -0.02963372692465782, -0.12579810619354248, -0.06722638010978699, 0.016273200511932373, 0.002751224674284458, -0.12764260172843933, -0.0368514209985733, 0.02247758023440838, 0.018712375313043594, -0.017317060381174088, -0.02660030871629715, 0.10280295461416245, -0.07465852051973343, -0.04792511463165283, 0.05279385298490524, -0.07831413298845291, 0.05827510729432106, 0.03607145696878433, -0.03493595868349075, 0.044866982847452164, -0.02503015287220478, 0.07612632215023041, -0.01487598568201065, -0.02791561931371689, 0.06991612166166306, -0.0032761585898697376, 0.039589252322912216, 0.038311708718538284, 0.00820015836507082, 0.00047449671546928585, 0.012126472778618336, -0.010633331723511219, 0.013035829178988934, -0.03625725582242012, 0.018629636615514755, -0.026026995852589607, -0.04946194961667061, -0.013200297020375729, 0.01739467866718769, -0.03388287127017975, 0.028602778911590576, -0.007944494485855103, 0.06183548644185066, 0.013967469334602356, 0.027793368324637413, 0.02681298926472664, -0.06106396019458771, -0.02156657725572586, -0.0729469507932663, 0.01116607990115881, 0.04269629344344139, -0.01765424758195877, 0.008078917860984802, 0.002021683380007744, 0.07332087308168411, 0.061665743589401245, -0.0010569219011813402, -0.05835084989666939, -0.0018576791044324636, 0.0542830154299736, -0.0707632452249527, 0.0070196352899074554, -0.051556363701820374, -0.07180946320295334, 0.0529814139008522, 0.013295123353600502, 0.030056258663535118, -0.0211257953196764, -0.012502745725214481, 0.09092406928539276, -0.028203589841723442, -0.0473259799182415, 0.044680193066596985, 0.0005645914352498949, -0.005019495263695717, 0.00412609800696373, 0.04857426881790161, 0.04873521253466606, 0.03349706158041954, 0.013858742080628872, -0.0467967614531517, -0.03939979150891304, -0.04353036358952522, -0.09089820832014084, 0.008361062034964561, 0.03943486511707306, 0.007813859730958939, -0.000393481197534129, 0.002953622257336974, -0.002791251055896282, -0.027505412697792053, 0.03902599960565567, 0.024223944172263145, 0.01092042587697506, 0.016230495646595955, -0.011855348013341427, -0.012713749893009663, 0.01721753552556038, 0.04143742471933365, 0.028354860842227936, 0.05706694349646568, 0.011176674626767635, 0.05650341510772705, 0.01474745199084282, 0.02594584971666336, 0.016436198726296425, -0.02781348116695881, -0.03794797509908676, 0.03042152337729931, -0.04700551927089691, 0.026973051950335503, 0.08007554709911346, 0.054954785853624344, -0.06231424957513809, 0.014083736576139927, -0.06221666932106018, -0.022309351712465286, -0.0005242546321824193, 0.06562935560941696, -0.018394870683550835, 0.059850532561540604, -0.014362231828272343, 0.007061523385345936, 0.015581962652504444, 0.03505321592092514, 0.10529905557632446, 0.02030904032289982, 0.016248038038611412, -0.0896148756146431, -0.07434424757957458, -0.06496020406484604, -0.0641983225941658, -0.049607567489147186, -0.013652936555445194, -0.06855140626430511, 0.032127514481544495, -0.025600066408514977, -0.04174051433801651, 0.04932112619280815, 0.017313577234745026, -0.03109150379896164, -0.019008737057447433, -0.017162591218948364, 0.06296519935131073, -0.03668203577399254, -0.011521966196596622, 0.04439778998494148, -0.01382436603307724, -0.07014794647693634, -0.055453065782785416, -0.002661897335201502, -0.0542796291410923, 0.06759384274482727, -0.05445931851863861, 0.04863060265779495, -0.012480865232646465, -0.013586851768195629, 0.11028792709112167, 0.006300755776464939, -0.047163225710392, 0.05178593099117279, -0.01200261153280735, -0.022595999762415886, 0.08065137267112732, 0.0863901823759079, 0.0042436011135578156, 0.07304874807596207, -0.0068635493516922, 0.03773670271039009, 0.02677205577492714, 0.026397354900836945, 0.08879207819700241, -0.058429915457963943, -0.023156991228461266, 0.006071943789720535, 0.06406030058860779, 0.08177142590284348, -0.05881712585687637, -0.09324141591787338, -0.02774038165807724, -0.01659923419356346, -0.02148076891899109, 0.020374072715640068, 0.004793939180672169, 0.07890484482049942, -0.072098508477211, 0.033202916383743286, 0.05237438157200813, -0.0003613866283558309, 0.07612740993499756, 0.013991749845445156, -0.045584678649902344, 0.010073347948491573, -0.06361857056617737, -0.045832641422748566, -0.07409928739070892, -0.06708388775587082, 0.0029225011821836233, -0.030249325558543205, -0.021398430690169334, -0.009264023043215275, 0.05407289043068886, 0.029034702107310295, -0.0793570727109909, -0.023896802216768265, -0.055113889276981354, -0.009530719369649887, -0.042659301310777664, 0.0244483333081007, -0.0037378936540335417, 0.08829913288354874, 0.03447052091360092, -0.07768493890762329, -0.04029132425785065, 0.027495069429278374, -0.04667525365948677, 0.06262215971946716, 0.010892141610383987, 0.011080613359808922, -0.0010891358833760023, -0.01817966066300869, 0.004439591895788908, -0.04255475848913193, 0.05564584210515022, 0.04216225445270538, -0.018766621127724648, -0.07208611071109772, 0.04506472498178482, -0.012631474994122982, 0.010921387001872063, -0.05627792701125145, -0.06085696816444397, -0.104041188955307, -0.07941467314958572, 0.044995054602622986, -0.03210588917136192, 0.07699713110923767, 0.03702655807137489, 0.002955780364573002, -0.06385090947151184, 0.06884486228227615, 0.02179752103984356, 0.058364495635032654, -0.01774587668478489, 0.03552349656820297, 0.05970579758286476, 0.04224787652492523, 0.032275814563035965, 0.051898110657930374, 0.03951486945152283, 0.045518696308135986, -0.03231487423181534, 0.07329131662845612, 0.00859753042459488, 0.039826273918151855, 0.07556459307670593, -0.04019147530198097, 0.014971439726650715, -0.004914867226034403, 0.035510241985321045, 0.08557198941707611, -0.015867168083786964, -0.05771251022815704, -0.0074657113291323185, -0.0794522613286972, -0.04679674655199051, -0.021232718601822853, -0.017984725534915924, 0.06243962422013283, 0.023720653727650642, -0.007743300870060921, -0.058210957795381546, 0.06425738334655762, -0.045947350561618805, -0.0005049813189543784, 0.015883881598711014, -0.037258073687553406, 0.000685391656588763, -0.021066561341285706, -0.03132662549614906, 0.06159854307770729, 0.020820647478103638, 0.02210429683327675, 0.028379300609230995, 0.019531212747097015, 0.03293260931968689, -0.011849330738186836, 0.07381153106689453, 0.03189074620604515, 0.010217743925750256, -0.006033771205693483, 0.045314956456422806, -0.02189123071730137, 0.006149956490844488, 0.06565500795841217, -0.07194104790687561, -0.05408327654004097, 0.023322539404034615, -0.0019353514071553946, 0.025288959965109825, 0.03765323758125305, -0.046117283403873444, -0.03777828440070152, 0.09176303446292877, 0.08755548298358917, -0.014622681774199009, -0.06408246606588364, -0.01068923156708479, -0.03845749795436859, -0.028576333075761795, 0.024881647899746895, -0.026855356991291046, -0.029125260189175606, 0.006012130994349718, -0.051223620772361755, -0.018972115591168404, 0.05525781586766243, 0.07436023652553558, 0.04625954478979111, -0.05626622959971428, 0.03389832749962807, 0.06237209960818291, 0.05489327013492584, -0.05867607519030571, -0.05927160754799843, -0.03709680959582329, 0.06197623535990715, 0.0038155890069901943, 0.006315089762210846, -0.0065873973071575165, -0.036635871976614, 0.05120455473661423, 0.027667243033647537, -0.006306229159235954, -0.0077329715713858604, -0.015174152329564095, 0.08199481666088104, 0.014953019097447395, 0.01114562340080738, 0.022104844450950623, -0.008505569770932198, -0.0323258601129055, 0.04570377618074417, 0.02454836666584015, 0.0067550851963460445, -0.02108660526573658, -0.038436152040958405, 0.014663985930383205, -0.05844038724899292, 0.05786712095141411, -0.012943603098392487, -0.035163067281246185, 0.08492476493120193, -0.02570907585322857, -0.03609601780772209, 0.06474576890468597, -0.039331525564193726, -0.07156755775213242, -0.09148633480072021, -0.043525852262973785, -0.0014758019242435694, 0.09862096607685089, 0.02134602516889572, 0.000985038815997541, -0.023338863626122475, 0.05340656638145447, -0.03877849131822586, -0.059967249631881714, 0.021662771701812744, -0.037170782685279846, -0.005444986280053854, 0.045098643749952316, 0.058980006724596024, 0.047736428678035736, -0.012161878868937492, -0.04106529429554939, 0.01897198148071766, 0.02919705957174301, 0.054602231830358505, -0.017293116077780724, 0.004083762876689434, 0.042988017201423645, -0.015754304826259613, 0.03957827389240265, 0.060657523572444916, -0.05434064939618111, 0.008802599273622036, -0.03856813907623291, -0.07323511689901352, -0.05516792833805084, -0.0648370236158371, -0.05093467980623245, -0.03316609188914299, 0.026201551780104637, -0.06134653836488724, -0.013808836229145527, 0.061046577990055084, -0.0470987968146801, 0.04447648301720619, 0.038623034954071045, 0.021950528025627136, -0.008925790898501873, 0.005126751493662596, 0.03604460135102272, 0.01997031457722187, 0.04159415140748024, 0.0005543201696127653, -0.0843084380030632, -0.08576010912656784, 0.008510098792612553, -0.06905338913202286, -0.009775188751518726, 0.045471493154764175, 0.05872417986392975, 0.002758451970294118, -0.032144807279109955, -0.04547811672091484, -0.007762974593788385, 0.03310687467455864, 0.08116333931684494, 0.015702322125434875, -0.0019022037740796804, 0.007746680174022913, 0.04123733192682266, -0.031213317066431046, 0.06377806514501572, -0.0378938764333725, -0.05804406479001045, -0.004780759569257498, 0.018693629652261734, 0.000431597582064569, 0.05290565639734268, 0.0029964724089950323, 0.03267020359635353, 0.009224802255630493, 0.0325341522693634, 0.013468693010509014, 0.010075508616864681, 0.00634633656591177, 0.05996842309832573, 0.02252589911222458, 0.04484209418296814, -0.04394622892141342, 0.0017830452416092157, -0.009636915288865566, 0.038579750806093216, -0.03675154596567154, -0.00348843215033412, 0.03792038559913635, 0.01703408546745777, 0.0351097397506237, 0.022740500047802925, -0.027856217697262764, 0.08438216149806976, -0.0276964008808136, -0.0005545932217501104, -0.10712415724992752, -0.025630809366703033, -0.01576705276966095, 0.029055602848529816, -0.05832292512059212, -0.02572137489914894, 0.03934413939714432, 0.01214812882244587, 0.07836960256099701, 0.03614742308855057, -0.010084325447678566, 0.06986294686794281, -0.001852845074608922, 0.023126013576984406, 0.0006865908508189023, 0.07925001531839371, 0.01918545365333557, -0.014264761470258236, 0.057269711047410965, -0.0473182313144207, -0.04536033049225807, -0.006244877353310585, -0.03692822530865669, 0.00016807667270768434, 0.00844490248709917, -0.047547854483127594, 0.045891452580690384, -0.0019879089668393135, 0.04289153963327408, -0.016799386590719223, 0.05201651528477669, -0.03368310630321503, -0.002621362218633294, -0.02540457248687744, 0.030055398121476173, 0.039908267557621, 0.10918811708688736, 0.05155277997255325, -0.05440784990787506, -0.07231290638446808, -0.0337957963347435, -0.04351679980754852, 0.033015087246894836, -0.030352318659424782, -0.06340204179286957, 0.033938780426979065, -0.016096504405140877, 0.06444673240184784, -0.08022047579288483, 0.053507622331380844, 0.046508561819791794, 0.024151410907506943, -0.0600336529314518, 0.029625102877616882, -0.06418527662754059, -0.05449329689145088, -0.06391740590333939, 0.039761874824762344, 0.007922365330159664, -0.028853697702288628, -0.007662437856197357, -0.01747489906847477, 0.04065297544002533, 0.06122793257236481, -0.009452308528125286, 0.012056434527039528, -0.014089100994169712, 0.048985555768013, -0.06034289672970772, -0.05120869725942612, 0.01555203553289175, 0.0594961978495121, -0.0013084985548630357, -0.05744262784719467, 0.008208551444113255, 0.03352419659495354, 0.056432463228702545, -0.01684497483074665, -0.007861962541937828, 0.09971337020397186, 0.03628315404057503, 0.07757344096899033, -0.03194446116685867, -0.039212606847286224, 0.02728317119181156, 0.024595560505986214, 0.05354800075292587, 0.027464749291539192, -0.009451125748455524, -0.023264339193701744, 0.06870396435260773, 0.07932615280151367, 0.016018984839320183, -0.018226005136966705, 0.06807578355073929, 0.07936542481184006, -0.020323028787970543, 0.04939007759094238, 0.019313711673021317, -0.07562295347452164, -0.051996808499097824, -0.022341813892126083, -0.05600561201572418, -0.001736265723593533, 0.003740643383935094, 0.05255180224776268, -0.01854638010263443, 0.027710866183042526, -0.05628113076090813, 0.030755698680877686, -0.07220496982336044, 0.016292108222842216, 0.023370709270238876, 0.06137894093990326, 0.0078099812380969524, 0.014688307419419289, -0.09058745205402374, -0.04396394267678261, -0.0012085236376151443, 0.01281017530709505, -0.01710766926407814, 0.04765976220369339, 0.03472771495580673, 0.041394636034965515, 0.0298013798892498, 0.04419924318790436, 0.010189937427639961, -0.0636887326836586, -0.0003617487382143736, -0.06486821919679642, -0.017773743718862534, 0.020059486851096153, -0.029952824115753174, -0.01757965050637722, -0.013530096039175987, 0.01344349980354309, -0.05961810424923897, 0.07045377790927887, -0.04366219416260719, 0.018382979556918144, -0.05281097814440727, -0.009564339183270931, -0.011420918628573418, 0.07577735930681229, 0.021134085953235626, 0.04510563611984253, -0.0356118306517601, 0.006419139914214611, -0.09649847447872162, -0.0842655822634697, -0.0383603535592556, 0.019492443650960922, -0.009858657605946064, -0.04338335618376732, -0.045521847903728485, 0.023259203881025314, 0.06695657223463058, -0.008933893404901028, -0.011531923897564411, 0.040891628712415695, 0.007350832689553499, -0.03653883561491966, -0.03307541832327843, -0.009543295949697495, 0.004132754635065794, -0.03650536388158798, 0.0035285905469208956, 0.07622859627008438, 0.006844731979072094, -0.03464297205209732, -0.039432093501091, -0.002984893275424838, 0.011492554098367691, 0.055472783744335175, -0.014321505092084408, 0.036323413252830505, -0.05599671229720116, 0.06188961863517761, -0.006215598899871111, -0.05903172492980957, -0.031816232949495316, 0.05605797842144966, 0.011865729466080666, -0.03907271474599838, 0.060841839760541916, -0.014897890388965607, -0.05915607139468193, 0.035873882472515106, 0.017767643555998802, 0.020381823182106018, -0.02348882146179676, 0.044215962290763855, -0.003551405156031251, 0.024525512009859085, -0.019447453320026398, -0.01348580326884985, 0.018513653427362442, -0.022166309878230095, -0.027585964649915695, -0.06822118908166885, -0.014781879261136055, -0.05011749267578125, 0.04647150635719299, -0.041093986481428146, -0.028554443269968033, -0.07390031963586807, 0.0073769292794167995, 0.10503242164850235, 0.10077733546495438, 0.046989716589450836, 0.047087445855140686, 0.02863457426428795, 0.0072201830334961414, -0.07649445533752441, -0.04758727550506592, -0.013853897340595722, -0.041769374161958694, -0.029602019116282463, -0.020922882482409477, -0.07789493352174759, 0.03708786144852638, -0.0008952461066655815, -0.02782723493874073, 0.005015749949961901, -0.0017555169761180878, 0.0634012296795845, -0.054702576249837875, 0.0008304736693389714, -0.07001163065433502, -0.027395715937018394, -0.020315183326601982, -0.031317565590143204, -0.04485940933227539, 0.0382893905043602, 0.03699658811092377, -0.007980791851878166, -0.0015159653266891837, 0.0288525503128767, -0.006111619062721729, -0.019804812967777252, -0.06836339831352234, 0.034152787178754807, -0.043698232620954514, -0.07048110663890839, -0.0005403631366789341, -0.10845347493886948, -0.014748445712029934, -0.059652406722307205, -0.012705093249678612, 0.04865286126732826, -0.04882354289293289, 0.07212188839912415, 0.07368405908346176, 0.03454657644033432, -0.06722287088632584, -0.03915569931268692, 0.04758612439036369, 0.004775196313858032, 0.052059028297662735, 0.0489533469080925, -0.0384458564221859, -0.012178764678537846, 0.09102282673120499, 0.00793238915503025, 0.015747297555208206, 0.06691800057888031, 0.04767661914229393, -0.0032162826973944902, 0.00437765521928668, -0.01784454844892025, -0.0804687887430191, -0.05273328348994255, 0.029813339933753014, -0.017311790958046913, -0.06438476592302322, -0.07031840085983276, -0.024946270510554314, 0.022300180047750473, 0.0070673804730176926, -0.015230905264616013, 0.02707761339843273, 0.013270964846014977, -0.03334009647369385, -0.06429797410964966, 0.06038796156644821, 0.07030310481786728, -0.06836269050836563, -0.03648722916841507, -0.02896895259618759, 0.04272354394197464, -0.08869541436433792, -0.030282223597168922, 0.10923946648836136, 0.007553501054644585, 0.026536457240581512, 0.007188386749476194, 0.0202428437769413, 0.0592045933008194, 0.017812605947256088, -0.05181369185447693, 0.008359053172171116, 0.052594348788261414, -0.030519619584083557, 0.018759440630674362, -0.021720703691244125, -0.02820829302072525, 0.012429166585206985, 0.005951669532805681, 0.021888496354222298, 0.043299350887537, -0.046747755259275436, -0.07914901524782181, -0.001699906075373292, -0.0652349591255188, 0.030505545437335968, -0.008693847805261612, 0.042788635939359665, -0.02552279457449913, -0.04985174909234047, -0.024095159024000168, -0.016924075782299042, -0.0129500487819314, -0.02298075146973133, -0.014171887189149857, 0.07555536180734634, -0.02295978181064129, -0.02788538672029972, 0.002976021496579051, -0.04900369420647621, 0.09606276452541351, -0.09675049781799316, 0.0474112443625927, -0.02757089026272297, 0.056646060198545456, -0.017441270872950554, 0.008529738523066044, 0.01818663440644741, -0.07343889027833939, 0.011458550579845905, 0.046682145446538925, 0.052290160208940506, 0.029544219374656677, 0.07345035672187805, 0.008246548473834991, -0.032768163830041885, -0.027166759595274925, -0.0009269037982448936, -0.023541830480098724, -0.024958105757832527, 0.072909876704216, -0.03746235370635986, 0.015961382538080215, -0.07202854752540588, 0.019106000661849976, 0.05794350430369377, -0.021984010934829712, 0.014521891251206398, 0.023353558033704758, -0.03681598976254463, -0.036832671612501144, 0.007203725632280111, 0.036763932555913925, 0.012911660596728325, -0.028584333136677742, -0.07163882255554199, -0.04368649795651436, -0.05011415481567383, -0.04932225123047829, -0.032126568257808685, 0.02837420254945755, -0.03387056291103363, -0.009556056931614876, 0.051372379064559937, 0.07982687652111053, 0.10368211567401886, -0.042048800736665726, -0.04209164157509804, 0.07119586318731308, -0.07044444233179092, 0.0609867237508297, 0.027810951694846153, 0.007636278867721558, 0.0248702522367239, 0.019728992134332657, -0.023110486567020416, 0.008390910923480988, -0.05650285258889198, -0.02569466084241867, 0.07171448320150375, 0.025677232071757317, 0.1051567867398262, 0.0634647086262703, 0.04681101813912392, -0.02910229004919529, 0.07612551748752594, 0.049192242324352264, 0.009151414036750793, 0.037102602422237396, 0.06301804631948471, -0.0002224135969299823, 0.011593188159167767, 0.018245721235871315, -0.046413615345954895, -0.036110494285821915, -0.04297521337866783, 0.007339386269450188, -0.05702969431877136, 0.007843680679798126, 0.04850073531270027, -0.03416671231389046, 0.010920993052423, -0.020869767293334007, -0.00039613162516616285, 0.03582886606454849, -0.03993784636259079, 0.017463823780417442, -0.033928342163562775, 0.03106353059411049, -0.01775195822119713, 0.07441583275794983, -0.0028503327630460262, -0.008081292733550072, 0.04069113731384277, -0.07634418457746506, -0.026737064123153687, -0.04876858368515968, -0.06684637814760208, -0.031212031841278076, -0.032378554344177246, 0.02756255306303501, 0.017060624435544014, 0.027382194995880127, 0.03318667411804199, -0.06625813245773315, 0.0031879490707069635, 0.07750408351421356, 0.06110374256968498, 0.013620351441204548, -0.02113281935453415, -0.013790584169328213, 0.08485090732574463, 0.03122047148644924, -0.04924539476633072, 0.013380180113017559, -0.07164344191551208, 0.08898869901895523, -0.00706526730209589, -0.0046344115398824215, 0.03471604362130165, 0.030579503625631332, -0.005629056133329868, 0.048049334436655045, 0.05505432188510895, -0.062385253608226776, 0.03369941562414169, 0.031887441873550415, 0.005133779253810644, -0.036851730197668076, 0.010106608271598816, 0.04136146605014801, -0.02641610987484455, 0.022716470062732697, -0.03961537033319473, 0.0409495085477829, -0.04206389933824539, 0.02711358666419983, 0.017853204160928726, 0.03959895297884941, -0.03642076626420021, -0.008798344992101192, 0.017496392130851746, -0.06265097856521606, 0.00215113814920187, -0.010406496934592724, -0.019981449469923973, 0.05295781418681145, -0.04997305944561958, 0.016114505007863045, -0.0022208073642104864, -0.08733756095170975, 0.006617753766477108, -0.017123691737651825, 0.02524935081601143, 0.053821153938770294, -0.015027099289000034, 0.04661161080002785, 0.07261037826538086, -0.019273605197668076, 0.01670931838452816, -0.071570985019207, -0.01787024922668934, -0.05306007340550423, -0.02305760234594345, 0.038857437670230865, 0.0012817890383303165, 0.004421271849423647, 0.0640009343624115, 0.05675901845097542, 0.05728507041931152, 0.007170879282057285, 0.04790797829627991, 0.023161234334111214, -0.01625637151300907, 0.09946821630001068, 0.059237368404865265, 0.08306799083948135, -0.04183640331029892, -0.0014752356801182032, 0.05215767025947571, -0.045653436332941055, -0.11466310918331146, -0.019778387621045113, -0.034767523407936096, 0.026222914457321167, 0.08243721723556519, -0.059365611523389816, -0.06229802593588829, 0.03864506632089615, 0.010949554853141308, -0.0028053021524101496, -0.046671800315380096, -0.1268700212240219, -0.041534654796123505, -0.024583496153354645, -0.00457853265106678, -0.02404114417731762, -0.03551710397005081, 0.10487062484025955, 0.05231022834777832, 0.04229677468538284, 0.07785248756408691, 0.031505461782217026, 0.04071197286248207, 0.020206894725561142, -0.05077914148569107, 0.02204154245555401, 0.0573914498090744, -0.041392505168914795, 0.06823021918535233, 0.0006356402882374823, -0.022765696048736572, -0.04776507243514061, -0.004237052518874407, 0.06052315980195999, 0.029525520280003548, 0.002092341659590602, -0.0483490526676178, 0.005165276117622852, 0.011766704730689526, 0.05043238401412964, 0.025595350190997124, 0.08094149827957153, -0.05332889035344124, -0.06341470777988434, -0.03159857168793678, -0.023844819515943527, -0.07510892301797867, -0.0784926488995552, -0.056884411722421646, 0.009407343342900276, -0.008843209594488144, -0.015432288870215416, 0.10399356484413147, -0.005350745748728514, 0.023735931143164635, 0.1012333407998085, 0.04094595089554787, 0.0321989580988884, -0.08839558064937592, -0.0867052674293518, -0.05651261284947395, 0.023171555250883102, -0.07328338921070099, 0.03188053518533707, 0.0354914516210556, -0.04044543579220772, 0.010018871165812016, -0.011783577501773834, 0.08190041035413742, 0.014577980153262615, -0.004237790126353502, 0.09438229352235794, 0.024781452491879463, -0.05063024163246155, 0.010898606851696968, 0.011138232424855232, 0.09328385442495346, 0.004060347564518452, 0.03965981304645538, -0.006449772976338863, -0.013295534998178482, 0.0046530538238584995, 0.018845748156309128, -0.008113357238471508, -0.015957141295075417, 0.05417587608098984, 0.05112885311245918, -0.028932619839906693, -0.006965574808418751, -0.029774073511362076, -0.0069083478301763535, -0.10794130712747574, -0.003357622306793928, -0.06354718655347824, -0.06714705377817154, 0.003407510928809643, 0.007897975854575634, 0.0317428857088089, 0.0023471585009247065, 0.04419359192252159, 0.002105241408571601, -0.01220132876187563, 0.0670037493109703, 0.010868738405406475, 0.0046118334867060184, 0.039348896592855453, 0.0114973783493042, 0.030607569962739944, 0.003369838697835803, -0.010318885557353497, 0.059883810579776764, -0.04414379224181175, -0.007310135755687952, -0.04584570974111557, -0.02420331910252571, 0.012392309494316578, 0.05757793411612511, -0.01085380744189024, 0.04676556959748268, 0.07743091881275177, 0.05399320274591446, 0.08533643186092377, 0.06234464421868324, 0.06502164900302887, 0.09616080671548843, 0.02202061377465725, 0.016617806628346443, -0.05639882758259773, -0.08214467018842697, -0.03610852360725403, -0.02194628305733204, -0.05889982730150223, 0.04820375144481659, -0.021398605778813362, 0.047412652522325516, -0.04958174750208855, 0.024213792756199837, 0.056507501751184464, -0.005934764165431261, 0.023505225777626038, 0.03551032021641731, 0.02370860055088997, 0.01013683807104826, 0.022320272400975227, -0.0043512932024896145, 0.008989667519927025, -0.00696421368047595, -0.06633175909519196, 0.009631157852709293, 0.022341514006257057, -0.018163034692406654, 0.07413490116596222, 0.019377266988158226, -0.028300326317548752, -0.021768033504486084, -0.0006219900096766651, -0.05575030297040939, 0.03482462465763092, -0.0035598210524767637, -0.014416216872632504, -0.030140433460474014, 0.07169149816036224, -0.011219407431781292, 0.011757736094295979, 0.07642458379268646, 0.05746227875351906, 0.022971922531723976, -0.00019465120567474514, -0.05385732650756836, -0.024324070662260056, -0.012884151190519333, 0.06591552495956421, 0.07282646745443344, -0.03430316224694252, 0.012739244848489761, -0.014434698969125748, -0.016724707558751106, -0.021565189585089684, 0.012422275729477406, -0.015397744253277779, 0.033151160925626755, -0.007563077379018068, 0.01708061434328556, 0.010350028984248638, 0.06727860867977142, 0.011761186644434929, 0.01201306376606226, 0.07805706560611725, -0.01237218827009201, -0.01133080292493105, -0.013870323076844215, -0.054310113191604614, 0.04702405631542206, -0.011673002503812313, -0.06368990242481232, -0.003770960960537195, 0.04625261202454567, 0.05423480644822121, 0.022916780784726143, -0.04781065508723259, -0.010935717262327671, 0.04541442543268204, -0.03245361149311066, -0.0758608877658844, -0.024252235889434814, -0.10718495398759842, -0.012987570837140083, -0.028939394280314445, -0.018112558871507645, -0.018996411934494972, 0.08502870053052902, 0.013189409859478474, 0.06290119141340256, 0.06508702784776688, 0.0919482633471489, 0.023754453286528587, 0.0046971640549600124, 0.026502305641770363, 0.10464641451835632, 0.04843960329890251, -0.026845600455999374, 0.03527045622467995, 0.05201391130685806, -0.026045000180602074, 0.023370927199721336, -0.027442000806331635, -0.02403619885444641, -0.08820811659097672, -0.07371789216995239, -0.013977523893117905, -0.008832965977489948, 0.04064571484923363, -0.055641476064920425, 0.010627507232129574, -0.03152638301253319, 0.013099107891321182, -0.003623205702751875, 0.02516772784292698, 0.03141845390200615, -0.02717682719230652, -0.0803234726190567, 0.0671038031578064, 0.004964707884937525, 0.021668344736099243, -0.012092909775674343, -0.0259536262601614, 0.004956283140927553, 0.019532889127731323, -0.032383885234594345, 0.08213736861944199, 0.015103345736861229, -0.035162076354026794, -0.030319256708025932, 0.01788717694580555, -0.023518430069088936, 0.03982780501246452, -0.008794605731964111, -0.05240698158740997, -0.05949017405509949, -0.07287269085645676, 0.047290004789829254, -0.04294898360967636, -0.026199067011475563, -0.010458073578774929, -0.03480047360062599, -0.03439055755734444, -0.022429272532463074, -0.016564372926950455, -0.001735724974423647, -0.005500568076968193, -0.05632076784968376, 0.034088246524333954, -0.059063490480184555, -0.06334423273801804, 0.04394800215959549, -0.05307392403483391, -0.05255622789263725, -0.06407388299703598, -0.03323114290833473, 0.04598346725106239, 0.0019452088745310903, -0.00772694731131196, 0.02161407843232155, 0.023115629330277443, -0.05020841211080551, 0.0028365454636514187, -0.046856243163347244, 0.0652526393532753, -0.02681916207075119, -0.038823358714580536, -0.007224316243082285, -0.018593501299619675, 0.006939820479601622, 0.07253134250640869, -0.020585693418979645, 0.04667632654309273, 0.07157246023416519, 0.0011214157566428185, 0.05593690648674965, -0.015580989420413971, 0.035636745393276215, -0.04141080752015114, 0.04229593276977539, -0.022379063069820404, 0.05805429071187973, -0.05760396271944046, 0.0035699023865163326, 0.009046471677720547, -0.02007956989109516, -0.00896531157195568, -0.006734582129865885, 0.06881943345069885, -0.01695859245955944, -0.036599285900592804, 0.0024066935293376446, -0.10728181153535843, 0.02607044018805027, -0.05954619497060776, -0.0026620840653777122, -0.05813216790556908, 0.053833309561014175, -0.06048710271716118, -0.07484716176986694, 0.01994997449219227, -0.04225201532244682, -0.004500680603086948, -0.0038933323230594397, 0.020577633753418922, 0.03911247104406357, 0.04413114860653877, -0.05835450068116188, -0.007976225577294827, -0.05122947692871094, -0.06514199823141098, 0.0270131416618824, 0.021609686315059662, -0.0304538793861866, 0.05508626624941826, 0.017023758962750435, -0.018690021708607674, -0.0640324279665947, 0.021585524082183838, 0.08106540143489838, -0.014528940431773663, 0.07320593297481537, -0.01761695370078087, 0.05124844238162041, 0.007383355405181646, -0.011545014567673206, -0.07394841313362122, -0.026940878480672836, 0.020459365099668503, 0.027824947610497475, -0.05928598344326019, -0.026633337140083313, -0.09252066165208817, -0.028649816289544106, 0.0013142544776201248, 0.08567862957715988, 0.039456695318222046, 0.07840579748153687, -0.05238071829080582, 0.04246274009346962, -0.05284914746880531, -0.06198884919285774, -0.06698842346668243, 0.010403942316770554, -0.007903766818344593, -0.02096848376095295, -0.005722595378756523, 0.03665531054139137, -0.011835301294922829, 0.0074511743150651455, -0.040167152881622314, -0.03605050966143608, 0.01973457634449005, 0.05789583921432495, 0.08578362315893173, -0.01766447350382805, -0.05561717599630356, -0.036190520972013474, 0.008768979460000992, -0.03822869434952736, -0.06255558133125305, -0.03387022390961647, -0.041291914880275726, 0.05207458883523941, -0.054601144045591354, 0.03966899216175079, 0.05908278748393059, 0.08953963965177536, 0.0832262933254242, 0.0481322817504406, 0.062201954424381256, 0.1027127280831337, -0.05359291285276413, 0.04393582418560982, -0.014576692134141922, 0.03919466957449913, -0.03406979888677597, 0.02137918211519718, -0.06796881556510925, 0.05442354083061218, -0.0012304221745580435, -0.04941466078162193, 0.0570538304746151, 0.05732060596346855, 0.03509898483753204, -0.01117858849465847, 0.04649515822529793, 0.05865705385804176, -0.000826854957267642, -0.04903806373476982, -0.038955461233854294, 0.007118857000023127, -0.008509287610650063, 0.019638055935502052, -0.0018130422104150057, -0.07082929462194443, 0.03145667910575867, 0.01601720228791237, -0.07535379379987717, 0.047261204570531845, 0.024688720703125, -0.0042467075400054455, -0.060555554926395416, -0.0224249679595232, -0.054194435477256775, -0.05531895533204079, -0.014571812003850937, 0.047349270433187485, 0.005417542532086372, -0.027847139164805412, -0.04057885706424713, 0.02082889713346958, -0.008055114187300205, -0.028438296169042587, -0.06198587268590927, -0.07217425107955933, -0.037914834916591644, 0.048935819417238235, 0.06310157477855682, 0.04832512512803078, 0.0752045288681984, -0.06736644357442856, -0.03228742256760597, 0.06894823908805847, 0.01434091292321682, 0.011371775530278683, 0.01882409118115902, 