0.22128212451934814, -0.007020506076514721, 0.047836389392614365, -0.16188614070415497, 0.16050568222999573, 0.004965486470609903, -0.007496815640479326, 0.12905535101890564, -0.22706657648086548, 0.11466182768344879, -0.1452992707490921, -0.15076661109924316, -0.09458267688751221, -0.02315940335392952, -0.11912336945533752, -0.00449232617393136, -0.06333420425653458, -0.06118055433034897, 0.19306227564811707, -0.15107466280460358, -0.0973057746887207, -0.10701058059930801, 0.24719379842281342, 0.11523815244436264, 0.23044227063655853, -0.10321208089590073, -0.1248721107840538, 0.09531353414058685, -0.1912689208984375, 0.0015750023303553462, 0.1101730614900589, 0.062320396304130554, 0.011847816407680511, -0.07448388636112213, -0.054788488894701004, -0.02383509650826454, -0.07098237425088882, 0.016201380640268326, 0.2341504842042923, 0.12403659522533417, -0.022493334487080574, -0.11717518419027328, 0.025465063750743866, -0.12787187099456787, -0.18240606784820557, 0.25622496008872986, -0.05500965192914009, -0.05389201268553734, 0.15004141628742218, 0.06277891248464584, -0.027630312368273735, -0.14509904384613037, -0.09380022436380386, -0.17174950242042542, 0.1781255453824997, 0.1513253152370453, 0.3053261637687683, -0.08479342609643936, 0.11330138891935349, -0.04671412706375122, -0.1368362456560135, -0.21570365130901337, -0.018433406949043274, -0.14943327009677887, 0.023325996473431587, -0.17889833450317383, -0.038328785449266434, 0.11097199469804764, -0.02327551320195198, 0.23023222386837006, 0.03817740082740784, 0.15320710837841034, 0.02215695194900036, 0.13253048062324524, -0.1706971526145935, -0.019131548702716827, 0.18346014618873596, -0.06020384654402733, -0.19278989732265472, -0.1309489756822586, -0.3281133770942688, -0.1298336684703827, 0.25929516553878784, -0.05359847843647003, 0.024870051071047783, -0.17011834681034088, -0.019997650757431984, 0.18503756821155548, 0.22386987507343292, -0.026381131261587143, 0.2443544864654541, 0.17963463068008423, -0.09775960445404053, -0.0024417934473603964, 0.11917396634817123, -0.07195046544075012, 0.13961118459701538, -0.17649208009243011, 0.0795380175113678, -0.11749392747879028, 0.14139413833618164, -0.0211977306753397, 0.15047477185726166, -0.3341800272464752, -0.2395574003458023, 0.024227548390626907, -0.1762509047985077, 0.0907285287976265, 0.12550021708011627, 0.031690631061792374, 0.01727905683219433, -0.12393677979707718, 0.1380760818719864, 0.13603389263153076, 0.17760413885116577, -0.0013269513146951795, 0.050603870302438736, -0.15190021693706512, 0.004137143492698669, -0.18164345622062683, 0.13804730772972107, 0.07684820145368576, 0.026417985558509827, 0.1334231048822403, 0.14218269288539886, -0.0628415048122406, 0.05219332128763199, -0.24626901745796204, 0.24352869391441345, 0.11664782464504242, -0.004901978652924299, -0.18477651476860046, 0.032385293394327164, -0.0822407677769661, -0.13041731715202332, -0.23494449257850647, -0.02137271873652935, 0.1373528093099594, 0.02369021810591221, 0.1260114461183548, -0.040405355393886566, 0.13392286002635956, 0.11899038404226303, -0.07454979419708252, 0.07049248367547989, -0.10307683795690536, 0.3288087546825409, 0.17602863907814026, -0.04545271769165993, -0.3448023498058319, -0.11143626272678375, -0.14179091155529022, 0.05031198263168335, -0.0006986180669628084, -0.051956698298454285, -0.2646256685256958, 0.12035612761974335, -0.0958285704255104, -0.11369580775499344, 0.04586343467235565, -0.132710799574852, -0.05601091310381889, -0.099830262362957, -0.1451815813779831, -0.07006916403770447, 0.15306562185287476, 0.12645940482616425, 0.11524399369955063, -0.0778413712978363, -0.011016787961125374, 0.21142858266830444, -0.06641415506601334, 0.06496705859899521, -0.19322967529296875, -0.033035799860954285, 0.0648290291428566, -0.06439290195703506, 0.2341555953025818, -0.0570673793554306, -0.06385061144828796, -0.137723907828331, -0.14344581961631775, -0.21911905705928802, -0.10063457489013672, -0.13299743831157684, 0.22212108969688416, -0.160428985953331, 0.1091914251446724, -0.03733541816473007, 0.016535775735974312, 0.25085070729255676, 0.03181231766939163, -0.12373588979244232, -0.09594426304101944, 0.0932249203324318, 0.03531333804130554, -0.023250214755535126, 0.16098852455615997, -0.16368165612220764, 0.005209148395806551, -0.15691418945789337, 0.09899488836526871, 0.06466853618621826, 0.13023492693901062, -0.160360187292099, -0.08788861334323883, -0.09712768346071243, -0.11749493330717087, -0.0033261901699006557, 0.10497396439313889, -0.08322250097990036, 0.021836930885910988, 0.09720443934202194, -0.056070804595947266, 0.07160371541976929, -0.07367599010467529, -0.017553269863128662, -0.0491393618285656, 0.1320018321275711, 0.06826918572187424, -0.01806510239839554, 5.270243491395377e-06, -0.1288311630487442, 0.10417516529560089, -0.1291486620903015, -0.17751863598823547, 0.05298337712883949, 0.011145041324198246, -0.0029883685056120157, -0.18108338117599487, 0.09987153112888336, -0.09113550931215286, 0.11227462440729141, -0.12740448117256165, -0.1439816802740097, -0.14693745970726013, 0.10857617110013962, 0.1411685347557068, -0.11616797745227814, 0.13383848965168, 0.047673579305410385, 0.08557390421628952, -0.18672683835029602, -0.027146805077791214, 0.21391288936138153, 0.013682102784514427, -0.05939127132296562, -0.07265986502170563, -0.26174888014793396, 0.0705999881029129, -0.0005507305613718927, 0.16516466438770294, 0.1326959878206253, 0.0587293803691864, -0.13484345376491547, -0.02314501628279686, 0.045799702405929565, 0.23702983558177948, -0.17802436649799347, -0.008508953265845776, -0.0969490110874176, 0.037727952003479004, 0.037001051008701324, 0.05439678579568863, 0.16364362835884094, -0.2490999549627304, -0.23208115994930267, -0.35399675369262695, -0.2921329438686371, 0.21763138473033905, 0.15854167938232422, -0.1112842708826065, 0.0033204418141394854, 0.06287011504173279, -0.04591375216841698, 0.041420575231313705, -0.10482560098171234, 0.08688224107027054, -0.07921404391527176, 0.1116086021065712, 0.08355728536844254, -0.1409246027469635, -0.011895136907696724, 0.06338763982057571, -0.22948691248893738, -0.3267256021499634, 0.014077592641115189, -0.1828009933233261, 0.06614326685667038, -0.1230245977640152, -0.12173712998628616, 0.15925255417823792, 0.14120784401893616, -0.21528124809265137, 0.12865957617759705, 0.22754395008087158, -0.22197262942790985, -0.15855950117111206, -0.25228041410446167, -0.11776930093765259, 0.048666633665561676, -0.008301100693643093, -0.1308547705411911, 0.052032895386219025, 0.06217031553387642, 0.10576628893613815, 0.2905704975128174, 0.17250481247901917, -0.12528251111507416, 0.21706277132034302, -0.0817088708281517, -0.1244555413722992, 0.18746818602085114, 0.18868225812911987, -0.13793450593948364, 0.12332648038864136, 0.22988218069076538, 0.20697522163391113, 0.20772607624530792, -0.029681360349059105, 0.04501194506883621, 0.07242096215486526, -0.1428227573633194, 0.11592039465904236, -0.0049773044884204865, -0.014440948143601418, -0.1312616765499115, -0.16462969779968262, 0.2593269944190979, 0.06336282938718796, -0.2806720435619354, -0.14342166483402252, -0.13590824604034424, 0.21738256514072418, -0.14694613218307495, 0.12458755075931549, -0.05899611860513687, -0.1577066332101822, -0.08757324516773224, 0.13164345920085907, -0.0008185668848454952, -0.11497397720813751, -0.06368985772132874, 0.005436166189610958, 0.15193410217761993, 0.02769598737359047, -0.12104345113039017, -0.3267945647239685, 0.26820701360702515, 0.0393216572701931, 0.05594537779688835, 0.1174047663807869, 0.08704041689634323, 0.16183139383792877, 0.1256863921880722, 0.037625234574079514, -0.16096080839633942, 0.16715283691883087, -0.1913166493177414, 0.06027521193027496, 0.29560762643814087, 0.09250878542661667, 0.18862466514110565, 0.15179648995399475, -0.048250433057546616, 0.05810095742344856, -0.04898887872695923, 0.15906690061092377, -0.14981333911418915, -0.050117798149585724, 0.207948237657547, 0.07720909267663956, 0.0957200899720192, 0.014005483128130436, -0.12841150164604187, 0.07109300047159195, 0.031156178563833237, -0.11826746165752411, -0.13386878371238708, -0.14913016557693481, 0.10305967181921005, 0.18526507914066315, -0.29207244515419006, 0.27498382329940796, 0.19423364102840424, 0.1155848428606987, -0.02252233773469925, -0.07475384324789047, 0.20191513001918793, -0.03583630546927452, -0.10397890210151672, 0.02563575841486454, 0.107935830950737, -0.41897737979888916, -0.2167820930480957, -0.10627459734678268, -0.06244155019521713, -0.28200000524520874, -0.2773074805736542, 0.14593087136745453