-0.00404342683032155, -0.07155638188123703, -0.0433509461581707, 0.038779571652412415, -0.11480840295553207, -0.06834755837917328, -0.03332636505365372, 0.018632572144269943, 0.08431774377822876, -0.03825537487864494, -0.03704801946878433, 0.02343825064599514, 0.09125196933746338, -0.01917407102882862, 0.00819560419768095, 0.009465009905397892, -0.023173686116933823, -0.022651122882962227, -0.013924292288720608, 0.05663566663861275, 0.07546758651733398, 0.0032729548402130604, 0.04115903750061989, -0.03800860792398453, 0.07273999601602554, 0.058239489793777466, 0.03141237795352936, -0.016854824498295784, -0.012360787950456142, -0.013099802657961845, 0.00254046474583447, 0.008512805216014385, 0.05683296546339989, 0.0445014126598835, 0.12189619988203049, 0.0635252594947815, -0.06941854953765869, 0.033957358449697495, 0.015910526737570763, 0.03209060803055763, -0.03997419402003288, -0.0187717005610466, 0.003034398425370455, 0.008769737556576729, 0.1120120957493782, 0.02172783762216568, 0.1205534115433693, 0.026894373819231987, -0.07117320597171783, -0.015273402445018291, 0.0005137300468049943, -0.07730545103549957, 0.03557876497507095, 0.010554357431828976, 0.04048303887248039, -0.07068406790494919, -0.0047008562833070755, -0.01706596091389656, 0.02131112664937973, -0.03555428609251976, -0.06419328600168228, -0.06968803703784943, -0.027471058070659637, -0.04617583379149437, 0.04026928171515465, 0.10950641334056854, 0.07364225387573242, 0.03324224054813385, -0.011675767600536346, 0.09803321212530136, 0.06360514461994171, 0.04811292886734009, 0.023672865703701973, 0.03948784992098808, -0.013218116946518421, -0.02554408833384514, 0.00450515141710639, -0.06013147905468941, 0.02154288813471794, -0.044723570346832275, 0.0423872135579586, -0.055090926587581635, -0.0048094275407493114, 0.04253600165247917, 0.03735145181417465, 0.0947672501206398, 0.015101339668035507, 0.03794354200363159, 0.019792523235082626, 0.014019669033586979, 0.05554114654660225, 0.05864012986421585, -0.037340499460697174, 0.006349395960569382, 0.09250959753990173, 0.04566847160458565, -0.022509228438138962, -0.03608912229537964, -0.01865965500473976, 0.04094052314758301, -0.10978613793849945, 0.006174677982926369, -0.009930857457220554, 0.0028592434246093035, -0.13414205610752106, -0.11310803145170212, 0.07231172919273376, -0.00917807500809431, 0.09905853122472763, 0.10630803555250168, 0.128260999917984, 0.044151391834020615, -0.06457877159118652, 0.02260514348745346, -0.005760046653449535, 0.06294950842857361, -0.04143994674086571, -0.05172128602862358, 0.05832630768418312, -0.0026265333872288465, 0.017548061907291412, 0.021741831675171852, -0.033414363861083984, -0.03294047713279724, -0.008941863663494587, 0.04202727973461151, 0.043455593287944794, -0.014872628264129162, 0.09059204161167145, 0.0795169323682785, 0.0329292006790638, 0.08666876703500748, -0.18103480339050293, -0.012327063828706741, -0.057092152535915375, 0.03683168441057205, -0.12498065084218979, -0.09502644836902618, 0.051682569086551666, -0.06896152347326279, 0.037199802696704865, 0.006957755424082279, 0.030747337266802788, -0.05685971677303314, -0.023001497611403465, -0.05206657946109772, 0.028444046154618263, -0.020668255165219307, -0.06776571273803711, 0.04906501993536949, -0.0658382847905159, 0.0514678992331028, -0.014576734974980354, -0.010606965981423855, -0.04179155454039574, 0.05843154713511467, -0.014928385615348816, -0.046950314193964005, -0.034380700439214706, 0.0381457544863224, -0.042854998260736465, -0.08480585366487503, -0.05996515601873398, -0.06001262366771698, -0.030898576602339745, 0.06356500834226608, -0.04424063116312027, 0.028607938438653946, 0.0008441825048066676, 0.03893647715449333, 0.035256437957286835, -0.02294054441154003, -0.01980757527053356, 0.0022094573359936476, -0.028791531920433044, 0.05860617011785507, -0.020086165517568588, 0.022076714783906937, -0.07721899449825287, -0.06519977748394012, 0.03864660859107971, 0.022489460185170174, 0.037331242114305496, -0.10621073096990585, 0.005335076712071896, 0.0277637280523777, 0.06506626307964325, 0.03508145362138748, -0.08548849821090698, -0.10240911692380905, 0.0067931972444057465, -0.006698342971503735, 0.054344963282346725, -0.06007058545947075, 0.005482292268425226, 0.015574289485812187, 0.023207850754261017, 0.0182479377835989, -0.02535467967391014, -0.09331213682889938, -0.08213168382644653, -0.0045349691063165665, 0.056841664016246796, -0.04634053632616997, 0.007067282684147358, 0.0059880455955863, 0.01548148225992918, 0.05364042520523071, 0.013535530306398869, -0.08238759636878967, -0.005715952254831791, 0.027753135189414024, 0.016300776973366737, 0.042451318353414536, -0.05642727389931679, 0.024631373584270477, 0.0033353266771882772, 0.018491582944989204, 0.03667895868420601, 0.04926380142569542, 0.018450364470481873, -0.0381593182682991, 0.0026337720919400454, -0.03643089905381203, 0.06828301399946213, 0.07238561660051346, 0.010996111668646336, -0.02219262719154358, -0.015969686210155487, 0.005905925761908293, 0.041374992579221725, 0.013834921643137932, 0.010156594216823578, -0.005933099426329136, 0.05034584552049637, -0.007958054542541504, 0.06613089889287949, -0.013998361304402351, -0.004676882177591324, 0.0712013989686966, -0.03875015676021576, -0.03775249049067497, 0.0390893816947937, 0.05156867578625679, -0.021393712610006332, 0.10168975591659546, 0.0034802663139998913, -0.13195601105690002, 0.010150162503123283, 0.024981068447232246, -0.03650316596031189, -0.030073082074522972, -0.0628325492143631, -0.01094089075922966, -0.026801172643899918, -0.013767651282250881, 0.016133131459355354, 0.06730489432811737, -0.04710039868950844, -0.006477801129221916, 0.039227697998285294, 0.051435090601444244, -0.0558946430683136, 0.06017601117491722, -0.022223204374313354, -0.040906261652708054, 0.012208539992570877, -0.04779472202062607, -0.008061724714934826, -0.024546891450881958, 0.0487138070166111, 0.022649120539426804, -0.046127598732709885, -0.027393009513616562, 0.08039157837629318, -0.05629052594304085, 0.060020558536052704, 0.02697819098830223, 0.0968436747789383, -0.01958969421684742, -0.054133303463459015, -0.00715714180842042, 0.048939477652311325, -0.1143871620297432, 0.010328574106097221, 0.07589374482631683, 0.07918025553226471, 0.05024397745728493, -0.058098409324884415, -0.008944597095251083, -0.07234513759613037, -0.05562751740217209, 0.044483330100774765, 0.019186880439519882, 0.010292422026395798, -0.015450142323970795, 0.012694810517132282, 0.0021682283841073513, -0.0003556750889401883, -0.04541480541229248, 0.06038864329457283, -0.010225619189441204, -0.04941742494702339, -0.010659290477633476, 0.05259331315755844, -0.0008152549853548408, 0.01636619307100773, 0.13178344070911407, -0.06053034961223602, 0.053107380867004395, 0.0564044825732708, 0.12934528291225433, -0.09035258740186691, 0.00577957509085536, 0.0736507773399353, 0.032831620424985886, 0.10240184515714645, 0.056274496018886566, 0.009348681196570396, 0.03774724155664444, -0.029628168791532516, 0.06857313960790634, 0.10080088675022125, 0.054209478199481964, 0.01336316205561161, 0.018138496205210686, 0.03228355199098587, -0.027573319151997566, -0.04481273517012596, 0.019006848335266113, -0.08181200176477432, -0.05137314274907112, -0.04163463041186333, -0.02684936299920082, 0.02567921206355095, 0.09781909734010696, -0.039085160940885544, 0.04285867512226105, 0.028922000899910927, -0.0033533757086843252, -0.06337430328130722, 0.0873301699757576, -0.00045053716166876256, -0.10283704102039337, -0.024585649371147156, 0.042699918150901794, -0.060587603598833084, -0.006055634003132582, -0.024422569200396538, 0.07990332692861557, 0.10058295726776123, 0.039568107575178146, -0.01470862701535225, 0.026093607768416405, -0.04636280983686447, -0.03174297884106636, -0.004569078329950571, 0.029050499200820923, -0.05166757479310036, -0.0024838882964104414, -0.005070456303656101, -0.01904023066163063, -0.03974618762731552, -0.058056432753801346, 0.07258541136980057, 0.05225330591201782, 0.01193640474230051, -0.0303394366055727, -0.016240499913692474, -0.0439462810754776, 0.00530820619314909, -0.00997558981180191, 0.02231326699256897, 0.04821033775806427, 0.07880372554063797, -0.02943878434598446, -0.015943994745612144, 0.019117536023259163, -0.01764685846865177, 0.053589992225170135, 0.06852298974990845, 0.06515126675367355, 0.06285054236650467, 0.035811081528663635, 0.019326360896229744, -0.002022848464548588, 0.04661263898015022, 0.0045530651696026325, 0.012558900751173496, 0.05325033888220787, -0.023440031334757805, 0.0013259460683912039, -0.017239758744835854, 0.040651362389326096, 0.006135581061244011, 0.02166975475847721, -0.0025590083096176386, 0.01177176646888256, -0.05063805729150772, -0.05269757658243179, -0.0018557871226221323, 0.05519979074597359, 0.053348757326602936, -0.054075516760349274, -0.03206731006503105, 0.05678867548704147, 0.025777393952012062, -0.0993589460849762, -0.049431756138801575, 0.03865065053105354, -0.04724492132663727, -0.06097729876637459, 0.03844762593507767, -0.022288290783762932, -0.004685701336711645, 0.028567001223564148, -0.014379318803548813, 0.023552345111966133, -0.036593466997146606, -0.08512827008962631, 0.12011025100946426, -0.07402194291353226, -0.04999338835477829, -0.10635331273078918, -0.0027591802645474672, 0.06989559531211853, -0.0008220526506192982, -0.04623475298285484, -0.08812869340181351, -0.10637432336807251, -0.126177579164505, -0.0009004622115753591, 0.0417201928794384, -0.05809304118156433, -0.02577713318169117, -0.0436118058860302, -0.020647451281547546, -0.06199873983860016, -0.09532302618026733, -0.049665290862321854, 0.0496567040681839, 0.041268832981586456, -0.07235978543758392, 0.039677705615758896, -0.0448937863111496, -0.0729183629155159, -0.0710361897945404, 0.05926714092493057, 0.03382284194231033, 0.028621463105082512, 0.0389590710401535, -0.039646245539188385, -0.029577385634183884, 0.0009057933930307627, -0.032316118478775024, -0.07556074112653732, 0.049173593521118164, 0.08330678939819336, -0.06488080322742462, 0.042271483689546585, -0.019857551902532578, -0.02071983553469181, -0.003387307282537222, 0.10188950598239899, 0.036688920110464096, 0.035177234560251236, 0.007979366928339005, 0.10384746640920639, -0.004583769012242556, -0.04489161819219589, 0.04371203854680061, 0.01005573384463787, -0.04565824568271637, 0.05478253588080406, -0.013469671830534935, 0.025737812742590904, 0.029192306101322174, 0.010884949937462807, -0.04792214184999466, -0.01689051277935505, -0.05536234751343727, -0.03349795565009117, -0.026124577969312668, 0.04704178869724274, 0.025482244789600372, -0.058131419122219086, -0.05295452103018761, 0.06013447046279907, -0.028675664216279984, 0.05929412320256233, -0.05142315477132797, -0.012850825674831867, 0.011420946568250656, 0.003254595911130309, -0.041070062667131424, 0.017779037356376648, 0.04158921167254448, -0.0420994758605957, 0.007589118089526892, 0.004637834616005421, -0.04348384216427803, -0.0010360999731346965, -0.022314803674817085, 0.01677975244820118, 0.030210673809051514, 0.012850640341639519, -0.04000738635659218, 0.04826831817626953, -0.045038651674985886, 0.02225073240697384, -0.06269286572933197, 0.05606599897146225, 0.002845559734851122, 0.027118124067783356, -0.030907440930604935, -0.035910941660404205, 0.05251269042491913, 0.02859906293451786, -0.040110133588314056, -0.04467621073126793, 0.018358809873461723, -0.04817787557840347, -0.05532355234026909, -0.04112039506435394, -0.0142273074015975, -0.007635160814970732, -0.00957262609153986, -0.009328036569058895, 0.05964485555887222, -0.05265321955084801, 0.018779784440994263, -0.05311187729239464, 0.051014244556427, -0.027442505583167076, 0.014398539438843727, 0.042486950755119324, 0.05453143268823624, 0.013944542966783047, 0.04965902492403984, 0.029738813638687134, -0.025901205837726593, 0.046289052814245224, -0.014427205547690392, -0.0477990061044693, -0.008765812031924725, -0.0392301082611084, 0.01429955754429102, -0.05916530266404152, 0.02936524897813797, -0.029971657320857048, -0.011100836098194122, -0.04489576071500778, 0.026000332087278366, -0.005787628702819347, 0.02456548810005188, 0.030981015413999557, 0.04562656581401825, 0.027571987360715866, -0.0003427170740906149, -0.03390798717737198, 0.050540000200271606, -0.007601072546094656, -0.008115755394101143, 0.05647721886634827, 0.05740520358085632, -0.03981975466012955, -0.018568869680166245, 0.05554911494255066, -0.05362185463309288, 0.001036033034324646, 0.01739010401070118, 0.011272183619439602, 0.04654652997851372, -0.06005635857582092, 0.05613844096660614, -0.0068754530511796474, -0.046609602868556976, -0.003287746338173747, 0.045746225863695145, 0.029031209647655487, -0.006496781017631292, -0.024144906550645828, -0.04818539693951607, 0.05772549286484718, -0.049416929483413696, 0.0027140509337186813, 0.04389394447207451, -0.04491575434803963, -0.06213526055216789, 0.021451521664857864, -0.037872303277254105, 0.03723169490695, 0.018867937847971916, 0.04885250702500343, -0.0012470223009586334, -0.02456906996667385, 0.03511948511004448, -0.054023683071136475, -0.03097042255103588, -0.02528437413275242, 0.04305706173181534, 0.002148452214896679, -0.05861271917819977, 0.008386743254959583, -0.06311248987913132, 0.008032695390284061, 0.007629344239830971, -0.0053191110491752625, -0.0491795614361763, -0.0017081823898479342, -0.015360405668616295, 0.023915501311421394, 0.0087976586073637, 0.01478390209376812, 0.009074486792087555, -0.03222941979765892, 0.023964859545230865, 0.056252848356962204, -0.061415717005729675, -0.06480231881141663, 0.05800612270832062, -0.01947758160531521, -0.009139535948634148, -0.028436504304409027, -0.06315033882856369, -0.045944809913635254, -0.002062690444290638, 0.0398644357919693, -0.022724328562617302, 0.012288132682442665, -0.041950736194849014, -0.02189938724040985, -0.004368588328361511, 0.014144384302198887, 0.018546972423791885, 0.06423287838697433, -0.01735807955265045, -0.012105714529752731, 0.01790246181190014, 0.044210635125637054, -0.029489479959011078, 0.052339956164360046, 0.02710144780576229, -0.02237645909190178, 0.0021203975193202496, 0.030375735834240913, 0.015573696233332157, 0.04410472512245178, 0.0166361965239048, -0.007017835043370724, -0.039778757840394974, -0.058285970240831375, -0.0006716267671436071, 0.0336671806871891, -0.02705567702651024, -0.04524554684758186, 0.014617797918617725, 0.055342432111501694, -0.04073818773031235, 0.03590855747461319, 0.022322602570056915, 0.03504112735390663, -0.026808222755789757, 0.031834933906793594, -0.009808603674173355, 0.03573541343212128, -0.04303804412484169, 0.04682603105902672, -0.0376112163066864, 0.003595814574509859, -0.06061568483710289, -0.023212801665067673, 0.013197614811360836, 0.029933147132396698, 0.024245597422122955, -0.05714276805520058, 0.00403584772720933, 0.01137135736644268, -0.04782808944582939, 0.052181512117385864, -0.05658623203635216, -0.02886217273771763, -0.013897454366087914, 0.046935442835092545, -0.04457666352391243, -0.046057168394327164, -0.06164483726024628, -0.02966851182281971, 0.0238316860049963, -0.029486343264579773, 0.037351638078689575, -0.05316894128918648, 0.02225746028125286, 0.06187988445162773, -0.008995775133371353, 0.015943679958581924, 0.05228911340236664, 0.05856313556432724, -0.008113164454698563, -0.05669710785150528, 0.0028979468625038862, -0.051852185279130936, 0.04662128910422325, -0.052470773458480835, 0.015721403062343597, 0.061740655452013016, 0.05110747367143631, -0.03242562338709831, -0.045285824686288834, -0.020947301760315895, -0.013805696740746498, 0.01958487369120121, -0.03539518639445305, 0.017973583191633224, 0.05745987221598625, 0.010197596624493599, 0.03590148314833641, 0.012871095910668373, -0.04228108003735542, -0.014683536253869534, 0.024840397760272026, 0.10644283890724182, 0.11257460713386536, 0.04233848676085472, 0.03928513079881668, -0.023528140038251877, 0.06216850504279137, 0.00284188031218946, -0.068646639585495, -0.027607783675193787, -0.04299476370215416, -0.10000792890787125, -0.008945498615503311, 0.018373476341366768, 0.010515330359339714, -0.022368049249053, -0.035860225558280945, -0.06366156786680222, 0.04526742547750473, -0.024498535320162773, -0.003730161115527153, -0.057985298335552216, -0.020551612600684166, -0.026509426534175873, -0.004875808488577604, -0.05766908824443817, -0.016320129856467247, -0.060038693249225616, 0.0637095719575882, 0.06736224889755249, 0.0698840543627739, 0.02603108249604702, 0.0181452464312315, -0.12448278814554214, -0.11680858582258224, 0.08076568692922592, -0.0035235686227679253, 0.030100882053375244, 0.11585956811904907, 0.09883392602205276, -0.000815236649941653, 0.005559863522648811, 0.0771523267030716, 0.08417970687150955, 0.042101893573999405, -0.09227822721004486, 0.012431939132511616, 0.055410243570804596, -0.01873975619673729, -0.005903477780520916, 0.06177692115306854, 0.05386115238070488, -0.022546008229255676, 0.029982728883624077, 0.0259363055229187, 0.06982235610485077, -0.046267226338386536, -0.06007097288966179, -0.04824003949761391, 0.03610624745488167, 0.025008052587509155, -0.032746270298957825, 0.001319293980486691, 0.06870824843645096, 0.01093819085508585, -0.04565155878663063, -0.051871612668037415, -0.009178115986287594, -0.059565238654613495, -0.13002870976924896, 0.02314007841050625, -0.012626309879124165, -0.05405234917998314, 0.04272960498929024, 0.0342165045440197, 0.016293561086058617, -0.015721051022410393, -0.03073687106370926, -0.005186339374631643, -0.05238725617527962, 0.03523440659046173, 0.019192954525351524, 0.14376357197761536, 0.15815450251102448, -0.0382099449634552, -0.056815966963768005, 0.01847061887383461, 0.03799599036574364, -0.11201337724924088, -0.05521435663104057, -0.004041303880512714, -0.0465397946536541, 0.02043105661869049, -0.023713618516921997, -0.01662769727408886, 0.006928054615855217, 0.14099200069904327, -0.0013473605504259467, -0.012780026532709599, 0.03774760663509369, 0.15049459040164948, 0.03405126556754112, -0.011441257782280445, 0.03633888065814972, -0.058145713061094284, 0.07719144970178604, 0.007164815906435251, -0.026585744693875313, -0.08947525918483734, -0.04663527011871338, 0.0009647716069594026, 0.02515062503516674, 0.04699486494064331, -0.009570962749421597, -0.060178980231285095, -0.03060089237987995, -0.03600102290511131, 0.004657989367842674, 0.06015128642320633, 0.08890379965305328, 0.007506470195949078, -0.007989013567566872, 0.04979075863957405, 0.006881854962557554, 0.012788444757461548, 0.011686409823596478, 0.00802334863692522, -0.02164190262556076, 0.009935976937413216, -0.054082151502370834, -0.051564689725637436, 0.05503328889608383, 0.13348828256130219, -0.028432421386241913, -0.07779043912887573, -0.055205438286066055, 0.005391144659370184, 0.041950006037950516, 0.020926479250192642, 0.0407615602016449, -0.0764341652393341, -0.01999359019100666, -0.001047047902829945, 0.04232797026634216, 0.07022300362586975, -0.0065020364709198475, 0.05941607803106308, -0.013725187629461288, 0.023363523185253143, -0.052903912961483, -0.021007394418120384, -0.047522179782390594, -0.061885807663202286, 0.03953681141138077, -0.03361381217837334, 0.016338475048542023, 0.029096564278006554, 0.03653128072619438, 0.02829509787261486, 0.007659203372895718, 0.04681959003210068, 0.058333177119493484, 0.0982237234711647, 0.05956517904996872, 0.0403168760240078, 0.06741707026958466, 0.03173593804240227, -0.03330527991056442, 0.02736896649003029, -0.007450270000845194, -0.00012104131747037172, -0.05162620544433594, -0.013963072560727596, 0.05061188340187073, -0.06065569072961807, 0.07041236013174057, 0.026509612798690796, 0.07221008837223053, 0.1069255843758583, 0.027747202664613724, 0.04310940206050873, 0.1322663426399231, -0.0675104558467865, 0.013420337811112404, -0.06312540918588638, -0.017822934314608574, -0.05153322219848633, -0.08576344698667526, 0.049913499504327774, 0.06948710978031158, 0.07334526628255844, -0.006646489724516869, 0.06968358904123306, 0.015024429187178612, -0.010318128392100334, -0.0021500177681446075, 0.055881232023239136, -0.02284613437950611, -0.05446881800889969, -0.11426859349012375, 0.014222608879208565, 0.07525760680437088, 0.052391789853572845, 0.019189096987247467, -0.0024947095662355423, 0.08335676044225693, 0.05549660325050354, 0.04798151180148125, 0.09215307980775833, 0.04213330149650574, -0.03413030132651329, -0.05799158290028572, -0.003040956100448966, -0.1027212142944336, -0.054019197821617126, -0.12779690325260162, -0.06068853288888931, -0.09330374747514725, -0.05414396896958351, 0.032207977026700974, -0.01407416071742773, -0.005182258784770966, 0.04905586317181587, 0.00463941739872098, -0.023747116327285767, -0.05083054304122925, 0.022047391161322594, -0.017711210995912552, -0.08219146728515625, 0.053012020885944366, 0.023130491375923157, 0.02215372957289219, -0.032848555594682693, 0.003549457062035799, 0.026089424267411232, 0.01621064357459545, 0.019381551072001457, -0.0648571103811264, 0.02249559387564659, 0.00717739574611187, 0.08077722042798996, 0.08499147742986679, 0.022754695266485214, -0.01582295633852482, 0.04350147023797035, 0.012555746361613274, -0.023907305672764778, 0.02707391045987606, 0.051527056843042374, 0.09728055447340012, -0.013042732141911983, 0.004431985318660736, 0.053171556442976, 0.04596452787518501, -0.04506693035364151, -0.03469327464699745, -0.019441422075033188, 0.00592804653570056, 0.04497842490673065, 0.03773502632975578, -0.03644507750868797, 0.06429387629032135, -0.0009350092732347548, 0.04305744171142578, -0.00816432572901249, -0.057494815438985825, 0.031113244593143463, 0.026511944830417633, -0.01857275329530239, 0.0444205142557621, 0.044168829917907715, 0.032659970223903656, -0.01852123998105526, -0.005974432919174433, 0.014157839119434357, -0.04633701220154762, -0.06275922060012817, -0.07900342345237732, -0.025756344199180603, -0.026058239862322807, 0.11688069999217987, 0.10405738651752472, -0.01788993738591671, -0.029357600957155228, 0.007426121272146702, -0.09618436545133591, 0.003473559394478798, 0.09240508079528809, 0.06888144463300705, -0.020515168085694313, 0.006787962280213833, 0.02424979768693447, -0.06381268799304962, -0.047932907938957214, 0.03695322200655937, 0.05235667526721954, 0.010393667034804821, -0.07703708112239838, -0.01780788227915764, 0.06846102327108383, -0.011304833926260471, 0.03152495622634888, -0.048358254134655, 0.04385840892791748, -0.030499061569571495, -0.031092530116438866, 0.040199585258960724, 0.04583097994327545, -0.05070434510707855, 0.024919861927628517, 0.046742163598537445, -0.014375285245478153, 0.041294217109680176, -0.07379279285669327, 0.03303308039903641, 0.028546001762151718, -0.027758272364735603, -0.1212296411395073, -0.08725149184465408, 0.03146195411682129, -0.03468016907572746, 0.009536135010421276, 0.07510442286729813, 0.0431777685880661, -0.007923892699182034, 0.008133895695209503, 0.02065851539373398, 0.11038904637098312, -0.026395007967948914, 0.054327063262462616, -0.004793645814061165, 0.03231045603752136, 0.04024387523531914, -0.01738605834543705, -0.021640947088599205, -0.05483640730381012, 0.014496833086013794, 0.12822255492210388, 0.04451151564717293, 0.011744789779186249, -0.01677941530942917, 0.005522841587662697, 0.030816124752163887, -0.11623064428567886, 0.020425282418727875, 0.14941486716270447, -0.03197278082370758, -0.09922493249177933, 0.06610026955604553, 0.016850553452968597, -0.2306269258260727, 0.002170488005504012, -0.05039268359541893, 0.06483310461044312, -0.061911340802907944, -0.06351222097873688, 0.004075444769114256, -0.023560579866170883, -0.03587529808282852, -0.07861457765102386, 0.03280511870980263, 0.031377825886011124, -0.03529380261898041, 0.07211515307426453, -0.05148943513631821, -0.037718214094638824, -0.009488387033343315, 0.058362074196338654, -0.023851361125707626, 0.0723394900560379, 0.05170692875981331, -0.04094948247075081, -0.023183492943644524, -0.027752356603741646, -0.024923427030444145, -0.025990601629018784, 0.09223706275224686, 0.04973693564534187, -0.039444450289011, -0.037577852606773376, 0.08141092211008072, 0.11664105951786041, -0.09987689554691315, -0.05341235548257828, -0.028333984315395355, 0.02871282957494259, 0.011169234290719032, 0.046620626002550125, 0.0017594030359759927, 0.007260612677782774, 0.06336197257041931, 0.009361923672258854, 0.041663963347673416, -0.004140872973948717, 0.001098919427022338, 0.006662690546363592, 0.052995290607213974, 0.018849313259124756, 0.06193546578288078, 0.03421901538968086, 0.06559984385967255, 0.054781198501586914, 0.06258679926395416, -0.0651564672589302, 0.01725807972252369, 0.03245542198419571, -0.028489409014582634, -0.03336784616112709, -0.03369081765413284, -0.03617776557803154, -0.03328259661793709, 0.02799970656633377, 0.051855139434337616, 0.04616667702794075, 0.022303162142634392, -0.0020694269333034754, -0.02388644590973854, 0.04635259881615639, 0.015278520993888378, 0.07544677704572678, -0.0379154197871685, 0.07184161245822906, 0.05017593502998352, -0.0064007677137851715, -0.012548553757369518, 0.013516929000616074, -0.034963879734277725, -0.009935512207448483, -0.007937557063996792, 0.06156755983829498, -0.011482342146337032, -0.011443788185715675, 0.055396873503923416, 0.05337214097380638, -0.011406699195504189, 0.0690331757068634, -0.0008936344529502094, 0.010809631086885929, -0.011314883828163147, -0.05688195675611496, -0.04403035715222359, -0.02308017574250698, -0.032392218708992004, -0.04336386173963547, 0.030815711244940758, 0.08785206824541092, -0.04460590332746506, -0.013453287072479725, -0.04862217232584953, 0.012406185269355774, 0.0274332445114851, -0.03340480104088783, -0.03661148250102997, -0.03443463519215584, 0.03170986473560333, -0.026220111176371574, 0.015569939278066158, 0.004698170814663172, 0.0021620062179863453, -0.03361499682068825, 0.026983559131622314, -0.03406459838151932, -0.12162584811449051, -0.08545014262199402, -0.025105783715844154, 0.0020523695275187492, -0.06424792110919952, 0.005921963136643171, 0.0013345383340492845, -0.08431849628686905, -0.009070933796465397, 0.04041551053524017, 0.03568129613995552, -0.015687817707657814, 0.06400890648365021, -0.03420068696141243, -0.004491040483117104, 0.005980664864182472, -0.002780996495857835, -0.003160702297464013, 0.08457149565219879, -0.051189277321100235, -0.035362325608730316, -0.05385175347328186, -0.007074024062603712, -0.041510697454214096, -0.07374553382396698, -0.030933646485209465, -0.044198036193847656, 0.03110486827790737, -0.0894010066986084, -0.002884336281567812, 0.0652117058634758, 0.0646757036447525, 0.07855809479951859, 0.0380881205201149, -0.001801306614652276, 0.06798388808965683, 0.053253691643476486, 0.020251553505659103, -0.0008378373458981514, 0.04453983157873154, 0.031349800527095795, 0.06478174030780792, 0.039776600897312164, -0.027776414528489113, -0.014836111105978489, 0.03600270301103592, -0.028124580159783363, 0.04682110249996185, -0.049289703369140625, -0.005499857012182474, 0.09806031733751297, -0.008279821835458279, 0.036617908626794815, -0.04340977966785431, 0.009714723564684391, -0.0748726949095726, 0.04456571489572525, 0.024945111945271492, -0.015006111934781075, 0.02381010726094246, -0.026911720633506775, -0.09777898341417313, 0.016804542392492294, 0.07153207808732986, 0.007419758941978216, -0.0003838463453575969, -0.06747058779001236, -0.12984515726566315, -0.10532420873641968, 0.006030829157680273, 0.027066297829151154, -0.010525453835725784, 0.03035387024283409, -0.0604725182056427, -0.019848613068461418, 0.011868953704833984, 0.030609017238020897, 0.0424906425178051, 0.01677517779171467, -0.05529771000146866, 0.038398172706365585, 0.06688518077135086, -0.01770036667585373, 0.016158489510416985, 0.052116796374320984, -0.028834734112024307, 0.06520107388496399, 0.011807604692876339, 0.024606600403785706, 0.05162567272782326, -0.02632385678589344, 0.13683582842350006, 0.07153096795082092, -0.060799699276685715, -0.0019368277862668037, -0.07144496589899063, 0.046092960983514786, 0.02590426243841648, -0.01694132573902607, -0.12040071934461594, -0.06704667955636978, -0.02636922523379326, -0.058633457869291306, -0.1278487592935562, -0.06066998094320297, -0.0750860646367073, 0.013325037434697151, -0.02681611105799675, -0.054479461163282394, -0.0722610205411911, 0.007440122310072184, 0.046230658888816833, 0.054644495248794556, -0.050658684223890305, 0.046857740730047226, 0.0933578610420227, -0.0378962978720665, -0.021623533219099045, 0.014463488943874836, 0.02744295634329319, -0.11868580430746078, -0.03897113725543022, -0.16354548931121826, -0.07518618553876877, 0.010478087700903416, 0.0021834855433553457, 0.09485287219285965, 0.10384656488895416, 0.08816859871149063, 0.08698426932096481, 0.02494603395462036, -0.013861234299838543, 0.0011653380934149027, 0.03036610223352909, 0.005005617160350084, 0.05065089091658592, 0.02443300373852253, 0.00021921886946074665, 0.04724818095564842, -0.05054660141468048, -0.07458323985338211, 0.04965948313474655, 0.09214872121810913, 0.0154942087829113, -0.0225042887032032, -0.032493267208337784, 0.084966741502285, 0.0653190165758133, 0.08321470022201538, 0.005944532807916403, -0.006126472260802984, -0.09613032639026642, -0.004309757612645626, -0.053643856197595596, -0.037746332585811615, -0.051163606345653534, -0.02525627426803112, -0.017448799684643745, -0.02779284305870533, 0.04063604772090912, 0.041586801409721375, 0.04201571270823479, 0.07173928618431091, -0.018820365890860558, 0.03939738869667053, 0.06139202043414116, 0.04671107605099678, -0.04482635483145714, 0.03177598863840103, -0.01626836508512497, 0.03183252364397049, -0.013723839074373245, 0.06092003360390663, 0.052974287420511246, -0.008542747236788273, 0.025174856185913086, 0.05227533355355263, 0.0076099298894405365, -0.0024520857259631157, -0.02190988138318062, -0.07668644934892654, 0.02177727408707142, -0.038849376142024994, -0.057954296469688416, -0.017079437151551247, -0.08747070282697678, -0.02388088032603264, -0.03286033123731613, 0.054825667291879654, 0.06859373301267624, -0.017733512446284294, 0.02028057724237442, -0.06040159985423088, 0.0563351996243, -0.00793382152915001, -0.04239918664097786, -0.20717546343803406, -0.07378832250833511, 0.015865355730056763, 0.018230680376291275, -0.09037338942289352, -0.0015656654722988605, -0.03458162769675255, -0.010391052812337875, 0.02170257270336151, -0.005579720251262188, -0.05595054849982262, -0.006518717389553785, 0.028883695602416992, 0.06384828686714172, 0.029046230018138885, -0.04185323044657707, -0.05665990710258484, -0.06418372690677643, 0.07844334840774536, 0.006982764229178429, -0.08667083084583282, -0.0242838766425848, -0.021702978760004044, -0.010865787044167519, 0.018933208659291267, -0.043674811720848083, -0.008794991299510002, -0.017639998346567154, 0.04431452602148056, 0.07397901266813278, -0.005268414504826069, -0.06171027570962906, -0.12337511777877808, 0.04569517448544502, 0.00725075276568532, -0.10187826305627823, 0.006247247103601694, -0.008224316872656345, -0.05959370359778404, 0.0017544128932058811, 0.04486486315727234, 0.016588447615504265, -0.04153706133365631, -0.05933087319135666, 0.018821530044078827, -0.10534092038869858, 0.03676137328147888, 0.02000870183110237, -0.0507391132414341, -0.021429775282740593, 0.025741854682564735, 0.04397938773036003, 0.04140586033463478, 0.0400821678340435, 0.011336639523506165, 0.0739913061261177, -0.031778451055288315, -0.011206611059606075, 0.06246500834822655, 0.05890525504946709, -0.03651132434606552, 0.044379834085702896, -0.11292091757059097, -0.06452076882123947, 0.00012761008110828698, 0.1576486974954605, 0.010274733416736126, 0.039583466947078705, 0.12313361465930939, 0.038437969982624054, 0.07882265001535416, 0.008222969248890877, -0.025499612092971802, -0.0002669907407835126, 0.022310180589556694, 0.017199354246258736, -0.09134609997272491, -0.08104662597179413, -0.004798145033419132, 0.038964152336120605, -0.05677862465381622, -0.06099150702357292, 0.054899100214242935, 0.024520523846149445, -0.0629071593284607, 0.01438198797404766, 0.015270269475877285, -0.09077148139476776, -0.07577948272228241, -0.007193658035248518, 0.039122432470321655, -0.04168775677680969, -0.012171370908617973, -0.02895354852080345, -0.054269179701805115, -0.11604440957307816, -0.06554271280765533, -0.050948042422533035, 0.04560031741857529, 0.03243648260831833, -0.01572837494313717, -0.0002684795472305268, 0.02051912061870098, -0.025912264361977577, 0.0432572215795517, 0.09299131482839584, -0.037609878927469254, 0.0047510103322565556, -0.006586304400116205, 0.06794493645429611, 0.04360111057758331, 0.03168255090713501, 0.13053512573242188, 0.008200674317777157, 0.036167457699775696, 0.019723711535334587, 0.03691921383142471, 0.059057436883449554, 0.0027971307281404734, -0.01578105427324772, 0.014349435456097126, -0.0029729963280260563, -0.07445213943719864, 0.02861914597451687, 0.018700534477829933, 0.012530941516160965, 0.05339614674448967, -0.0583222433924675, -0.08762414753437042, -0.12465626001358032, 0.006078064441680908, 0.0857701227068901, -0.08966842293739319, -0.10101019591093063, 0.02461923286318779, -0.03369184583425522, -0.013223196379840374, 0.03424197807908058, -0.024097228422760963, 0.031211715191602707, 0.07344601303339005, 0.042543504387140274, -0.023411275818943977, 0.011160632595419884, 0.07795296609401703, 0.1254601776599884, 0.03410115838050842, 0.006388818379491568, -0.056137580424547195, 0.02633857913315296, 0.058740388602018356, -0.061295121908187866, -0.08571972697973251, -0.06110832840204239, 0.07204193621873856, 0.02469746582210064, -0.08293525129556656, 0.010589402168989182, -0.04468799754977226, -0.020780939608812332, 0.036100324243307114, 0.03242349624633789, -0.050076376646757126, 0.008269945159554482, 0.06641992926597595, -0.05780843645334244, -0.03873089328408241, 0.052454374730587006, 0.06517993658781052, -0.07956870645284653, -0.07032322883605957, 0.016271773725748062, -0.06280748546123505, -0.0030441968701779842, -0.03739118576049805, 0.01781902089715004, 0.013079680502414703, 0.019552936777472496, 0.04150407016277313, -0.026289047673344612, 0.06577420979738235, 0.06700670719146729, 0.007042998448014259, -0.024310726672410965, -0.03126224875450134, -0.03763125091791153, -0.0013306114124134183, -0.049999579787254333, -0.06455845385789871, -0.06882032752037048, 0.01960836537182331, 0.058011122047901154, -0.030565863475203514, 0.0741751566529274, -0.015643086284399033, 0.017717598006129265, 0.007157623302191496, 0.018415821716189384, 0.02529301866889, -0.01144272182136774, 0.08593373000621796, -0.03287755697965622, 0.008120794780552387, 0.029668601229786873, -0.046212971210479736, 0.0951647087931633, 0.016452336683869362, -0.05792252719402313, 0.021999452263116837, -0.0013636121293529868, 0.06552141159772873, -0.020239898934960365, 0.06664431095123291, 0.06436330825090408, 0.06448805332183838, 0.039210811257362366, 0.01039949245750904, -0.048882342875003815, 0.017555583268404007, 0.015809528529644012, -0.002107871463522315, -0.019512055441737175, 0.036847129464149475, 0.10815107077360153, 0.15482693910598755, 0.11568032205104828, 0.031579140573740005, 0.020412616431713104, 0.023985158652067184, 0.03636036068201065, -0.061314161866903305, -0.009646584279835224, 0.015114324167370796, -0.0753198117017746, -0.0258476659655571, -0.002461523050442338, -0.0027022508438676596, -0.08991537243127823, -0.00032565335277467966, 0.11495005339384079, 0.16122734546661377, 0.11382731795310974, -0.03193947672843933, -0.05500737577676773, 0.03793328255414963, 0.008045225404202938, 0.008325590752065182, -0.07981535792350769, -0.005850553046911955, -0.02658574841916561, -0.0157715305685997, -0.05467762053012848, -0.06717576086521149, 0.018365416675806046, 0.09406700730323792, 0.13234758377075195, 0.030348753556609154, 0.024316688999533653, -0.024368511512875557, -0.023020576685667038, 0.0614357553422451, -0.027817266061902046, -0.008552382700145245, -0.06449609994888306, -0.005172704812139273, -0.0783354863524437, 0.021244801580905914, 0.11288373172283173, -0.02436687797307968, -0.12442038953304291, 0.02341877855360508, 0.11450430750846863, 0.06975734233856201, 0.03747688606381416, 0.007554176263511181, 0.016265112906694412, -0.03613157942891121, 0.017630470916628838, -0.013759265653789043, -0.017108498141169548, -0.05932776257395744, -0.06083725020289421, 0.07768501341342926, 0.03886841610074043, -0.09426349401473999, -0.08593779802322388, -0.05928670987486839, -0.05422358959913254, -0.021705249324440956, 0.009579681791365147, 0.07124720513820648, -0.016333425417542458, 0.00370412296615541, 0.055883023887872696, 0.04474223777651787, 0.053359512239694595, -0.032408103346824646, -0.00780020747333765, 0.02017207071185112, -0.05426037684082985, -0.04342649504542351, 0.0336967371404171, -0.0049435170367360115, 0.11488357931375504, 0.09367427974939346, 0.07396169006824493, 0.0066207777708768845, 0.1068621352314949, -0.03160841763019562, 0.011957818642258644, -0.06568799912929535, -0.03499531373381615, -0.02062130533158779, 0.030668681487441063, 0.0559065118432045, 0.03187771141529083, 0.08927355706691742, -0.006229284219443798, -0.028987063094973564, -0.02972208894789219, 0.06762877851724625, -9.311066241934896e-05, 0.04472961649298668, -0.02136354334652424, -0.0240304134786129, -0.054740507155656815, -0.015285423956811428, -0.03986598923802376, -0.05901525914669037, -0.010240726172924042, -0.04893863573670387, 0.024392062798142433, -0.011231849901378155, 0.049046654254198074, -0.10445711761713028, -0.0437961183488369, 0.0016389420488849282, -0.06734595447778702, -0.06854497641324997, 0.024646861478686333, 0.0061073605902493, 0.022805767133831978, -0.02269756607711315, -0.03810952231287956, -0.009047242812812328, -0.04561740159988403, -0.0027888917829841375, -0.03591889515519142, -0.058559585362672806, -0.06643302738666534, -0.0476011298596859, -0.05375512316823006, 0.020136767998337746, -0.02074062079191208, -0.014915384352207184, -0.0025548029225319624, -0.034420646727085114, 0.04940279200673103, -0.01656634546816349, 0.0356915257871151, 0.012612288817763329, -0.019379872828722, 0.004082717001438141, -0.053794682025909424, 0.010095099918544292, 0.02904556132853031, -0.04818928241729736, -0.006130365654826164, 0.015334085561335087, 0.005217489320784807, -0.014118524268269539, -0.039084065705537796, -0.047957561910152435, -0.004072994459420443, -0.08176938444375992, 0.04475130885839462, -0.08930900692939758, -0.08419262617826462, -0.05565270781517029, 0.06940777599811554, 0.05003109946846962, -0.02395564317703247, -0.022912142798304558, -0.02323627844452858, -0.007157906889915466, -0.008225785568356514, 0.01991995796561241, 0.002777843037620187, 0.019048398360610008, -0.010908887721598148, -0.08377711474895477, -0.0384388230741024, 0.005913311615586281, -0.06275931745767593, 0.0031756346579641104, -0.04861889034509659, 0.037300072610378265, -0.008642117492854595, -0.19041891396045685, 0.06387550383806229, 0.09603244811296463, -0.015043031424283981, -0.14821898937225342, 0.10612311214208603, -0.04666205868124962, -0.042205456644296646, -0.09613902121782303, 0.007094652857631445, -0.005940916482359171, -0.039374854415655136, -0.012735662050545216, 0.07036323845386505, 0.019588269293308258, -0.023523563519120216, -0.04620127007365227, -0.01608492061495781, -0.008170107379555702, 0.046972647309303284, 0.000329785980284214, 0.04766114428639412, 0.020946335047483444, 0.030399780720472336, 0.008254189975559711, -0.04902563989162445, -0.011995255947113037, -0.05090392753481865, 0.0073094796389341354, -0.02256721630692482, -0.005234265699982643, 0.04422939568758011, -0.1316903978586197, 0.04807782545685768, 0.028841810300946236, 0.04976363480091095, -0.1336795687675476, 0.026649221777915955, -0.05473946034908295, -0.05131679028272629, -0.08564512431621552, 0.03948742151260376, 0.01682247407734394, -0.04047254100441933, 0.03886129707098007, 0.04012010246515274, -0.027722204104065895, -0.0035891623701900244, -0.03786768019199371, -0.018660016357898712, 0.025217831134796143, -0.04957912489771843, -0.03567139804363251, -0.029229655861854553, 0.03836361691355705, -0.027977481484413147, 0.002562904031947255, -0.004259744193404913, 0.011517712846398354, -0.0302734337747097, -0.06414543092250824, -0.008507465943694115, -0.0008126332540996373, 0.037418756633996964, 0.003247941378504038, -0.05256594344973564, 0.08158019930124283, 0.0392509400844574, -0.01693512499332428, 0.022657299414277077, -0.017428649589419365, -0.044537439942359924, -0.003633286338299513, 0.04414595663547516, 0.04104683920741081, 0.0006449503125622869, -0.0070542399771511555, 0.036389924585819244, -0.007483214605599642, -0.02795277163386345, -0.08204008638858795, -0.002594355959445238, 0.056119054555892944, 0.020212791860103607, 0.028708158060908318, 0.024949323385953903, 0.04685091972351074, 0.01874859258532524, 0.01634926348924637, 0.003930979873985052, 0.0591023750603199, 0.06590048968791962, 0.08032642304897308, -0.015833400189876556, -0.023070864379405975, 0.009330950677394867, -0.07590583711862564, 0.007509160321205854, 0.030875610187649727, 0.00745373172685504, 0.07510674744844437, 0.12014724314212799, 0.026194002479314804, -0.03414582461118698, -0.07823401689529419, 0.025933193042874336, -0.016616296023130417, 0.04226810857653618, -0.054316069930791855, 0.029578877612948418, -0.03417310118675232, -0.0050095305778086185, 0.0012517995201051235, -0.018147217109799385, 0.004469643346965313, -0.027509644627571106, 0.03740019351243973, 0.0010408899979665875, 0.07117202877998352, -0.022042006254196167, 0.04312193766236305, -0.02854197658598423, -0.04150764271616936, 0.027596471831202507, -0.014042268507182598, 0.07739990204572678, -0.01780339889228344, 0.047467369586229324, -0.05292709916830063, 0.018268153071403503, 0.051789142191410065, -0.02256312035024166, -0.004302807617932558, 0.03607502579689026, -0.016076402738690376, 0.012941868044435978, 0.023960743099451065, 0.048741862177848816, -0.059152089059352875, -0.04808167368173599, -0.026378130540251732, 0.0043378062546253204, -0.0432458221912384, 0.01003297884017229, -0.009477132931351662, -0.053577497601509094, 0.0015168082900345325, 0.048703793436288834, -0.06825091689825058, 0.022374477237462997, -0.1111925020813942, -0.06923063844442368, -0.010009468533098698, -0.004602774512022734, -0.13679642975330353, 0.01766352355480194, 0.059348590672016144, 0.00900440663099289, 0.05036982148885727, -0.012654295191168785, 0.06487352401018143, 0.06268766522407532, 0.03591495752334595, -0.026530791074037552, 0.008999710902571678, -0.04951648786664009, 0.03882581368088722, 0.046009257435798645, -0.012542742304503918, -0.015025343745946884, -0.05758728086948395, -0.02565750665962696, -0.004436609800904989, -0.03703002259135246, -0.02129395864903927, -0.07168687880039215, 0.056601837277412415, 0.05169269070029259, -0.03742499649524689, 0.07072214037179947, 0.03480637073516846, -0.06727735698223114, -0.09123855084180832, 0.052905306220054626, 0.02555885724723339, 0.015474674291908741, -0.05726410076022148, 0.008144915103912354, 0.0060621704906225204, 0.04604610428214073, 0.05375288799405098, 0.09903314709663391, -0.03506101295351982, 0.11227131634950638, -0.05211097002029419, -0.0027686776593327522, -0.007344686426222324, 0.06849755346775055, -0.0326102077960968, 0.024514835327863693, 0.025167934596538544, -0.05778178572654724, 0.06428368389606476, 0.05161653086543083, -0.007315860129892826, -0.05633078143000603, 0.017147274687886238, -0.001213845913298428, -0.01119811087846756, -0.04078322649002075, 0.058293651789426804, 0.05053926259279251, -0.03976809233427048, -0.024492453783750534, -0.12229655683040619, -0.06829032301902771, 0.0225235503166914, -0.007874644361436367, -0.026387523859739304, 0.015863286331295967, 0.10577194392681122, 0.05052544176578522, -0.04803173243999481, -0.022175008431077003, 0.04798236861824989, 0.015147453173995018, 0.006148469168692827, 0.1005641296505928, 0.01288777869194746, -0.034902725368738174, -0.13322749733924866, -0.0599571168422699, 0.05131318047642708, -0.016598403453826904, -0.08803696185350418, -0.05392172932624817, 0.10336728394031525, -0.04121316596865654, 0.0029621063731610775, -0.029513243585824966, 0.03914009779691696, 0.05081798508763313, -0.1057196706533432, -0.05081263929605484, -0.02863651141524315, -0.013641881756484509, -0.018147187307476997, -0.018413279205560684, 0.037921737879514694, -0.011164157651364803, 0.06256282329559326, 0.04550411179661751, -0.006127327214926481, 0.04603024572134018, 0.14523042738437653, 0.10764560848474503, 0.020378930494189262, -0.03303981199860573, -0.003515047486871481, 0.0199899822473526, 0.000959877681452781, -0.014474990777671337, 0.06189386174082756, 0.01640867441892624, 0.0791454017162323, 0.06755822896957397, 0.044410403817892075, 0.0484352707862854, -0.023598916828632355, -0.0503544844686985, -0.012187112122774124, -0.027346599847078323, 0.02470920793712139, 0.013304730877280235, 0.05103381723165512, 0.023557480424642563, -0.0027137070428580046, 0.07193640619516373, -0.0765363872051239, -0.023929376155138016, -0.03325754404067993, -0.03292921185493469, -0.0455765500664711, 0.03768844157457352, 0.06224927306175232, -0.01941494084894657, -0.018907535821199417, 0.08572987467050552, 0.05277792736887932, -0.008225619792938232, -0.04158458113670349, 0.040458254516124725, -0.040989380329847336, 0.03697831556200981, -0.049072228372097015, 0.028056614100933075, 0.02251138538122177, 0.02587723731994629, 0.02366676740348339, -0.0549146868288517, 0.05116218701004982, -0.04433630034327507, -0.0280812568962574, 0.04644642770290375, -0.014914127066731453, -0.033821798861026764, -0.025393113493919373, 0.029000528156757355, -0.05997294932603836, 0.008215650916099548, -0.014014896005392075, -0.04488661140203476, -0.01030027773231268, -0.03590967506170273, 0.06597737222909927, -0.05099497735500336, -0.05595136061310768, 0.042474422603845596, 0.015671882778406143, 0.003651838516816497, 0.028454378247261047, 0.03553381934762001, 0.0750768706202507, 0.014635819010436535, -0.05026841536164284, 0.021176882088184357, -0.025000518187880516, -0.0007166279247030616, -0.012020554393529892, -0.019015340134501457, -0.053291261196136475, 0.09019039571285248, -0.023622192442417145, -0.030962791293859482, -0.014812043868005276, 0.03713032975792885, 0.020485570654273033, 0.04356404393911362, -0.0006116236909292638, -0.02704048715531826, 0.022303713485598564, 0.01030210591852665, 0.06065553426742554, -0.06800264865159988, 0.007532648742198944, 0.07072829455137253, -0.04367439076304436, 0.0050502922385931015, -0.06088106706738472, 0.038277510553598404, 0.06388174742460251, -0.0021414451766759157, 0.06794159859418869, 0.0018979150336235762, -0.05460970103740692, -0.02262803725898266, -0.05038037896156311, 0.04592530429363251, -0.0629681646823883, -0.015675492584705353, -0.028234193101525307, -0.0019825121853500605, 0.013157370500266552, 0.0219529177993536, 0.01180534902960062, -0.031017309054732323, -0.009663108736276627, -0.019713906571269035, 0.0059392270632088184, -0.05252606421709061, -0.010699355974793434, 0.018466638401150703, 0.046716004610061646, -0.0012075066333636642, -0.031735170632600784, -0.02644253522157669, 0.049362096935510635, 0.0260301660746336, 0.023504408076405525, 0.035230498760938644, 0.05526506155729294, -0.03567900508642197, 0.0075789508409798145, -0.04839077591896057, 0.0962248295545578, -0.03864013031125069, -0.0051659829914569855, -0.04151493310928345, 0.046420320868492126, -0.07685273140668869, 0.0235049556940794, 0.053206104785203934, -0.03998889401555061, -0.05417845770716667, -0.016095837578177452, 0.04989069327712059, 0.1193419098854065, 0.029310189187526703, 0.04091864079236984, 0.011504111811518669, 0.048316508531570435, 0.04798676073551178, 0.04617356136441231, 0.013078795745968819, 0.0227928776293993, -0.011543515138328075, 0.03791449964046478, 0.016621045768260956, 0.0383857823908329, -0.04411395266652107, -0.05474424362182617, 0.02590990997850895, 0.055402398109436035, -0.014270128682255745, 0.016474923118948936, -0.015620565973222256, -0.016716018319129944, -0.05827193334698677, 0.019865045323967934, -0.015311329625546932, -0.023933982476592064, -0.03625614568591118, -0.02667604759335518, 0.03440926969051361, 0.011651899665594101, 0.039251893758773804, -0.0174544770270586, 0.019786378368735313, -0.04214947298169136, 0.02529044821858406, 0.04654978588223457, 0.029354646801948547, -0.027514804154634476, -0.06039870157837868, 0.0009698116919025779, 0.038267623633146286, -0.01798856258392334, -0.018937671557068825, -0.021149447187781334, 0.007099334616214037, 0.030044473707675934, 0.037733495235443115, -0.046462953090667725, 0.004660742823034525, 0.009313629940152168, -0.03172066807746887, 0.008071969263255596, 0.020519260317087173, -0.04091868922114372, 0.017062988132238388, -0.006389928050339222, 0.0857035368680954, 0.012190035544335842, -0.1201271340250969, 0.01165921613574028, -0.06734152138233185, -0.002649790607392788, -0.046877291053533554, 0.05318093299865723, 0.004019519314169884, -0.06361431628465652, -0.002771826460957527, -0.07199844717979431, -0.0708036869764328, 0.006235223263502121, 0.006741032004356384, 0.06973595917224884, -0.004623911343514919, -0.056896548718214035, -0.053417857736349106, -0.037452876567840576, -0.003547285683453083, 0.013701915740966797, -0.011160515248775482, -0.016237303614616394, -0.04565400630235672, -0.0042822835966944695, 0.04109958931803703, 0.05408574640750885, -0.01323791779577732, 0.11195971071720123, -0.009173551574349403, -0.06148441508412361, -0.03236222639679909, -0.02333834208548069, -0.02470516227185726, -0.017447063699364662, 0.01994827575981617, -0.06349088996648788, 0.041501399129629135, 0.025967730209231377, -0.01299212221056223, 0.023718640208244324, 0.06317968666553497, 0.03605855628848076, 0.021023156121373177, 0.019337953999638557, -0.02510949596762657, 0.0383407361805439, -0.06904890388250351, -0.005828723777085543, -0.0632057711482048, -0.0653260126709938, 0.015804728493094444, -0.0030584591440856457, 0.010607538744807243, 0.03848165273666382, 0.017150744795799255, 0.04154274985194206, -0.032155200839042664, 0.02261224575340748, 0.01842566952109337, 0.08826710283756256, 0.0389874093234539, 0.02361394464969635, 0.08144412934780121, 0.05191374570131302, -0.0448012612760067, -0.09378619492053986, -0.014400318264961243, -0.05002760514616966, 0.002151087624952197, 0.02732292376458645, -0.011800996959209442, 0.020168490707874298, 0.014472320675849915, -0.027912599965929985, 0.042799875140190125, -0.02137129195034504, 0.06013806536793709, 0.007160611916333437, -0.061924926936626434, 0.013243598863482475, 0.043548330664634705, -0.05817679688334465, -0.029858144000172615, -0.056516289710998535, -0.03815248981118202, -0.025141237303614616, 0.06147142872214317, -0.05162924900650978, -0.025683777406811714, -0.013411310501396656, -0.027280094102025032, -0.024991028010845184, 0.03823254257440567, 0.010173842310905457, -0.026958536356687546, 0.06019580364227295, 0.02034444361925125, -0.005760847590863705, 0.014528726227581501, 0.02519959956407547, -0.03504734858870506, 0.03850376978516579, 0.008344321511685848, -0.0251113660633564, -0.035187531262636185, -0.04320201650261879, 0.0183732733130455, 0.015519602224230766, 0.07889966666698456, 0.07507968693971634, 0.04505389556288719, -0.010070962831377983, -0.02574790269136429, -0.028993813320994377, 0.025921450927853584, -0.04106370732188225, 0.03819694370031357, 0.028751537203788757, -0.0110877500846982, -0.019303016364574432, 0.11353284865617752, -0.015221109613776207, 0.025625862181186676, 0.03670849651098251, -0.05073649436235428, 0.044322434812784195, 0.037132054567337036, -0.004670203197747469, -0.01512875221669674, 0.029209379106760025, 0.05814190208911896, -0.0005847823340445757, 0.024541975930333138, 0.010037350468337536, 0.0469236858189106, -0.018494509160518646, 0.03994372859597206, -0.03211485594511032, 0.10509088635444641, -0.008561485446989536, -0.050955627113580704, -0.06559738516807556, 0.06745833903551102, 0.012105976231396198, -0.03243431821465492, -0.007800259627401829, 0.0003149207914248109, -0.06432993710041046, -0.010934357531368732, -0.004056887235492468, 0.008310622535645962, -0.028030958026647568, 0.03423284366726875, -0.03667178750038147, -0.03685604780912399, -0.01707456260919571, 0.05049516633152962, -0.0639909952878952, -0.03340429440140724, -0.03308538347482681, -0.0376114659011364, -0.011738467030227184, 0.05242190137505531, -0.02979915402829647, 0.02093467116355896, -0.0028804170433431864, -0.006503332406282425, -0.07317372411489487, 0.05018524080514908, 0.06210967153310776, -0.032466042786836624, -0.026961926370859146, -0.08083025366067886, -0.10339672118425369, -0.07632919400930405, -0.04829931631684303, -0.07270704954862595, 0.06581579148769379, 0.005657234229147434, 0.05997009947896004, -0.028976010158658028, 0.031687457114458084, 0.09182506799697876, 0.0932350754737854, -0.02305181883275509, 0.006755715236067772, -0.010713700205087662, -0.056463539600372314, -0.0183614119887352, -0.05769173428416252, 0.01530012208968401, 0.013356433250010014, -0.02802111953496933, -0.005708672106266022, -0.06538211554288864, -0.012491531670093536, 0.025167014449834824, 0.02762962318956852, 0.04844062402844429, 0.022900719195604324, -0.03724328428506851, -0.02274073287844658, -0.01860765554010868, 0.049089670181274414, 0.12834037840366364, 0.037613645195961, 0.02502315863966942, 0.03625471517443657, -0.0352567620575428, -0.0074067795649170876, -0.05871560424566269, 0.07914084196090698, -0.00578344939276576, -0.0011591763468459249, -0.05404504016041756, 0.055923305451869965, -0.056061144918203354, -0.03103114850819111, -0.017188355326652527, 0.030031563714146614, 0.0018293338362127542, -0.038528792560100555, -0.04410182684659958, -0.08634345978498459, -0.06372901797294617, 0.04540359601378441, 0.0030903920996934175, -0.02710716985166073, 0.014623647555708885, -0.020801648497581482, 0.015591594390571117, 0.015048458240926266, -0.06695430725812912, 0.06532406061887741, 0.005637447815388441, 0.031218448653817177, 0.05785663425922394, 0.012514445930719376, 0.02690579742193222, 0.10864514112472534, 0.07406430691480637, 0.03931053355336189, 0.019590549170970917, 0.06625153869390488, 0.0019674748182296753, 0.05388231948018074, 0.06966043263673782, 0.04867185279726982, 0.0024289831053465605, -0.0297570638358593, 0.014796577394008636, -0.0690973624587059, -0.12198969721794128, -0.08035493642091751, -0.1107805147767067, 0.014371257275342941, 0.07984422892332077, 0.06597167253494263, 0.08177302777767181, 0.08591336756944656, 0.0489596389234066, 0.0265195369720459, 0.03150267153978348, -0.023871775716543198, 0.09612172842025757, -0.030016424134373665, -0.009335687384009361, 0.00022354177781380713, -0.004815036430954933, -0.07252489030361176, 0.026248712092638016, -0.11955200135707855, 0.029123280197381973, 0.0015945658087730408, 0.0628933310508728, 0.02677273191511631, -0.03591937571763992, 0.06853051483631134, 0.016546553000807762, 0.03520863130688667, -0.0029527517035603523, -0.05943767726421356, -0.026035035029053688, 0.013684230856597424, 0.0164951104670763, 0.06925854831933975, -0.015793316066265106, 0.06762995570898056, 0.03639307618141174, 0.006575536914169788, -0.029281428083777428, 0.0825844556093216, -0.01364095788449049, -0.014449573121964931, 0.011329554952681065, -0.0452972836792469, -0.009765221737325191, -0.02408965677022934, 0.035099878907203674, 0.11510653793811798, 0.02339433878660202, -0.07468429207801819, 0.047311779111623764, -0.027944020926952362, -0.042825061827898026, 0.019021419808268547, 0.03071930818259716, 0.04719482362270355, -0.028712261468172073, 0.009252630174160004, -0.020804166793823242, -0.004332596901804209, -0.03765185922384262, 0.07317523658275604, 0.04979022964835167, -0.040869057178497314, 0.025021277368068695, 0.007897655479609966, -0.04496545344591141, -0.013836170546710491, -0.004679392091929913, 0.0445500910282135, -0.00019966700347140431, -0.0584990531206131, 0.012226317077875137, -0.013260263949632645, -0.027525832876563072, -0.05537962168455124, -0.011647704988718033, 0.05207144096493721, 0.0597543865442276, -0.004955992102622986, -0.06293706595897675, -0.0334639698266983, -0.08472942560911179, -0.005128185730427504, 0.03835097700357437, -0.055062610656023026, 0.04498804733157158, 0.010315499268472195, 0.009861266240477562, -0.046766433864831924, 0.03260043263435364, -0.019731435924768448, -0.016007397323846817, 0.05944155156612396, -0.03586527332663536, 0.002334298798814416, -0.047838516533374786, -0.07640819996595383, -0.09389735758304596, -0.062476951628923416, -0.06679262220859528, -0.0583052858710289, 0.03237796202301979, 0.024810368195176125, 0.03936152905225754, -0.05435021594166756, -0.030362097546458244, 0.03811615705490112, 0.03401889279484749, 0.022682353854179382, -0.012259715236723423, 0.04232003912329674, 0.01957855001091957, -0.02201412431895733, 0.050605759024620056, -0.001187254092656076, -0.01741580106317997, 0.0690472424030304, -0.015639644116163254, 0.02985178679227829, 0.03313509002327919, -0.04735356941819191, 0.03943010792136192, -0.06582414358854294, 0.04887705296278, -0.08073447644710541, 0.013380695134401321, -0.1102294996380806, -0.024792170152068138, -0.06790095567703247, -0.005195004865527153, 0.04210051894187927, 0.03866991028189659, 0.06618542969226837, 0.018876416608691216, -0.01109305303543806, 0.024291779845952988, -0.026579834520816803, -0.03784472867846489, 0.016614437103271484, 0.010771732777357101, -0.034387826919555664, -0.011671364307403564, 0.04770710691809654, 0.08079324662685394, 0.03778457269072533, 0.030878568068146706, -0.0009789092000573874, -0.05162130296230316, -0.057491131126880646, 0.023244939744472504, 0.03675522282719612, 0.026252562180161476, -0.015206051990389824, -0.04079386219382286, 0.009242293424904346, 0.010360535234212875, 0.047544464468955994, 0.005511472001671791, 0.022139566019177437, -0.039851319044828415, 0.02770189940929413, 0.03192161023616791, 0.06334216147661209, 0.030204689130187035, -0.02817273885011673, -0.02347061224281788, 0.0005404317053034902, -0.052914880216121674, 0.01723312772810459, -0.01796330139040947, 0.012471582740545273, -0.03373682498931885, 0.01577904261648655, -0.027019834145903587, 0.06233123689889908, -0.044519633054733276, -0.047256581485271454, -0.02155981957912445, -0.0072008646093308926, -0.026058707386255264, -0.027134962379932404, -0.0241085197776556, -0.01406254991889, -0.00036909396294504404, -0.018409982323646545, -0.039238687604665756, 0.03277328610420227, -0.03519915044307709, -0.05639161169528961, 0.0057771094143390656, -0.030628500506281853, -0.009480912238359451, 0.02285054326057434, 0.07943687587976456, 0.014630891382694244, 0.03653176873922348, -0.019762806594371796, -0.06410010904073715, 0.0024600415490567684, -0.060502052307128906, 0.052263014018535614, 0.0082878228276968, 0.06519848853349686, 0.009803138673305511, -0.07272183150053024, 0.02229117602109909, 0.046867117285728455, -0.03555896133184433, 0.03657472878694534, -0.04737563803792, -0.027808990329504013, 0.0371750146150589, 0.02669503167271614, -0.002755883615463972, 0.04034324735403061, -0.012187081389129162, 0.0006230438593775034, 0.044071394950151443, 0.008116564713418484, -0.06656035035848618, -0.06630928814411163, -0.005657010246068239, -0.04795295372605324, -0.02204696275293827, -0.0320417620241642, -0.03554214537143707, 0.004664492327719927, -0.01164200622588396, -0.0344584584236145, -0.023112235590815544, -0.04592723399400711, -0.002816932275891304, 0.013315987773239613, -0.04613012075424194, 0.04444172978401184, 0.04499863460659981, 0.013084685429930687, -0.011145654134452343, 0.046901725232601166, 0.009342481382191181, 0.07394841313362122, -0.011876449920237064, 0.04326707869768143, -0.04607905074954033, 0.02728685922920704, 0.03550207242369652, -0.012454348616302013, 0.03271036967635155, -0.062455855309963226, -0.06263787299394608, 0.009807140566408634, 0.06297825276851654, -0.017885642126202583, -0.06994526833295822, 0.02882523462176323, 0.03399725630879402, 0.008565310388803482, -0.02196964994072914, -0.003737397026270628, -0.007069628220051527, 0.021113941445946693, -0.040151651948690414, -0.023657411336898804, 0.02347240410745144, 0.022951435297727585, -0.04986803978681564, 0.060859158635139465, 0.03246195614337921, -0.054741229861974716, 0.007177840452641249, 0.03570451959967613, -0.01894322782754898, 0.047912925481796265, 0.05293169990181923, -0.00477657001465559, 0.055561043322086334, 0.0431225411593914, 0.035619307309389114, 0.024490410462021828, -0.05597766488790512, 0.04492886736989021, -0.0051192292012274265, 0.07420345395803452, 0.02683841437101364, -0.052155543118715286, 0.024069001898169518, 0.035426169633865356, -0.032894033938646317, -0.051240790635347366, -0.040475308895111084, 0.014195075258612633, 0.028830304741859436, -0.06653287261724472, -0.019183838739991188, -0.07044870406389236, -0.047515228390693665, 0.046571996062994, -0.03380002826452255, 0.017672287300229073, -0.0398629792034626, -0.05604942515492439, -0.05036221444606781, 0.044277090579271317, -0.019503625109791756, 0.026423271745443344, 0.0493585430085659, 0.03804047033190727, -0.01622701808810234, -0.057539597153663635, 0.0487215481698513, 0.015370586887001991, 0.0083010857924819, 0.02580137364566326, 0.046402089297771454, 0.04595476761460304, -0.044786881655454636, 0.029777420684695244, 0.05616346374154091, -0.05646787956357002, 0.0471329428255558, 0.02749844267964363, 0.02870490960776806, -0.007386498618870974, 0.025916043668985367, 0.033095456659793854, 0.05357324331998825, -0.036003053188323975, -0.04746471717953682, 0.006613423116505146, -0.006487708538770676, -0.014993390068411827, -0.029559681192040443, -0.07292879372835159, 0.030634257942438126, 0.01225846353918314, 0.07208865880966187, 0.018624039366841316, -0.04711265116930008, 0.034203045070171356, 0.051154591143131256, 0.030577488243579865, -0.05233762040734291, 0.02825668640434742, 0.037168003618717194, 0.05188240855932236, -0.040747497230768204, -0.06557397544384003, 0.01596280373632908, 0.012423437088727951, 0.00656805420294404, 0.07245071977376938, 0.010973157361149788, 0.03547589108347893, -0.0012117845471948385, 0.03661414235830307, -0.055681128054857254, 0.009323736652731895, -0.00746123306453228, 0.05707022547721863, -0.009869961999356747, -0.01987793669104576, 0.03546321764588356, -0.03110041283071041, -0.033862680196762085, 0.05311506986618042, 0.0029738040175288916, -0.044415827840566635, 0.04409028962254524, 0.02301480621099472, -0.012461325153708458, 0.03851821646094322, -0.05581281706690788, -0.019394269213080406, -0.021266937255859375, -0.051985058933496475, 0.022463472560048103, 0.06233822554349899, 0.06227077171206474, 0.01544308289885521, 0.0016146827256307006, 0.05852470546960831, 0.014199161902070045, 0.050383102148771286, 0.03534203767776489, 0.05230372026562691, -0.027616307139396667, -0.04627063125371933, 0.024958536028862, 0.04190662503242493, 0.01803480088710785, 0.03991794213652611, 0.016258420422673225, -0.05554094910621643, 0.055243466049432755, 0.050007790327072144, -0.0459161102771759, -0.02007763460278511, -0.07178723812103271, 0.0644046887755394, -0.026778405532240868, 0.016597218811511993, -0.10673508793115616, 0.11303242295980453, -0.0092847915366292, -0.06171237677335739, 0.02351125329732895, 0.030732810497283936, 0.028495460748672485, -0.07610964775085449, -0.035928111523389816, -0.036221928894519806, -0.04099217802286148, -0.013162847608327866, 0.025557059794664383, -0.012470496818423271, 0.03477173671126366, -0.04917963966727257, 0.021316781640052795, -0.07155077159404755, 0.028479520231485367, -0.06332086026668549, -0.010758303105831146, -0.07505660504102707, 0.059781912714242935, -0.002319569932296872, 0.03864366561174393, 0.011070290580391884, 0.03327315300703049, 0.005596660077571869, 0.013569975271821022, 0.01859174482524395, 0.0033545582555234432, 0.0387234166264534, -0.022389914840459824, -0.0009289806475862861, -0.07396475970745087, 0.008722592145204544, 0.0209996085613966, 0.028921794146299362, -0.02441425994038582, 0.01416250690817833, -0.062420934438705444, 0.04197680577635765, 0.09906153380870819, 0.08453821390867233, 0.04351399093866348, -0.07298989593982697, -0.04420860484242439, -0.09419387578964233, -0.03781622275710106, -0.039440806955099106, -0.07122894376516342, 0.02585195191204548, 0.04252975061535835, 0.057244256138801575, -0.011536161415278912, 0.05409886687994003, 0.05755408853292465, 0.01724434830248356, 0.05336000770330429, 0.022953223437070847, 0.05398140475153923, 0.01277927216142416, 0.14250127971172333, 0.08112665265798569, -0.06927673518657684, -0.06753501296043396, -0.046874843537807465, 0.00542531767860055, 0.01850407011806965, -0.06252355873584747, -0.054458603262901306, 0.04999084770679474, 0.012275510467588902, 0.0023561008274555206, 0.05313995108008385, 0.025615248829126358, 0.024534568190574646, 0.03936618193984032, 0.03616810590028763, -0.07224330306053162, -0.1165434792637825, -0.0026036815252155066, -0.10614252090454102, 0.05992083251476288, 0.024762073531746864, -0.03537323325872421, 0.013880779966711998, 0.050951968878507614, -0.004198744893074036, -0.09216216951608658, 0.01809474267065525, 0.08490779250860214, 0.021850567311048508, 0.012201650999486446, 0.09330239146947861, 0.04473050311207771, 0.05076049640774727, 0.09902478009462357, 0.0072190891951322556, -0.042259249836206436, 0.11141853034496307, 0.13719740509986877, 0.03820027783513069, -0.07229634374380112, -0.014897421933710575, 0.08042632043361664, 0.07416825741529465, 0.027267877012491226, 0.11574506014585495, 0.022755660116672516, -0.0887243002653122, -0.023411696776747704, -0.09779088944196701, 0.048279471695423126, 0.036456987261772156, -0.040410302579402924, -0.04796227812767029, 0.025781752541661263, 0.05300183594226837, -0.051664087921381, -0.05453145503997803, 0.014643112197518349, 0.019813481718301773, 0.04113267362117767, 0.038858529180288315, -0.026855649426579475, 0.09827204793691635, 0.10924559086561203, 0.0156305693089962, -0.02635539136826992, -0.007203038316220045, 0.011453482322394848, 0.014425760135054588, 0.03195635601878166, 0.00018583779456093907, -0.05445791408419609, -0.027734603732824326, 0.04014192149043083, 0.01640237309038639, -0.04545440152287483, 0.07318644970655441, 0.03866095468401909, 0.036538876593112946, -0.04212410748004913, 0.0009431915241293609, 0.043898649513721466, -0.04084888845682144, 0.02354220487177372, 0.01618971675634384, -0.05178169533610344, -0.002452523447573185, 0.011575809679925442, -0.05964278429746628, -0.060750313103199005, -0.06637077778577805, 0.034980133175849915, 0.04758279398083687, -0.017299819737672806, -0.025277741253376007, 0.01735488884150982, -0.05191589891910553, 0.026342984288930893, -0.014895815402269363, 0.07124339789152145, -0.027600333094596863, -0.027194321155548096, 0.015142874792218208, 0.023534785956144333, 0.015494393184781075, 0.02186894230544567, -0.003102766117081046, -0.016785137355327606, -0.037823621183633804, 0.02396070957183838, 0.02692204900085926, -0.13922680914402008, -0.067765973508358, -0.034903980791568756, 0.005863860249519348, 0.055845167487859726, 0.01841661147773266, -0.06510458886623383, 0.02843419648706913, -0.06087752431631088, -0.02053697779774666, -0.0005955323576927185, -0.029259664937853813, -0.015928633511066437, -0.00909531582146883, -0.09479974955320358, -0.013748670928180218, 0.08506675064563751, -0.0005496393423527479, -0.08852355182170868, -0.05348090082406998, 0.0010871879057958722, -0.006209868472069502, 0.09196338057518005, -0.00023819200578145683, -0.10964775830507278, -0.05544378608465195, 0.03527062013745308, -0.083147332072258, -0.04268329590559006, -0.01983388513326645, 0.040254127234220505, -0.0036123483441770077, 0.0023530232720077038, -0.02497824840247631, -0.008728129789233208, -0.0019293512450531125, 0.08081367611885071, 0.08506885170936584, -0.0216667503118515, -0.07932940870523453, 0.08469164371490479, 0.11825692653656006, -0.06410308182239532, -0.15072661638259888, -0.03508762642741203, -0.011647837236523628, -0.007847761735320091, -0.0759732648730278, -0.053321827203035355, 0.006494009401649237, 0.005907211918383837, 0.045548200607299805, -0.03684770688414574, -0.06274294853210449, -0.062531977891922, -0.019663840532302856, -0.05311346426606178, -0.05730469152331352, 0.028553348034620285, 0.09831924736499786, 0.06766816228628159, 0.005403460934758186, -0.05280659720301628, 0.0313866063952446, -0.05959406495094299, 0.005751770455390215, 0.046448223292827606, 0.018905216827988625, -0.04190249741077423, 0.03710781782865524, 0.05780159682035446, -0.025669408962130547, -0.0225807037204504, 0.03845934197306633, -0.055646076798439026, 0.05644645541906357, 0.020276688039302826, 0.059384752064943314, 0.024685822427272797, -0.047835640609264374, -0.035135332494974136, 0.025860663503408432, 0.023351747542619705, -0.05487000569701195, -0.06181497126817703, 0.01590137742459774, -0.038760438561439514, 0.0013076657196506858, -0.0044546048156917095, 0.009437988512217999, -0.012164331041276455, -0.015194726176559925, 0.009749927558004856, 0.06322351843118668, -0.05839330330491066, -0.060055408626794815, -0.0010151714086532593, -0.0262654609978199, 0.037819430232048035, -0.054499924182891846, -0.06334971636533737, 0.05934857949614525, -0.05478641763329506, -0.04794242978096008, 0.018683599308133125, -0.0511971041560173, -0.04127496853470802, 0.014784562401473522, -0.054336950182914734, -0.012462702579796314, 0.05674494430422783, -0.05003362521529198, 0.022476375102996826, -0.04501793906092644, -0.0007981349481269717, 0.03570137545466423, 0.024180060252547264, 0.04441384598612785, 0.016469847410917282, -0.0011513328645378351, 0.005314313340932131, 0.003383153583854437, -0.03586214408278465, -0.01760811172425747, -0.0013226642040535808, -0.061350028961896896, -0.05635032057762146, 0.008057530038058758, -0.057995203882455826, 0.03486957773566246, 0.0011245600180700421, -0.060929253697395325, -0.053908076137304306, -0.0020726292859762907, -0.048838019371032715, -0.05272998288273811, 0.04608084261417389, 0.006012502126395702, 0.00025504096993245184, -0.04187249019742012, 0.03862369805574417, -0.027477145195007324, 0.0510844849050045, -0.030500294640660286, -0.05285031348466873, 0.025941509753465652, 0.053330834954977036, 0.0012819534167647362, 0.02643320895731449, 0.04642390459775925, 0.05590585619211197, -0.0036996377166360617, -0.018350359052419662, 0.03872635215520859, 0.03619217500090599, -0.03315788879990578, 0.01033724844455719, 0.04487971216440201, -0.037575218826532364, -0.023773381486535072, 0.017380720004439354, -0.033854346722364426, 0.037971094250679016, -0.0631355494260788, 0.04843340069055557, 0.0046895956620574, 0.02348431944847107, 0.04026683792471886, -0.06263945996761322, -0.03288843110203743, -0.0225692018866539, 0.027584807947278023, 0.04869716987013817, -0.009533261880278587, -0.01168525218963623, 0.007062631659209728, 0.009572945535182953, -0.02286149002611637, 0.048247963190078735, 0.03436744213104248, 0.02742670476436615, -0.05176105722784996, 0.024811893701553345, -0.036032140254974365, -0.026735365390777588, 0.018983269110322, -0.054050810635089874, 0.053570497781038284, -0.000158633993123658, -0.018908396363258362, -0.02272089384496212, -0.04318927228450775, 0.0401955246925354, -0.06178989261388779, 0.00010432810813654214, -0.03122178465127945, -0.038176700472831726, -0.0039893826469779015, 0.043597638607025146, 0.030494123697280884, -0.01556500792503357, -0.01650940626859665, -0.05603526532649994, -0.05854713171720505, -0.0118562588468194, -0.019464340060949326, -0.04272951930761337, 0.029178692027926445, -0.06055130809545517, 0.023287739604711533, -0.06356485188007355, -0.046056535094976425, -0.03833244368433952, 0.060768913477659225, -0.017433064058423042, 0.06077411398291588, 0.003322846256196499, -0.04052938520908356, 0.012958201579749584, 0.0378754660487175, 0.05248364433646202, 0.060070980340242386, -0.039205946028232574, -0.007303692400455475, 0.04601796716451645, -0.016246063634753227, 0.058107294142246246, -0.0325319804251194, -0.026848193258047104, -0.005542459432035685, -0.0005990580539219081, -0.005919264163821936, -0.017452411353588104, 0.046104494482278824, 0.039705827832221985, -0.04600893706083298, -0.053212475031614304, -0.028371192514896393, -0.05937548354268074, 0.024419110268354416, -0.04945196583867073, -0.03795268014073372, -0.030403152108192444, 0.03546856343746185, -0.003344933735206723, 0.02340811677277088, 0.05399366840720177, 0.055117614567279816, 0.03797473385930061, -0.04894644767045975, 0.042644619941711426, -0.00920871738344431, 0.022863255813717842, -0.013062930665910244, -0.011821194551885128, 0.013501150533556938, 0.002999295713379979, -0.017735615372657776, -0.020684581249952316, -0.006265247706323862, 0.0640760213136673, 0.028555726632475853, -0.03081512823700905, 0.02045602723956108, 0.0435461699962616, 0.0605507493019104, 0.03345673903822899, 0.017283212393522263, -0.050466425716876984, -0.0026490455493330956, 0.02574199065566063, -0.05737190693616867, 0.04355573281645775, -0.05690406635403633, -0.04556937888264656, 0.0534842349588871, 0.025170279666781425, -0.056615106761455536, -0.034549031406641006, -0.0027129030786454678, 0.029141005128622055, -0.009878023527562618, -0.06096084788441658, -0.01556727197021246, 0.03330385684967041, -0.04052277281880379, 0.0388927161693573, -0.058147113770246506, 0.0480247400701046, 0.016816873103380203, 0.0035275579430162907, 0.021758636459708214, 0.00908995233476162, 0.05578359216451645, 0.01908179558813572, 0.018998395651578903, -0.038820963352918625, 0.01246450375765562, 0.035291511565446854, -0.0364319384098053, -0.043037526309490204, -0.03066292777657509, -0.03275701403617859, -0.0805433914065361, -0.004708222113549709, 0.039131730794906616, -0.03857420012354851, 0.025570634752511978, 0.04115721955895424, -0.00414790865033865, 0.03383881226181984, 0.05038565397262573, 0.07417493313550949, 0.06848341971635818, 0.08952698111534119, 0.05020822212100029, -0.08529608696699142, -0.08123371750116348, -0.020434899255633354, 0.04185826703906059, 0.05396520718932152, 0.01752503588795662, 0.02962365560233593, -0.028936121612787247, -0.036632996052503586, 0.025155454874038696, -0.019221827387809753, 0.026392078027129173, -0.049547549337148666, -0.047283560037612915, 0.04347975552082062, -0.015548036433756351, -0.034456755965948105, 0.003602509619668126, -0.00371819781139493, -0.0772472694516182, -0.030600210651755333, 0.03699691593647003, -0.02277984283864498, -0.028104320168495178, -0.11899209022521973, -0.024077724665403366, 0.0207082349807024, 0.0011418487410992384, -0.08922489732503891, 0.07924099266529083, -0.05323782563209534, -0.002152323257178068, -0.06702949106693268, 0.047571513801813126, -0.036236610263586044, 0.06883428990840912, 0.08306701481342316, 0.046454016119241714, 0.01939927600324154, -0.018296251073479652, -0.04306184872984886, 0.04343036562204361, -0.018006084486842155, 0.028397373855113983, -0.052017174661159515, 0.03309062495827675, 0.010172166861593723, -0.002136314520612359, 0.044870682060718536, 0.01808396354317665, 0.042286042124032974, -0.0851810947060585, -0.1458158940076828, 0.019418837502598763, -0.042801376432180405, -0.025842826813459396, -0.09016141295433044, -0.1799929141998291, 0.056590694934129715, -0.0051049236208200455, -0.10707443207502365, -0.051730927079916, -0.07210598886013031, -0.015196636319160461, -0.09047926962375641, -0.04110390320420265, -0.04943445697426796, -0.05281870439648628, 0.01019604317843914, -0.06820987910032272, -0.05905001237988472, -0.016823552548885345, -0.15772047638893127, -0.05057130753993988, 0.0431922972202301, 0.030513864010572433, -0.06516629457473755, -0.02424178272485733, -0.00525789987295866, 0.00476455595344305, -0.03781193494796753, 0.03049950860440731, 0.04310968518257141, 0.01069582998752594, 0.023190030828118324, 0.05884324386715889, -0.06921521574258804, -0.03440634161233902, 0.08709172159433365, -0.02517232671380043, 0.006817652843892574, -0.010146340355277061, 0.14306291937828064, 0.02911953441798687, -0.007612942717969418, 0.01839081011712551, -0.01877729780972004, -0.10624659061431885, 0.052571576088666916, 0.057302024215459824, 0.09327012300491333, -0.015319359488785267, 0.06218818202614784, -0.0013821404427289963, -0.05141746997833252, -0.02417452074587345, 0.008048677816987038, -0.013069476932287216, 0.015217969194054604, -0.018125290051102638, 0.028459476307034492, -0.008001002483069897, 0.03799062594771385, 0.0260833241045475, 0.04024043679237366, 0.02386755496263504, 0.03708051145076752, -0.02135162614285946, -0.007794481236487627, 0.0818646103143692, -0.07224280387163162, -0.005741781089454889, 0.05235980823636055, 0.015358513221144676, 0.06880001723766327, 0.08237852156162262, -0.11890675127506256, -0.020680034533143044, -0.023622002452611923, -0.06348836421966553, -0.05399351194500923, -0.00013653079804498702, -0.037905849516391754, 0.055365003645420074, 0.04183601588010788, 0.0010990588925778866, 0.005564181599766016, 0.05633154138922691, -0.0014085136353969574, 0.07269278913736343, 0.057092826813459396, -0.009490848518908024, -0.044531404972076416, -0.05832323804497719, -0.04640883952379227, -0.040732476860284805, -0.006727444939315319, 0.08775267004966736, 0.043613236397504807, -0.01780102215707302, -0.040458034723997116, 0.019762950018048286, 0.02979499287903309, -0.039099544286727905, 0.03614804521203041, 0.058054160326719284, -0.015603701584041119, -0.07246929407119751, 0.006531728897243738, 0.03810417652130127, -0.00646239472553134, -0.07778851687908173, 0.0789261907339096, 0.038976915180683136, 0.0969206914305687, 0.11849219352006912, -0.07019154727458954, 0.03843618929386139, 0.059191931039094925, 0.04909825325012207, 0.057013463228940964, 0.06948542594909668, 0.12516333162784576, -0.0033145779743790627, 0.07773011177778244, 0.08627713471651077, 0.03322809934616089, -0.003498065983876586, 0.03364761918783188, 0.05704571306705475, -0.019658297300338745, -0.03150150179862976, -0.00014091414050199091, 0.006795833352953196, 0.17903974652290344, 0.03970976546406746, 0.03455837443470955, 0.003428177209571004, 0.16312876343727112, -0.07879707962274551, 0.07896451652050018, -0.00022910651750862598, -0.02808099240064621, -0.10248144716024399, -0.005863184109330177, -0.012401137501001358, -0.01025725994259119, 0.03361542150378227, -0.04670726880431175, 0.05469449982047081, -0.0331258699297905, -0.03580211475491524, 0.06749381124973297, 0.05259784683585167, 0.038507699966430664, -0.02753392793238163, 0.04161163046956062, 0.05922078713774681, 0.016832008957862854, -0.04381734877824783, 0.02855158969759941, 0.020455332472920418, 0.03795354813337326, 0.05611168593168259, 0.026771917939186096, 0.002503469819203019, -0.06514609605073929, -0.06432818621397018, -0.07491794228553772, -0.01862448826432228, -0.04491810500621796, -0.03910436853766441, -0.05211556330323219, -0.04244629293680191, -0.05080420896410942, 0.021506188437342644, -0.0061401487328112125, 0.03528023511171341, 0.06993258744478226, -0.001888173632323742, 0.03400641679763794, 0.016911709681153297, -0.01909690722823143, 0.013242506422102451, 0.0021121413446962833, -0.0022807056084275246, 0.03180370479822159, 0.024042006582021713, 0.020250864326953888, -0.06445572525262833, 0.02650820091366768, 0.024219099432229996, 0.054802000522613525, 0.05050945654511452, -0.008359115570783615, -0.04826689511537552, 0.03481215238571167, 0.021932635456323624, 0.018098952248692513, -0.03351815044879913, 0.0334615558385849, 0.040641576051712036, 0.037192195653915405, -0.03439049795269966, 0.029740938916802406, -0.048669781535863876, 0.006598174571990967, -0.053224001079797745, -0.050461545586586, 0.04800860211253166, 0.034343887120485306, 0.0343952439725399, 0.07187946140766144, -0.006792363710701466, 0.017782242968678474, -0.03892683982849121, -0.0648002177476883, -0.08231886476278305, -0.032392337918281555, 0.0631316602230072, -0.024831000715494156, 0.04704149067401886, -0.07412409037351608, -0.011493469588458538, -0.021858936175704002, -0.03571225330233574, 0.03929708153009415, -0.04385635256767273, 0.0033056719694286585, -0.02476661279797554, 0.035839345306158066, 0.052377741783857346, -0.007037971168756485, -0.038902148604393005, 0.0048518106341362, 0.05029116943478584, 0.011873304843902588, 0.020716004073619843, -0.004260045941919088, 0.02256411872804165, -0.021873418241739273, -0.03685963153839111, 0.007156031206250191, 0.025553550571203232, -0.06345483660697937, -0.0394691601395607, 0.06124609708786011, -0.0690491572022438, 0.0323343500494957, -0.08205616474151611, -0.0893855169415474, -0.06573186069726944, -0.09137098491191864, -0.015616567805409431, -0.06831096112728119, 0.014145432971417904, 0.05930282175540924, 0.04893803223967552, 0.04011566936969757, -0.05703353509306908, 0.05810609832406044, -0.054079413414001465, -0.0020211865194141865, -0.029436646029353142, -0.04959142580628395, 0.03900868445634842, 0.03573378175497055, -0.09137767553329468, -0.014247932471334934, 0.02726752683520317, 0.07858668267726898, -0.03607160598039627, 0.03568397834897041, 0.06138371303677559, 0.06042403355240822, 0.02017979510128498, 0.13023421168327332, -0.03183833882212639, -0.01855458877980709, 0.0343395434319973, 0.055903173983097076, -0.007967057637870312, -0.017090102657675743, 0.08446121215820312, 0.04416981339454651, -0.02202630043029785, -0.02367645688354969, -0.007744587026536465, 0.03788132965564728, -0.049400199204683304, 0.04248473048210144, 0.029429966583848, -0.026954246684908867, 0.014507263898849487, 0.06263452768325806, -0.023453371599316597, 0.02733445167541504, 0.027086064219474792, 0.049388233572244644, -0.04720163717865944, -0.020563296973705292, 0.04795624315738678, -0.02075302228331566, -0.04331734776496887, 0.004464366007596254, 0.040980614721775055, -0.013413594104349613, 0.0019194501219317317, 0.09517081826925278, 0.005295195151120424, -0.06972172111272812, -0.0385778546333313, 0.030395854264497757, -0.04406123608350754, -0.0294504351913929, -0.017043720930814743, -0.00024128843506332487, 0.03437087684869766, 0.019369937479496002, -0.0010904456721618772, -0.016986403614282608, -0.03152468428015709, -0.02091730572283268, 0.00045334227615967393, 0.06470328569412231, -0.037207018584012985, -0.06294487416744232, 0.005413514096289873, 0.008301774971187115, 0.0431552417576313, 0.017646424472332, -0.03132830560207367, 0.05027853325009346, 0.039568331092596054, -0.051285549998283386, 0.028058165684342384, -0.04890918359160423, -0.014002643525600433, -0.046186789870262146, 0.007829184643924236, 0.055561717599630356, -0.0017008217982947826, -0.03585426136851311, -0.008014620281755924, 0.043061330914497375, 0.05589849874377251, 0.056849490851163864, -0.003276958130300045, -0.021632838994264603, 0.010568720288574696, -0.054416757076978683, -0.036608267575502396, -0.05608915165066719, 0.06958199292421341, 0.025469616055488586, 0.011613271199166775, 0.03704375401139259, 0.04451213777065277, 0.09309841692447662, -0.006176252383738756, -0.007793422322720289, 0.057694561779499054, 0.001260198070667684, 0.051243238151073456, -0.04045765846967697, 0.0327993780374527, 0.04283144325017929, -0.006858993787318468, 0.011394094675779343, 0.07913114130496979, -0.009781465865671635, -0.016885027289390564, -0.03305310383439064, 0.008255689404904842, -0.04351850971579552, 0.017506135627627373, 0.06799798458814621, 0.0220523402094841, -0.038947366178035736, -0.027393968775868416, -0.015355074778199196, -0.03852376341819763, -0.06404878944158554, -0.0014488487504422665, 0.019775478169322014, 0.052614856511354446, 0.043360330164432526, -0.03193434700369835, 0.08928485959768295, 0.0014390653232112527, -0.020135357975959778, -0.05933433771133423, -0.03724801912903786, 0.03432542830705643, 0.0015769843012094498, -0.05429243668913841, 0.007763333152979612, 0.060640741139650345, 0.060430556535720825, -0.00463993102312088, -0.016603462398052216, -0.014700349420309067, 0.01892571523785591, -0.040290866047143936, -0.0226804967969656, 0.059400878846645355, 0.06402500718832016, 0.011091714724898338, 0.026718206703662872, -0.0003684875264298171, -0.013188434764742851, 0.036311183124780655, 0.006344777997583151, -0.05771290883421898, 0.05208877474069595, -0.03576698899269104, 0.02063470147550106, 0.03231653571128845, -0.01017660740762949, 0.036776043474674225, 0.004900540690869093, 0.016206875443458557, -0.005795702803879976, -0.06645046919584274, 0.057048097252845764, 0.05038493871688843, -0.05757984146475792, -0.028948940336704254, 0.024539506062865257, 0.02451983280479908, 0.06309312582015991, 0.0019658710807561874, 0.018669812008738518, -0.010530881583690643, 0.0364239476621151, 0.017887309193611145, 0.001463507185690105, -0.04076981917023659, -0.009626260958611965, 0.05730227753520012, 0.05846800282597542, 0.009456143714487553, 0.03640490025281906, 0.05244242399930954, 0.04150325804948807, 0.061326246708631516, 0.03192569315433502, 0.00838548131287098, 0.014249727129936218, 0.054106149822473526, -0.012420865707099438, 0.028539063408970833, -0.029636060819029808, -0.020151572301983833, -0.004541599191725254, 0.056633442640304565, -0.014899215660989285, -0.009182486683130264, -0.012972596101462841, -0.013564243912696838, -0.0047715818509459496, -0.033967889845371246, -0.00012186284584458917, 0.0422879159450531, 0.013537186197936535, -0.024829093366861343, -0.033061202615499496, -0.024868985638022423, 0.048074621707201004, 0.05730312317609787, 0.05684961751103401, 0.0009460772853344679, -0.05292010307312012, -0.03278730809688568, 0.047634366899728775, 0.035946644842624664, 0.06535252928733826, -0.03806563466787338, 0.06595703959465027, 0.0009648005361668766, 0.010048534721136093, -0.0016467840177938342, -0.0024201408959925175, -0.017802488058805466, -0.018815193325281143, 0.07686073333024979, 0.028390059247612953, -0.04708925262093544, -0.01114953588694334, 0.07028806954622269, 0.005761433392763138, -0.027705319225788116, 0.048697128891944885, 0.03892190009355545, 0.03171059489250183, -0.017423825338482857, -0.003732324345037341, 0.0372396782040596, -0.05870295315980911, -0.048327360302209854, 0.08677477389574051, -0.04688725993037224, 0.06132405996322632, 0.021114036440849304, -0.03246058151125908, -0.027157220989465714, -0.004165756981819868, -0.020528607070446014, 0.014066061936318874, -0.012576133944094181, -0.01677221618592739, -0.046475619077682495, -0.03567877411842346, -0.01534466352313757, 0.013620462268590927, -0.001491627423092723, 0.02845572680234909, -0.04899673908948898, -0.04279060661792755, 0.02238534763455391, -0.06798969209194183, 0.05325620621442795, -0.031651820987463, 0.017099428921937943, 0.01467576902359724, -0.064080148935318, -0.04256182163953781, -0.05372711643576622, -0.003979244269430637, 0.010416087694466114, 0.05844651535153389, 0.011020122095942497, 0.02057776413857937, 0.02101818099617958, -0.03685649111866951, -0.00647602928802371, 0.03626928851008415, -0.04873372241854668, 0.014242664910852909, -0.05766434967517853, -0.038456544280052185, -0.030496491119265556, 0.006492768879979849, -0.0003603360673878342, -0.03340332210063934, 0.03147966042160988, -0.05594287067651749, -0.03531290590763092, 0.023034904152154922, 0.003640570444986224, 0.055648401379585266, 0.05773413926362991, -0.060538310557603836, -0.01956954039633274, 0.0514618381857872, -0.05020587891340256, -0.03535742312669754, 0.055312685668468475, -0.019813867285847664, 0.00754959974437952, 0.018833734095096588, -0.06420857459306717, -0.06019539386034012, 0.043528564274311066, 0.01075036358088255, 0.02441583015024662, 0.004758622031658888, -0.05933248624205589, 0.04566232115030289, 0.021031895652413368, 0.04683707281947136, -0.023833435028791428, 0.033252209424972534, -0.0464923270046711, -0.048076409846544266, 0.042303089052438736, -0.04810313507914543, -0.032174959778785706, -0.028460269793868065, 0.056687131524086, 0.06988407671451569, -0.019716789945960045, 0.03901134058833122, -0.021504424512386322, -0.015365398488938808, -0.02383565343916416, 0.062294844537973404, 0.010681703686714172, 0.03882278874516487, -0.021925361827015877, -0.0333331935107708, -0.005298449192196131, 0.01832406222820282, -0.05450557544827461, -0.024368515238165855, 0.0025927135720849037, -0.05423345789313316, -0.03278449550271034, 0.06581396609544754, -0.027179528027772903, 0.04344881325960159, 0.03874940425157547, 0.018689393997192383, 0.025818074122071266, -0.046013977378606796, -0.003376455744728446, -0.05981104075908661, -0.02138964645564556, 0.022095004096627235, -0.06700298190116882, -0.018621094524860382, 0.02370590530335903, -0.035348258912563324, -0.01345397625118494, 0.01365780457854271, -0.02466721087694168, 0.03104669228196144, 0.031588513404130936, -0.02285614423453808, 0.03264308348298073, 0.06898192316293716, -0.042243827134370804, 0.006452153902500868, -0.003980804234743118, 0.028642619028687477, -0.0534285306930542, -0.06635673344135284, -0.008176625706255436, 0.04981917515397072, 0.05662824958562851, 0.055822789669036865, -0.038508571684360504, 0.022168686613440514, -0.021080968901515007, -0.022059936076402664, -0.030037781223654747, 0.04267693683505058, 0.04058722406625748, -0.04334811866283417, -0.0002341290091862902, 0.002216849010437727, 0.05538041144609451, -0.0394502691924572, -0.03300093114376068, 0.005661520641297102, 0.018255414441227913, 0.047595810145139694, 0.03390849381685257, -0.020554345101118088, -0.03629961609840393, 0.0014783429214730859, 0.020983075723052025, 0.025146711617708206, -0.01984468847513199, 0.006483911070972681, 0.05850710719823837, -0.024840690195560455, -0.002733261790126562, -0.06364580988883972, 0.005528914742171764, -0.10502444207668304, 0.004712974186986685, -0.07248665392398834, -0.019752562046051025, 0.02125425450503826, 0.019416028633713722, -0.03329142928123474, -0.07566840201616287, 0.029588492587208748, 0.047166503965854645, -0.01698972098529339, 0.010575682856142521, 0.05747517570853233, -0.03922838717699051, -0.007549764588475227, 0.007845473475754261, -0.015011419542133808, 0.0457625687122345, 0.05825042724609375, 0.0580868199467659, 0.08058664947748184, -0.03985153138637543, 0.03719064220786095, 0.044556014239788055, -0.06692420691251755, -0.0168452151119709, 0.02897186391055584, -0.0014991218922659755, 0.0084121935069561, 0.009491565637290478, -0.01862066052854061, 0.03630368784070015, 0.012976257130503654, 0.013599586673080921, 0.023018810898065567, -0.018434744328260422, 0.08476165682077408, 0.0131803834810853, -0.0025227924343198538, -0.040223702788352966, 0.03494877740740776, 0.06157548353075981, -0.0029608760960400105, 0.07988516241312027, -0.03797943517565727, 0.0027629921678453684, 0.02007419988512993, 0.01803465560078621, 0.027193818241357803, -0.021140223369002342, 0.0314713679254055, 0.03551875427365303, -0.06054292246699333, 0.001546299085021019, 0.025890260934829712, 0.05928017944097519, -0.06355882436037064, 0.04647855833172798, -0.019589558243751526, -0.03174630180001259, 0.0367698036134243, 0.09907125681638718, 0.10145263373851776, 0.06044505536556244, -0.00923898909240961, -0.04515080526471138, 0.011571460403501987, 0.05353403463959694, 0.08078905194997787, 0.12548452615737915, 0.025025395676493645, 0.10038946568965912, 0.11333685368299484, 0.014770959503948689, 0.015316390432417393, 0.07476723194122314, -0.08228667080402374, -0.035783715546131134, -0.018625106662511826, -0.03142103925347328, -0.13471858203411102, 0.0034560186322778463, -0.0016865511424839497, 0.07292715460062027, 0.08692550659179688, 0.016685673967003822, 0.003642626339569688, 0.10012294352054596, 0.12099626660346985, -0.09510816633701324, -0.011377351358532906, 0.016155004501342773, -0.10710365325212479, -0.011992672458291054, -0.007179761305451393, -0.03430135175585747, -0.19044138491153717, 0.06480968743562698, -0.016673553735017776, -0.06964293867349625, 0.13065673410892487, 0.11360199004411697, 0.05973372980952263, -0.03790484741330147, 0.024714525789022446, -0.026253607124090195, 0.006924604065716267, -0.01710381545126438, 0.04417302832007408, -0.047924820333719254, 0.03742840513586998, 0.06796416640281677, 0.04546656087040901, 0.0011004619300365448, -0.0505775548517704, 0.05261755362153053, 0.08449231088161469, 0.04143355414271355, -0.029541468247771263, -0.007721540052443743, -0.054393548518419266, 0.039995308965444565, 0.06139720231294632, -0.01834142580628395, -0.024235280230641365, -0.028609976172447205, -0.0432637520134449, -0.05100182071328163, -0.038033418357372284, -0.002173458458855748, -0.048201411962509155, -0.031026586890220642, 0.12105201929807663, 0.03292802721261978, 0.05696463957428932, -0.05824194476008415, 0.11322858184576035, 0.05712655186653137, 0.04204203188419342, 0.06966830790042877, 0.029209982603788376, -0.013327655382454395, -0.05256372690200806, 0.003666212083771825, -0.0074502951465547085, 0.017133474349975586, -0.05163540318608284, 0.011170865036547184, 0.045117300003767014, 0.04340900853276253, 0.00411455612629652, -0.010984210297465324, 0.016167787835001945, -0.042900096625089645, -0.010649723000824451, 0.031871240586042404, 0.0006019014399498701, 0.0002543996961321682, -0.007843317463994026, -0.05825972557067871, -0.007747158873826265, -0.06204327568411827, -0.027431180700659752, -0.04344501346349716, -0.021565863862633705, 0.009449050761759281, -0.038489148020744324, 0.005040263291448355, 0.026067672297358513, 0.06964971870183945, -0.006357413716614246, -0.0294856745749712, 0.03579052910208702, 0.04031651094555855, 0.040246546268463135, -0.014866374433040619, -0.048555709421634674, 0.016772739589214325, 0.010137323290109634, 1.550826164020691e-05, -0.11652334779500961, -0.06372590363025665, -0.06355618685483932, 0.028009910136461258, 0.00909038633108139, 0.012531804852187634, 0.005209045019000769, 0.0025308572221547365, -0.009420770220458508, 0.1136847585439682, -0.0672023594379425, -0.026830976828932762, 0.010959383100271225, 0.005339815281331539, -0.04678047075867653, -0.047343261539936066, -0.009052006527781487, 0.03488175943493843, -0.061033230274915695, -0.006560430862009525, -0.0172195453196764, -0.01950397528707981, 0.0584532730281353, 0.011241581290960312, -0.0438588485121727, 0.003234556410461664, -0.08619221299886703, -0.007343920413404703, -0.05953386053442955, -0.07646965235471725, 0.048118192702531815, -0.06276875734329224, -0.020505251362919807, 0.033550407737493515, -0.011033612303435802, -0.07193275541067123, -0.002822804730385542, -0.08027789741754532, -0.043093372136354446, 0.04864643141627312, 0.052712295204401016, 0.04701750725507736, 0.05285002663731575, 0.08822467178106308, 0.03974330425262451, -0.00713302381336689, 0.04408242926001549, 0.03200883790850639, -0.005122683942317963, -0.026265643537044525, 0.03738519921898842, 0.017731601372361183, -0.024414274841547012, 0.031599029898643494, -0.020716307684779167, -0.009203076362609863, 0.0033295024186372757, -0.019076121971011162, -0.02620401792228222, -0.06003863364458084, 0.024161862209439278, 0.0027247811667621136, -0.05923939123749733, -0.011750060133635998, 0.039478350430727005, 0.04317333176732063, -0.027583502233028412, -0.027111079543828964, 0.019792573526501656, 0.015725167468190193, 0.039360664784908295, -0.0029620772693306208, 0.04126293584704399, -0.02913147583603859, -0.04091368615627289, 0.04349639639258385, -0.05596421658992767, -0.015481422655284405, 0.004764375276863575, -0.008147680200636387, -0.023744473233819008, 0.04158942401409149, -0.013045839965343475, 0.05208848789334297, -0.018723217770457268, 0.03987988084554672, -0.02296183817088604, 0.01930410787463188, -0.010439706966280937, 0.015186307020485401, -0.03195330500602722, -0.0024924096651375294, -0.00972718745470047, -0.014359256252646446, -0.03093160316348076, -0.009752126410603523, -0.06330495327711105, 0.029340438544750214, -0.058302395045757294, 0.022796442732214928, -0.002700480632483959, 0.05519287660717964, -0.044412676244974136, 0.045369964092969894, 0.05775107815861702, -0.02535122074186802, 0.05105509236454964, 0.02790190279483795, -0.016276894137263298, 0.01588684506714344, 0.024315690621733665, -0.051217131316661835, -0.013343379832804203, -0.061372026801109314, 0.06265167146921158, -0.008837654255330563, 0.04216126352548599, 0.042691420763731, 0.04460268095135689, -0.020301932469010353, -0.03436708077788353, -0.002506930148229003, -0.026133017614483833, -0.010216746479272842, 0.013225254602730274, -0.018398014828562737, -0.06414160132408142, 0.03576269373297691, -0.047029219567775726, -0.06437892466783524, -0.016621695831418037, -0.009766615927219391, -0.041129741817712784, -0.015372231602668762, 0.012357944622635841, -0.0019373747054487467, -0.0540308803319931, 0.05738317593932152, -0.027342505753040314, 0.0034380622673779726, 0.013323411345481873, 0.014642814174294472, 0.03403836861252785, -0.046468961983919144, -0.025508197024464607, 0.062283460050821304, -0.00019722097204066813, -0.0032448582351207733, -0.0543985590338707, -0.05239581689238548, 0.04569243639707565, -0.04002425819635391, -0.0531306192278862, -0.0033099802676588297, -0.05056801065802574, 0.035169363021850586, -0.05153510719537735, 0.004024161957204342, -0.05132213607430458, -0.049895089119672775, 0.01595807634294033, -0.056609079241752625, -0.05540106073021889, -0.0027228035032749176, -8.803765376796946e-05, 0.012422981671988964, 0.01337428204715252, -0.05544809252023697, 0.03968622162938118, -0.052941277623176575, 0.028940118849277496, -0.016250500455498695, 0.06271762400865555, -0.06277485936880112, 0.054691921919584274, 0.053355757147073746, -0.03205376863479614, 0.020370524376630783, -0.05122389271855354, 0.027660351246595383, -0.001438027829863131, 0.04764246940612793, -0.059261661022901535, -0.015577532351016998, -0.007260286249220371, -0.06423160433769226, -0.050001002848148346, -0.010092634707689285, -0.05456646904349327, 0.053759243339300156, 0.055052150040864944, 0.0025513297878205776, 0.04934380203485489, -0.00566683616489172, -0.013146250508725643, 0.011378810741007328, -0.044307317584753036, 4.8354919272242114e-05, -0.03574707359075546, -0.048231177031993866, 0.029379336163401604, -0.03073410503566265, -0.012921558693051338, -0.06364195048809052, -0.006267455872148275, -0.06166703253984451, 0.01913081854581833, -0.05588221177458763, 0.06248176470398903, -0.038722746074199677, 0.057842694222927094, 0.006125715561211109, -0.009240052662789822, 0.05153649300336838, 0.027522766962647438, -0.026196299120783806, -0.007006776984781027, -0.0190215352922678, -0.02209465764462948, -0.015278145670890808, -0.038511767983436584, 0.007095968816429377, 0.06426671147346497, -0.0643090084195137, 0.00017125828890129924, 0.05785544961690903, -0.060334231704473495, -0.024583719670772552, 0.05971913784742355, -0.030940068885684013, -0.014380070380866528, 0.04479653760790825, -0.0387086421251297, -0.025441858917474747, 0.037340808659791946, 0.020638562738895416, 0.04163683205842972, -0.05928601324558258, -0.03172508254647255, 0.030845683068037033, 0.031815290451049805, -0.007005714811384678, 0.03218471631407738, -0.041225846856832504, -0.030395491048693657, -0.03408575430512428, 0.06361573934555054, -0.0028208678122609854, -0.05309559404850006, -0.019800299778580666, -0.03542609512805939, 0.02353604882955551, -0.042270079255104065, -0.05224687233567238, -0.0031472942791879177, -0.061051417142152786, 0.016946682706475258, -0.028020096942782402, 0.03387390449643135, 0.02128843031823635, 0.05924992635846138, 0.053739164024591446, 0.020706886425614357, 0.04578206688165665, -0.03200098127126694, -0.012745252810418606, 0.04732390493154526, -0.05886152386665344, -0.025378312915563583, -0.005963791161775589, -0.01756344735622406, -0.03071579895913601, -0.05324104055762291, 0.05633346363902092, 0.04362763836979866, -0.06195932626724243, 0.03199436515569687, 0.005935535300523043, -0.04552503302693367, 0.009828283451497555, 0.03532852232456207, 0.0403415746986866, -0.049345068633556366, -0.02551249787211418, -0.06362038105726242, -0.05791475623846054, -0.05397510901093483, -0.007425826974213123, -0.03584827110171318, 0.02180001139640808, 0.02581089921295643, 0.008327195420861244, -0.0584963783621788, 